tree
version=v4
num_class=1
num_tree_per_iteration=1
label_index=0
max_feature_idx=8
objective=regression
feature_names=Column_0 Column_1 Column_2 Column_3 Column_4 Column_5 Column_6 Column_7 Column_8
feature_infos=[6.359375:29.9686279296875] [6.26171875:25.45703125] [6.2890625:29.384147644042969] [30.209999084472656:41.049999237060547] [0.62060290575027466:0.97924631834030151] [0.040314652025699615:1] [0.74818223714828491:150] [0.2839285135269165:8.8519077301025391] [7.5308322906494141:2600.753173828125]
tree_sizes=10799 11511 11489 11488 11471 11513 11494 11529 11510 11480 11485 11512 11523 11516 11537 11509 11500 11531 11552 11496 11544 11538 11543 11566 11551 11567 11524 11567 11571 11539 11567 11559 11550 11576 11537 11552 11560 11556 11540 11574 11581 11580 11581 11568 11561 11565 11609 11606 11542 11613 11630 11610 11613 11601 11607 11616 11636 11605 11630 11637 11638 11586 11624 11645 11609 11630 11647 11617 11642 11648 11665 11625 11676 11656 11678 11660 11654 11640 11659 11687 11674 11627 11689 11706 11658 11686 11659 11683 11678 11698 11720 11674 11695 11693 11704 11702 11725 11692 11701 11689 11689 11731 11711 11735 11716 11714 11715 11736 11728 11695 11747 11735 11728 11701 11734 11729 11729 11690 11748 11711 11739 11752 11748 11749 11738 11684 11755 11753 11753 11709 11751 11751 11762 11699 11746 11788 11773 11763 11743 11775 11747 11773 11778 11749 11719 11789 11785 11792 11764 11770 11755 11782 11764 11778 11759 11798 11763 11754 11762 11757 11775 11770 11806 11771 11731 11792 11797 11774 11791 11763 11798 11762 11757 11768 11802 11819 11776 11786 11801 11777 11777 11783 11765 11801 11794 11802 11783 11786 11798 11782 11823 11756 11784 11821 11783 11791 11808 11787 11789 11777 11814 11809 11818 11830 11799 11814 11792 11781 11828 11798 11834 11817 11800 11791 11798 11822 11795 11764 11816 11823 11798 11773 11804 11801 11768 11797 11801 11849 11800 11817 11833 11863 11856 11754 11827 11827 11815 11841 11826 11832 11833 11827 11824 11857 11839 11836 11773 11826 11803 11840

Tree=0
num_leaves=128
num_cat=0
split_feature=3 5 3 3 4 3 7 0 5 3 0 3 8 4 5 3 7 5 0 6 3 7 5 3 5 8 4 4 0 0 4 6 5 4 4 3 5 3 3 4 0 0 3 5 4 3 5 5 6 3 5 6 8 6 7 5 3 4 1 1 0 0 3 1 7 0 0 5 0 3 0 5 0 3 0 3 4 0 4 0 6 3 5 4 4 6 4 0 3 5 4 5 3 5 3 0 8 4 7 3 3 6 0 3 0 4 3 3 6 3 3 0 8 0 0 3 4 6 7 1 5 4 0 7 5 3 3
split_gain=387.812 54.0536 27.2209 9.04127 11.5515 8.2081 12.8093 7.59387 5.87547 5.67535 5.01671 3.75928 3.37975 2.99426 2.82377 4.26172 2.64689 3.52781 4.57067 2.08067 2.17205 2.04616 2.88932 2.31615 1.68771 1.67658 1.64168 1.54482 1.47748 1.06081 1.0516 1.00946 0.882086 0.834849 0.834001 1.03609 0.803825 0.792529 0.729587 0.920177 0.883034 0.727885 0.663994 0.663817 0.662995 0.661464 0.658207 0.573569 0.540845 0.520793 0.516942 0.513725 0.482083 0.407164 0.401263 0.400838 0.398553 0.38678 0.451155 0.384555 0.356923 0.338777 0.33432 0.322414 0.319348 0.293721 0.281919 0.260148 0.253454 0.243385 0.240893 0.240706 0.218854 0.257984 0.218232 0.216598 0.210366 0.245479 0.203606 0.192858 0.188337 0.304354 0.188104 0.3037 0.185168 0.182167 0.179778 0.186151 0.161688 0.160626 0.16021 0.14661 0.14468 0.141764 0.138414 0.137236 0.134227 0.129084 0.125607 0.122572 0.116401 0.112283 0.111967 0.111326 0.109386 0.107924 0.107819 0.105908 0.103742 0.102955 0.099595 0.0941011 0.0910119 0.0858195 0.0858128 0.0841801 0.0837601 0.0762984 0.0986559 0.0752604 0.0704678 0.0698905 0.0690481 0.067584 0.0663871 0.0654596 0.0610577
threshold=38.63499832153321 0.93355056643486034 32.244998931884773 39.714998245239265 0.95906278491020214 38.524999618530281 3.6790755987167363 17.488281250000004 0.98808932304382335 39.264999389648445 22.253906250000004 31.844999313354496 415.88749694824224 0.91711714863777172 0.99577102065086376 39.38499832153321 2.832847118377686 0.89261537790298473 19.464843750000004 30.710848808288578 38.854999542236335 3.4040533304214482 0.98572784662246715 38.854999542236335 0.98230198025703441 459.57217407226568 0.92704269289970409 0.93618211150169384 11.744140625000002 22.082031250000004 0.92582213878631603 21.839110374450687 0.4858741313219071 0.91009488701820385 0.77420908212661754 33.914999008178718 0.99239015579223644 33.104999542236335 33.18499946594239 0.92954713106155407 25.628906250000004 14.144531250000002 37.504999160766609 0.99383145570755016 0.94743829965591442 38.734998703002937 0.99264976382255565 0.72835877537727367 23.642750740051273 37.93499946594239 0.96741342544555675 26.021633148193363 546.11242675781261 30.710848808288578 3.5583468675613408 0.9963459074497224 39.174999237060554 0.93645039200782787 11.629882812500002 15.861328125000002 24.996093750000004 19.402343750000004 37.314998626708991 12.583984375000002 3.19952404499054 16.175781250000004 17.980468750000004 0.99860626459121715 20.175781250000004 39.854999542236335 15.417968750000002 0.94446256756782543 14.705078125000002 40.224998474121101 14.048828125000002 39.190000534057624 0.94945600628852855 15.363281250000002 0.83412864804267894 11.658203125000002 36.616291046142585 40.304998397827156 0.78232690691947948 0.8753664791584016 0.93378737568855297 38.47979927062989 0.86633247137069713 17.425781250000004 32.834999084472663 0.75963056087493908 0.95056271553039562 0.99224075675010692 39.084999084472663 0.91145014762878429 32.144998550415046 12.847656250000002 546.11242675781261 0.87755909562110912 3.9669286012649541 38.814998626708991 39.504999160766609 49.528593063354499 14.613281250000002 40.084999084472663 27.199218750000004 0.87663665413856517 39.264999389648445 39.944999694824226 4.5423450469970712 37.364999771118171 38.774999618530281 24.519531250000004 376.82546997070318 13.113281250000002 19.261718750000004 40.344999313354499 0.94145005941391002 33.213539123535163 2.9661666154861455 15.572265625000002 0.991692215204239 0.93137890100479137 23.683593750000004 4.8619606494903573 0.95930254459381115 37.295000076293952 37.564998626708991
decision_type=2 2 2 2 2 2 2 2 2 2 2 2 2 2 2 2 2 2 2 2 2 2 2 2 2 2 2 2 2 2 2 2 2 2 2 2 2 2 2 2 2 2 2 2 2 2 2 2 2 2 2 2 2 2 2 2 2 2 2 2 2 2 2 2 2 2 2 2 2 2 2 2 2 2 2 2 2 2 2 2 2 2 2 2 2 2 2 2 2 2 2 2 2 2 2 2 2 2 2 2 2 2 2 2 2 2 2 2 2 2 2 2 2 2 2 2 2 2 2 2 2 2 2 2 2 2 2
left_child=2 13 11 4 7 10 25 14 9 29 24 55 -8 16 15 21 -2 47 52 20 -10 23 65 -3 34 50 42 48 80 33 -24 74 -12 -9 108 37 51 68 40 62 78 90 86 75 49 -15 64 -18 69 89 117 -17 -19 -25 -45 -1 63 58 100 -22 94 -39 82 -32 -43 92 109 96 -36 -5 124 -41 116 -74 -16 85 77 -47 -34 103 91 -82 111 -84 95 -21 125 -88 122 -37 126 -29 -23 -51 -13 -53 -50 -44 -83 -35 -33 -100 -6 -69 -42 -64 -79 -81 -4 -48 -59 -40 -97 -99 -110 -93 -30 -7 -119 -49 -118 -55 -80 -122 -46 -26 -28
right_child=1 3 5 27 102 6 12 8 19 -11 32 60 -14 45 31 36 17 18 -20 43 59 22 30 53 26 -27 41 28 72 -31 56 57 38 99 35 44 -38 61 39 71 104 46 97 54 70 76 66 119 67 93 -52 84 -54 121 -56 -57 -58 110 -60 -61 -62 -63 105 -65 -66 -67 -68 79 -70 -71 -72 -73 73 -75 -76 -77 -78 106 88 107 81 98 83 -85 -86 -87 87 -89 -90 -91 -92 115 -94 -95 -96 112 -98 113 101 -101 -102 -103 -104 -105 -106 -107 -108 -109 114 -111 -112 -113 -114 -115 -116 -117 120 118 -120 -121 123 -123 -124 -125 -126 -127 -128
leaf_value=0.44937583569747264 0.44765267093495154 0.44838525641573845 0.44802515554202216 0.45261737564084731 0.44791856184085416 0.44687029137015022 0.45009016129848045 0.45215126132247646 0.45389226140983119 0.44999713518091228 0.44910363876439918 0.4487327750113923 0.45345218483485578 0.44726934778746869 0.45175045447216688 0.45053183872764607 0.44807288354136415 0.44914845462106578 0.45314488156327726 0.45114711378297234 0.45101939605246094 0.45166435528965709 0.45176553913007056 0.45148278328925895 0.44735195143024264 0.44942440893841795 0.44753064737610526 0.45148499596053765 0.45198773794417052 0.45480666728453262 0.45022371615942336 0.4508222259014682 0.44833599093641557 0.45387946194925161 0.44689911594287268 0.44781434856810159 0.45060602338975747 0.44620942215800963 0.4471765918109642 0.44793707768000962 0.44860635935541604 0.44797438083313018 0.44682932918755586 0.4509249870141851 0.44716667334300292 0.44908836820613929 0.44842484180442727 0.44886471802769246 0.45126935153559905 0.44729545223640116 0.44802412173259559 0.44928016168423485 0.4503776144777239 0.45075695068163213 0.45209335047784904 0.45031667857335234 0.44967932136468264 0.45094575833854872 0.45181957762031083 0.45200315363234228 0.44923146194119046 0.44677109421869621 0.44669518036273914 0.45111075796344924 0.44698870293681564 0.45293027970982647 0.44911825028511781 0.45112060129343168 0.44737657744668985 0.45172841351346776 0.44780632877685655 0.44857318286397191 0.45337239288589237 0.45249117702804587 0.45266228492914568 0.45003691766461607 0.44784700097128693 0.44812716202852698 0.4475651832506678 0.45198767292577408 0.4511324422856739 0.45210610402136425 0.44735485999835334 0.44840617702741797 0.44890328629034915 0.45046351330499507 0.44748449947775359 0.44796318517674993 0.44826824494253192 0.44724880894984287 0.44793471769252663 0.45189179139835439 0.45235107451981676 0.44687568139043732 0.44821894473361029 0.4500435480554682 0.45066109389657849 0.44698213495721478 0.45184075701885501 0.45331074797534204 0.451212797385876 0.45143204503578188 0.44851391230473869 0.45154277373741686 0.44915972617626276 0.44722544809370512 0.44852484041569624 0.45157753094719161 0.44733054235326614 0.44793663820185392 0.45034371132392143 0.44771546441310284 0.44955971690834617 0.44727878743724847 0.44785238462070581 0.45221772157739776 0.45211615498586449 0.44702540270297564 0.44763154489798146 0.44935629193843418 0.45240419861306841 0.45031489022067267 0.44787121349428011 0.45279936613848937 0.44759783665657149 0.44698437143993891 0.44716866961496871
leaf_weight=53 79 52 82 57 83 64 67 50 51 52 64 241 54 67 52 50 76 76 53 62 78 51 77 55 564 53 340 53 54 58 84 107 101 89 268 53 96 208 86 210 93 84 208 66 114 51 148 51 115 92 109 116 55 57 53 311 56 50 114 81 139 222 56 80 54 59 50 134 190 67 220 83 52 92 53 65 70 132 139 86 86 95 50 61 53 105 475 98 68 958 97 160 77 641 67 59 53 186 178 66 266 108 51 117 58 122 141 235 69 61 61 52 114 205 58 157 65 58 50 80 218 96 157 54 52 53 54
leaf_count=53 79 52 82 57 83 64 67 50 51 52 64 241 54 67 52 50 76 76 53 62 78 51 77 55 564 53 340 53 54 58 84 107 101 89 268 53 96 208 86 210 93 84 208 66 114 51 148 51 115 92 109 116 55 57 53 311 56 50 114 81 139 222 56 80 54 59 50 134 190 67 220 83 52 92 53 65 70 132 139 86 86 95 50 61 53 105 475 98 68 958 97 160 77 641 67 59 53 186 178 66 266 108 51 117 58 122 141 235 69 61 61 52 114 205 58 157 65 58 50 80 218 96 157 54 52 53 54
internal_value=0.449055 0.450979 0.447682 0.451378 0.451014 0.4475 0.448803 0.45115 0.451923 0.453016 0.447419 0.449425 0.451591 0.448761 0.450801 0.450512 0.449322 0.44966 0.450667 0.451309 0.452097 0.450988 0.451373 0.450273 0.447291 0.447793 0.447477 0.451857 0.452066 0.453613 0.45076 0.451306 0.447957 0.453275 0.447137 0.447095 0.449786 0.446808 0.447902 0.447686 0.448155 0.447828 0.447302 0.450838 0.447214 0.448188 0.448147 0.448764 0.451526 0.447131 0.447485 0.449585 0.449665 0.450745 0.451445 0.45018 0.450408 0.451148 0.451269 0.451521 0.448811 0.446499 0.44739 0.450656 0.447589 0.452347 0.448444 0.451423 0.447097 0.452137 0.447589 0.448117 0.452476 0.452809 0.452211 0.450527 0.448344 0.448452 0.447939 0.451525 0.451803 0.45167 0.447626 0.447933 0.449447 0.450717 0.447439 0.447566 0.447829 0.447278 0.447571 0.451972 0.452077 0.446928 0.448621 0.449546 0.451077 0.447031 0.451791 0.453637 0.451101 0.451686 0.448145 0.451317 0.448819 0.447059 0.448333 0.451687 0.447748 0.448282 0.450615 0.44738 0.449725 0.447138 0.447569 0.452053 0.452353 0.447144 0.447306 0.449165 0.452412 0.45048 0.447728 0.452483 0.447302 0.44732 0.447481
internal_weight=14682 6112 8570 5181 2945 7759 455 2811 876 315 7304 811 121 931 1935 1232 470 391 184 561 210 744 484 260 5904 334 2677 2236 1372 263 297 703 1400 205 3227 3018 488 888 1336 720 616 888 1789 351 2130 461 397 207 864 1744 281 392 131 208 119 364 220 598 487 159 447 430 427 164 138 187 259 740 458 124 386 293 535 144 105 232 394 324 465 572 837 467 249 111 342 167 1190 573 364 1011 491 370 128 733 308 289 168 599 381 155 373 286 134 251 151 178 273 321 209 209 111 138 173 391 127 317 391 172 108 131 337 153 296 272 166 617 394
internal_count=14682 6112 8570 5181 2945 7759 455 2811 876 315 7304 811 121 931 1935 1232 470 391 184 561 210 744 484 260 5904 334 2677 2236 1372 263 297 703 1400 205 3227 3018 488 888 1336 720 616 888 1789 351 2130 461 397 207 864 1744 281 392 131 208 119 364 220 598 487 159 447 430 427 164 138 187 259 740 458 124 386 293 535 144 105 232 394 324 465 572 837 467 249 111 342 167 1190 573 364 1011 491 370 128 733 308 289 168 599 381 155 373 286 134 251 151 178 273 321 209 209 111 138 173 391 127 317 391 172 108 131 337 153 296 272 166 617 394
is_linear=0
shrinkage=1


Tree=1
num_leaves=128
num_cat=0
split_feature=3 5 3 3 4 0 5 3 0 3 8 5 0 3 5 6 6 3 5 5 3 7 5 3 4 4 0 4 3 4 5 4 2 4 4 0 8 7 5 4 5 4 3 3 6 3 3 4 3 3 2 7 0 0 5 2 3 3 0 3 2 7 5 2 0 0 3 4 0 3 5 5 3 6 3 0 4 4 0 3 3 3 6 6 3 0 8 0 0 3 0 3 4 0 5 0 5 5 4 7 7 8 3 3 4 8 0 0 0 5 4 3 0 4 8 4 4 0 6 6 0 2 0 4 0 4 0
split_gain=380.189 56.0947 27.2803 8.47806 12.0366 7.88179 5.86136 5.16608 4.84522 3.75214 3.61884 4.02616 6.98939 3.54529 6.8316 2.81306 1.98586 2.28501 1.74868 1.70657 4.63562 2.84525 2.33674 1.6439 1.62215 1.54595 1.39684 1.22569 1.1781 0.970107 1.08827 0.929846 0.892687 0.880247 0.846266 0.831277 0.805318 0.758898 0.75515 0.719995 0.701401 0.662516 1.2005 0.694099 0.615159 0.600433 0.59225 0.561349 0.533455 0.452025 0.42542 0.405637 0.405286 0.402046 0.379599 0.374011 0.371229 0.427137 0.359513 0.344679 0.313393 0.311611 0.309441 0.290839 0.289112 0.28086 0.275956 0.861142 0.327353 0.297504 0.273304 0.228923 0.218918 0.247947 0.188344 0.184147 0.181364 0.173722 0.173511 0.180179 0.165754 0.164027 0.203511 0.163598 0.162091 0.154223 0.150699 0.192227 0.147111 0.143383 0.141716 0.140194 0.137715 0.17529 0.133862 0.129762 0.129271 0.128443 0.127576 0.12642 0.125278 0.121836 0.113941 0.111482 0.106945 0.106486 0.102029 0.0991003 0.0986403 0.0951528 0.0938736 0.0932916 0.0910154 0.0887027 0.0838484 0.0825854 0.0821136 0.0807356 0.0788406 0.0743238 0.0708294 0.0671719 0.0658314 0.109352 0.0655805 0.0597353 0.0590632
threshold=38.614999771118171 0.9361465871334077 32.244998931884773 39.694999694824226 0.95855584740638744 17.488281250000004 0.98808932304382335 39.274999618530281 21.769531250000004 31.844999313354496 437.73011779785162 0.9073474407196046 18.269531250000004 38.524999618530281 0.98015195131301891 25.400072097778324 31.017233848571781 38.854999542236335 0.98156335949897777 0.99395588040351879 39.38499832153321 3.19952404499054 0.98624545335769664 38.984998703002937 0.91964948177337658 0.93618211150169384 11.791015625000002 0.90296903252601635 38.484998703002937 0.91139835119247448 0.89261537790298473 0.93645039200782787 9.4892578125000018 0.81183937191963207 0.91611099243164074 14.144531250000002 383.13409423828131 4.5247046947479257 0.99445545673370372 0.92891228199005138 0.95364463329315197 0.77420908212661754 33.914999008178718 33.104999542236335 37.069129943847663 37.484998703002937 37.364999771118171 0.94743829965591442 37.904998779296882 39.214998245239265 14.970703125000002 3.5791589021682744 21.402343750000004 14.660156250000002 0.73517197370529186 11.287109375000002 32.784999847412116 37.564998626708991 24.996093750000004 37.385000228881843 11.075195312500002 4.2672069072723398 0.99657681584358226 13.166015625000002 18.339843750000004 13.832031250000002 33.914999008178718 0.86633247137069713 24.835937500000004 33.18499946594239 0.98459070920944225 0.75963056087493908 40.454999923706062 36.616291046142585 40.104999542236335 15.167968750000002 0.9614962935447694 0.9487675428390504 14.394531250000002 40.224998474121101 40.284999847412116 39.214998245239265 36.940437316894538 45.884260177612312 39.344999313354499 19.542968750000004 583.69839477539074 11.041015625000002 15.230468750000002 32.094999313354499 17.675781250000004 38.814998626708991 0.86085930466651928 15.628906250000002 0.91145014762878429 17.917968750000004 0.7662830948829652 0.99352961778640758 0.87755909562110912 5.9525322914123544 3.8475162982940678 235.31208038330081 39.504999160766609 38.364999771118171 0.94945600628852855 208.820915222168 12.613281250000002 23.792968750000004 13.501953125000002 0.99875155091285717 0.92421370744705211 37.545000076293952 10.337890625000002 0.93350040912628185 322.75024414062506 0.90245360136032116 0.9443836808204652 13.300781250000002 4.5423450469970712 27.474751472473148 24.835937500000004 12.751953125000002 15.699218750000002 0.92733216285705578 19.261718750000004 0.89056357741355907 22.847656250000004
decision_type=2 2 2 2 2 2 2 2 2 2 2 2 2 2 2 2 2 2 2 2 2 2 2 2 2 2 2 2 2 2 2 2 2 2 2 2 2 2 2 2 2 2 2 2 2 2 2 2 2 2 2 2 2 2 2 2 2 2 2 2 2 2 2 2 2 2 2 2 2 2 2 2 2 2 2 2 2 2 2 2 2 2 2 2 2 2 2 2 2 2 2 2 2 2 2 2 2 2 2 2 2 2 2 2 2 2 2 2 2 2 2 2 2 2 2 2 2 2 2 2 2 2 2 2 2 2 2
left_child=2 10 9 4 5 15 7 27 13 62 23 29 -13 18 40 32 17 -8 41 20 21 36 53 125 45 44 72 -7 33 30 54 60 -3 99 -25 77 -17 59 81 46 121 118 43 85 55 92 66 48 71 -31 -19 -40 91 -23 -12 106 107 96 89 90 102 -24 -1 105 -45 -33 68 -68 69 -35 -22 -44 73 -27 86 -49 -42 111 116 -80 -75 82 -18 -67 -62 -43 87 -46 -6 -11 -37 -29 -20 -94 -50 -61 -58 -74 -47 -10 -72 -57 -21 -59 -36 108 -5 -41 -34 -95 -52 -26 -82 -84 -99 -48 -28 -100 -4 -108 -98 -15 -96 -124 -120 -2 -91
right_child=1 3 8 25 88 6 16 -9 28 58 11 12 -14 14 -16 19 38 50 24 31 70 22 61 34 35 26 78 52 -30 49 -32 65 63 39 104 37 -38 -39 51 56 76 42 47 64 74 98 115 75 94 -51 110 -53 -54 -55 -56 101 57 103 -60 95 84 -63 -64 -65 -66 83 67 -69 -70 -71 100 -73 97 80 -76 -77 -78 -79 79 -81 112 -83 113 -85 -86 -87 -88 -89 -90 126 -92 -93 93 109 122 -97 120 114 117 -101 -102 -103 -104 -105 -106 -107 119 -109 -110 -111 -112 -113 -114 -115 -116 -117 -118 -119 124 -121 -122 -123 123 -125 -126 -127 -128
leaf_value=0.00046456554570856195 -0.0022104237710728366 0.0014259617532101961 -0.0010368915205964675 0.0023670606179670853 -0.0011192376610446484 0.0030083454012870786 0.0048345352212587995 0.00094076010733842852 -0.00092712472305412133 -0.00027090146396664233 -0.00092030466482457196 -6.7922034761292888e-05 0.0044414362045271053 -0.0020012690840583098 0.002310014238520976 -0.0002817773997783661 0.0021787904396653175 0.0018312010866865305 -0.0017245121006495678 0.0016874100722372532 0.00014614229844336939 0.0026703188045956623 0.0019262426496519673 0.0003987529128105106 -0.0015177042115776581 0.0028393178947150387 0.0029412826617558796 0.0047451940013302695 0.00027945061798222484 -0.0011943495854171455 0.0013254894561044151 0.00082470104013654313 0.0024970323522135896 -0.0012808872966894082 -0.00074447373279336228 -0.00064605128265296421 0.0012890053976406443 -0.0020626185688317989 0.0018628100842237472 -0.0015840660870075228 -0.00037538220930211948 -0.0021984215219164153 -0.0010963614786473606 -0.0028820447375377018 0.0017451517865425205 -0.002202544317485016 -0.0022319983386657606 -0.0017387902116615501 -0.0017351431746713138 -0.00024799855850126713 0.0031432086258542302 0.003130343407392502 0.0055319479703903199 0.0035999245136976244 0.00012772974121617154 0.0035525160052559592 -0.00077610635093482085 -0.0011693447049646105 0.00018847534493621987 -0.0012576897424741054 0.0022179580220345703 0.0010077774076079817 0.0012501803288450005 0.0034362297301942651 -0.0023411622190227109 0.0019054585287258739 -0.0019351833626627924 -0.00027763951669580169 -0.00089845063207163057 -0.0019452309367748409 0.0011228997760452332 -0.0017786200427529306 0.0025374225588405837 0.0019839883381500838 0.0024288375227909369 -0.0012843256943800426 -0.0011557073228280336 -0.0011496567535094727 0.0041008058411103714 0.0034052393734455111 0.0022847352014190849 0.0010560658316948076 0.0017690720006823541 0.0012735897583188488 0.0028536991591322915 -0.0018090362202652678 0.0015669287205673755 0.0023369482761046974 -0.00044787804041989147 -0.00092427967484259312 -5.652481648472271e-05 0.0041801618160428227 -0.0016128573109434074 -0.00093789626232215339 -0.0022298729307669448 -0.00066052134728570482 -0.0004866599196737463 0.0030845874478326778 -0.0020336379125210401 -0.00038370051825647046 0.00056062966011006252 0.0028704665809869767 0.0020861299047357012 -0.00067096315562478347 -0.0012315621454331836 0.0022881049983617331 0.0029588294794989957 -0.001123941967433149 0.0030706791083017987 -0.0014398650316203513 0.0025334439188241958 -0.001898677178791591 0.0027202538003988355 0.001240524388421541 0.0027193570605824505 -0.0017811663589979473 0.0033148640601626247 -0.0017449114528986123 -0.0017155449079083547 0.0025090228954950966 3.0700699917004245e-05 -0.0015484434265643358 -0.0021960835961195137 -0.0017611078595377737 -0.001224785625653447 -0.0017643774462838288 -0.00046485232888930937
leaf_weight=60 51 52 65 165 94 50 51 50 59 199 54 89 56 95 62 50 50 71 520 100 162 87 77 68 389 187 75 108 62 109 62 66 53 140 191 150 94 51 50 100 53 183 52 168 82 214 71 149 88 94 51 51 50 100 96 55 77 244 133 127 89 71 305 66 240 84 50 84 88 130 50 907 85 80 203 222 68 117 54 120 87 67 50 80 73 229 56 166 50 62 56 74 365 70 399 51 55 214 207 156 191 50 253 55 59 54 72 88 69 82 50 77 107 87 89 95 273 182 56 75 51 50 143 97 53 73 51
leaf_count=60 51 52 65 165 94 50 51 50 59 199 54 89 56 95 62 50 50 71 520 100 162 87 77 68 389 187 75 108 62 109 62 66 53 140 191 150 94 51 50 100 53 183 52 168 82 214 71 149 88 94 51 51 50 100 96 55 77 244 133 127 89 71 305 66 240 84 50 84 88 130 50 907 85 80 203 222 68 117 54 120 87 67 50 80 73 229 56 166 50 62 56 74 365 70 399 51 55 214 207 156 191 50 253 55 59 54 72 88 69 82 50 77 107 87 89 95 273 182 56 75 51 50 143 97 53 73 51
internal_value=8.7289e-06 0.00187409 -0.00137551 0.00228646 0.00193418 0.00207764 0.00284427 0.00390321 -0.00156047 0.000369536 -0.000294758 0.000239152 0.00167362 -0.0016903 -0.000679284 0.00171447 0.00223601 0.00297557 -0.00174839 0.00155181 0.00125415 0.00191912 0.00242443 -0.000971205 -0.00156088 0.00274312 0.00295619 0.00442847 -0.00107212 -0.000262048 0.000211066 0.0019042 0.00261469 -0.00112643 -0.000590382 -0.00124732 0.000743595 -0.000916505 0.00177145 -0.00122254 -0.00137604 -0.00191174 -0.00194798 -0.00227152 0.00242698 -0.00175551 -0.00145749 -0.00181901 -0.0018965 -0.000756138 0.00242437 0.00250285 0.00473453 0.00316743 -0.000249563 0.00271148 -0.000991787 -0.00084478 -0.000246865 -0.000764287 0.00214029 0.00148563 0.00112104 0.00287012 -0.00256388 0.00137555 -0.00128323 -0.000896126 -0.00142812 -0.00160076 0.000463772 -0.00174163 0.00270591 0.00255859 0.00219297 -0.00146685 -0.000813912 -0.00149416 0.00336327 0.0036211 0.002367 0.00148061 0.00163272 0.00159723 0.00250443 -0.00198199 0.00203547 0.00214127 -0.000886127 -0.000432443 -0.000485792 0.00451546 -0.00160961 -0.00149403 -0.0021008 -0.00108659 -0.000464266 0.00288094 -0.00200644 -0.000532826 0.000677283 0.00322773 0.00197318 -0.00107767 -0.000859427 0.00265783 0.00253775 -0.00136869 0.00282147 -0.0012087 0.00284134 -0.00158065 0.00252494 0.00143342 0.00297731 -0.00197399 0.00323435 -0.00189855 -0.00131254 0.00272934 -0.000237741 -0.00184512 -0.00215115 -0.00202028 -0.00147692 -0.00194783 -0.000716928
internal_weight=14724 6272 8452 5270 2975 2831 910 332 7642 810 1002 560 145 6037 328 1921 578 223 5709 1627 882 479 335 442 2658 2295 1371 282 1605 415 212 745 294 1543 318 1018 144 435 355 1328 266 3051 2877 820 924 1640 658 2057 1686 203 172 101 232 187 150 417 670 482 445 384 515 148 365 242 408 230 492 134 358 270 403 959 849 461 507 371 121 583 522 174 274 254 187 164 162 412 304 248 144 312 206 182 1037 517 727 178 183 388 603 215 241 105 353 299 250 176 312 188 122 152 101 466 194 137 303 166 348 389 174 147 106 145 639 240 109 124 113
internal_count=14724 6272 8452 5270 2975 2831 910 332 7642 810 1002 560 145 6037 328 1921 578 223 5709 1627 882 479 335 442 2658 2295 1371 282 1605 415 212 745 294 1543 318 1018 144 435 355 1328 266 3051 2877 820 924 1640 658 2057 1686 203 172 101 232 187 150 417 670 482 445 384 515 148 365 242 408 230 492 134 358 270 403 959 849 461 507 371 121 583 522 174 274 254 187 164 162 412 304 248 144 312 206 182 1037 517 727 178 183 388 603 215 241 105 353 299 250 176 312 188 122 152 101 466 194 137 303 166 348 389 174 147 106 145 639 240 109 124 113
is_linear=0
shrinkage=0.01


Tree=2
num_leaves=128
num_cat=0
split_feature=3 5 3 3 7 3 4 0 5 0 3 4 3 0 5 5 5 3 7 6 3 5 4 4 5 4 0 2 4 6 4 6 5 0 4 3 3 5 8 0 7 0 3 2 4 4 3 6 3 5 5 5 4 4 2 5 0 6 6 3 0 4 5 3 2 2 4 0 0 0 0 6 3 7 0 0 0 0 4 3 0 3 0 6 3 2 3 3 5 4 4 5 0 8 2 2 3 0 0 8 7 4 5 5 3 0 5 4 3 4 5 8 2 6 0 2 6 3 0 4 5 3 3 0 4 3 7
split_gain=376.021 50.9083 26.4539 7.672 13.0371 7.60908 9.10524 6.68034 6.95651 5.16129 4.47115 3.47914 3.10038 2.91529 8.1436 2.84694 2.78268 3.76707 2.05382 1.86974 2.04211 1.66217 1.57614 1.51425 1.39091 1.76287 1.37973 1.20721 1.01576 0.989075 0.972349 0.89352 1.12986 1.27062 0.820072 1.00931 0.8775 0.789452 0.767831 0.76079 0.77687 0.679506 0.663885 0.662905 0.636737 0.594582 0.587448 0.572713 0.536086 0.513595 0.464664 0.46273 0.444774 0.380961 0.419063 0.373077 0.369213 0.477986 0.367353 0.340191 0.334527 0.330101 0.323983 0.316851 0.367059 0.279328 0.27717 0.260231 0.259335 0.25366 0.248385 0.244934 0.212352 0.205109 0.204554 0.203219 0.202929 0.200005 0.197792 0.19527 0.193639 0.235505 0.191989 0.19091 0.193131 0.189548 0.18724 0.167011 0.166892 0.164522 0.158944 0.151168 0.147275 0.137165 0.128389 0.12786 0.125184 0.114581 0.113614 0.113023 0.11136 0.108191 0.107279 0.105749 0.110036 0.105472 0.0978815 0.0934289 0.199779 0.0933235 0.0896983 0.105063 0.082372 0.0780271 0.0776281 0.0767745 0.0690017 0.0689685 0.0674492 0.101005 0.0657693 0.0620777 0.0580643 0.0573556 0.0573392 0.0614807 0.0559446
threshold=38.63499832153321 0.94303381443023693 32.194999694824226 38.524999618530281 3.6790755987167363 39.714998245239265 0.95855584740638744 16.964843750000004 0.98766016960144054 22.253906250000004 39.274999618530281 0.91820123791694652 31.844999313354496 20.613281250000004 0.89708787202835094 0.9808693826198579 0.99577102065086376 39.38499832153321 2.7135138511657719 36.940437316894538 38.904998779296882 0.98230198025703441 0.93702432513237011 0.92487442493438732 0.98572784662246715 0.91009488701820385 11.705078125000002 13.998046875000002 0.92642062902450573 22.17956638336182 0.81183937191963207 36.940437316894538 0.89261537790298473 15.699218750000002 0.77420908212661754 33.914999008178718 33.104999542236335 0.99252876639366161 443.43679809570318 14.097656250000002 4.4066665172576913 20.332031250000004 38.734998703002937 11.477539062500002 0.94743829965591442 0.86512851715087902 37.484998703002937 36.781501770019538 37.904998779296882 0.96741342544555675 0.92305073142051708 0.99430313706398021 0.92487442493438732 0.93645039200782787 11.075195312500002 0.97639587521553051 24.519531250000004 16.187080383300785 25.535300254821781 37.545000076293952 18.339843750000004 0.92615324258804332 0.9963459074497224 39.88499832153321 11.075195312500002 14.857421875000002 0.93789932131767284 14.048828125000002 20.175781250000004 24.996093750000004 14.660156250000002 38.280796051025398 40.124998092651374 3.2985202074050908 26.222656250000004 20.707031250000004 10.673828125000002 15.167968750000002 0.93307858705520641 39.190000534057624 14.394531250000002 40.224998474121101 18.628906250000004 40.342195510864265 40.324998855590827 11.994140625000002 39.124998092651374 37.969999313354499 0.91145014762878429 0.86512851715087902 0.95016011595726024 0.99319958686828624 14.705078125000002 403.15736389160162 13.955078125000002 12.201171875000002 39.534999847412116 26.449218750000004 12.535156250000002 502.01779174804693 3.9365620613098149 0.87755909562110912 0.83259490132331859 0.99239015579223644 40.414999008178718 10.337890625000002 0.99875155091285717 0.93350040912628185 33.18499946594239 0.91874280571937572 0.75963056087493908 50.97417068481446 11.873046875000002 36.175161361694343 13.113281250000002 9.1572265625000018 33.213539123535163 37.385000228881843 15.363281250000002 0.92453807592391979 0.95930254459381115 32.734998703002937 37.564998626708991 18.855468750000004 0.9443836808204652 40.68499946594239 6.1059570312500009
decision_type=2 2 2 2 2 2 2 2 2 2 2 2 2 2 2 2 2 2 2 2 2 2 2 2 2 2 2 2 2 2 2 2 2 2 2 2 2 2 2 2 2 2 2 2 2 2 2 2 2 2 2 2 2 2 2 2 2 2 2 2 2 2 2 2 2 2 2 2 2 2 2 2 2 2 2 2 2 2 2 2 2 2 2 2 2 2 2 2 2 2 2 2 2 2 2 2 2 2 2 2 2 2 2 2 2 2 2 2 2 2 2 2 2 2 2 2 2 2 2 2 2 2 2 2 2 2 2
left_child=2 11 12 9 38 6 7 16 10 21 41 13 62 18 -15 -6 17 24 -2 20 -10 34 47 46 25 -3 83 -22 85 67 97 -20 102 43 110 36 68 58 49 90 59 52 -13 -34 48 -32 89 63 75 116 79 61 -9 54 96 56 95 74 -19 82 -38 -29 -1 64 -7 91 87 -18 -36 -14 -27 86 76 -67 -58 -37 -49 120 98 -44 124 -82 117 103 -85 -26 -30 -59 -50 -23 122 -21 -91 -81 -73 -47 -31 126 -60 115 -86 -48 -33 -24 113 -102 -94 108 -97 -100 -4 -112 -56 -105 -103 -78 -5 -41 -90 -120 -46 -109 -25 -79 -28 -126 -11
right_child=1 5 3 4 15 22 -8 8 19 30 -12 42 69 14 -16 -17 29 37 31 65 27 23 26 39 28 70 80 51 71 53 45 32 33 -35 35 44 60 -39 -40 40 -42 -43 50 -45 77 55 101 72 88 -51 -52 -53 -54 -55 112 -57 57 66 78 -61 -62 -63 -64 -65 -66 73 -68 -69 -70 -71 -72 94 -74 -75 -76 -77 99 123 -80 93 81 -83 -84 84 100 -87 -88 -89 118 92 -92 -93 106 -95 -96 107 -98 -99 109 -101 105 114 -104 104 -106 -107 -108 121 -110 -111 111 -113 -114 -115 -116 -117 -118 -119 119 -121 -122 -123 -124 -125 125 -127 -128
leaf_value=0.00036483799874344295 -0.0017608874887228012 0.00096682020723819738 -0.00090977737559350558 -0.0021420264931825491 0.0011564408457824882 0.002604940026635077 -0.00090824483545653728 0.003532133508473635 0.0038621432848812377 -0.00080334097139932452 0.0012277054304585737 -0.0017310546489898116 -0.00036292533443222399 -0.00028090640678743109 0.0045497717329284603 0.0041872862550345336 0.0025710332691669465 0.0013432404647270837 -0.00097215544012393441 0.00096450834458365164 0.0012241974614767565 -0.0016954920159305555 0.0023973566179092114 -0.0015094503200515201 0.0019029213370461212 0.0026910626283590347 0.0029415801260620354 0.0029753346994519235 0.0018833342448967259 0.0017623784146506153 -0.0019428206222889188 -0.00065277322318733628 0.0011607474517749607 0.0022448511870095025 -0.002094331788616551 -0.0017594903573256132 -0.0028607584220521594 0.001577075209428111 -0.00027972996976794834 -0.0005976580929598727 -0.002060599586367607 0.0051162143999880011 -0.0011033919862095726 -0.0003324598342668815 -0.0018658912181854248 -0.0008717629612953055 -0.0021677334512036944 0.0015577967600846612 -0.0016862490900287717 -0.00098461931206139859 0.00026742454897612334 0.0033901369092719895 0.0045623729987577964 0.001465147205089268 0.0024493857499744212 -0.00050620324804791987 -0.00079312807837656385 -0.0011384332402573005 0.00024341161175200004 -0.0013304845213890078 -0.0022948768097096266 0.0019696639803178768 0.0012221288961143449 0.0024760172322733712 0.0036026785289173698 0.0015886395642853747 -0.00091983048154603846 0.0035635861781026634 -0.0016279322162125877 0.00023951136134049496 0.0035052415910290509 0.00081974668823907857 0.002430564731213392 0.0023743873644620182 5.9440555138829749e-05 -0.0011292552258129473 0.0020973276331399879 -0.0013465705683488333 -0.00014747042821254582 -0.00079467435475109383 0.0041689034744545267 0.0033747043959365401 -5.4552017939848855e-05 0.0019812625542021635 0.0029589974611169763 0.0026772016171418447 0.0011332026742664832 -0.001801439713438352 -0.0022131274040834404 -0.0015685301682708006 -0.0011213125527467368 0.0016200920976698399 -0.00098784537781234629 -0.000310198295249102 0.0014283487096428871 -0.0012435565070648279 0.0021440816316339708 -6.4607208359876051e-05 0.00088016121625199479 0.0017532727874752779 0.0022452197952584907 -0.0020165336776019342 -3.3594867725755213e-05 0.0028396812645392227 0.0030620026124848262 0.0026898151901803276 -0.0014627050339098436 -0.0014703364450145851 -0.0018369330556496331 0.00045537830427078147 -0.0010107953362166881 -0.0015722133062779902 0.0030078093618154528 0.0024223944768309593 -0.0017368638586967883 0.0025227597591124086 -0.0017218284857725458 -0.00098790442871470605 -0.0021828896817687442 -0.0017885415714520676 -0.0014286217121583112 -0.0011349451801160703 -0.001860970300104883 -0.001003833571313948 0.0033822205532443978 0.0030748642051574029 -0.0004234986977671531
leaf_weight=51 60 50 54 65 71 82 107 80 97 66 51 64 257 90 57 55 50 51 51 85 90 590 52 362 57 69 64 50 82 139 91 51 58 54 283 974 170 92 59 168 50 99 114 61 98 51 189 74 96 102 50 56 88 95 56 96 60 77 94 75 271 94 325 262 67 99 240 56 206 96 82 113 204 50 53 54 96 167 50 147 54 121 57 57 72 71 56 75 405 361 106 60 91 97 50 112 225 59 101 52 91 199 62 177 180 129 83 88 115 106 50 100 50 60 198 76 98 62 146 117 53 148 54 69 183 101 94
leaf_count=51 60 50 54 65 71 82 107 80 97 66 51 64 257 90 57 55 50 51 51 85 90 590 52 362 57 69 64 50 82 139 91 51 58 54 283 974 170 92 59 168 50 99 114 61 98 51 189 74 96 102 50 56 88 95 56 96 60 77 94 75 271 94 325 262 67 99 240 56 206 96 82 113 204 50 53 54 96 167 50 147 54 121 57 57 72 71 56 75 405 361 106 60 91 97 50 112 225 59 101 52 91 199 62 177 180 129 83 88 115 106 50 100 50 60 198 76 98 62 146 117 53 148 54 69 183 101 94
internal_value=8.20907e-06 0.00189 -0.00134808 -0.00151765 -0.000249996 0.00229322 0.00195457 0.00206421 0.00271965 -0.00159491 0.00394081 -0.000155902 0.000473964 0.000389179 0.00159221 0.00247943 0.00169942 0.00139521 -5.62776e-05 0.00214942 0.00260612 -0.00172422 0.00272908 -0.00153729 0.00190785 0.0025943 0.00294728 0.002186 0.00158622 0.00220901 -0.00105428 0.000247214 0.000464654 0.000972632 -0.00187346 -0.00191376 -0.00218956 0.000741437 -0.00131144 -0.00121344 -0.00089219 0.00445904 -0.00078413 0.000395322 -0.00179605 -0.00116559 -0.00171407 0.00240861 -0.00187549 -0.00154114 -0.000635593 0.00261881 0.00407178 0.00204272 0.00215946 -0.00110216 -0.0011583 -0.000966265 0.000550196 -0.000730808 -0.00251302 0.00231886 0.00110585 0.0026854 0.00305359 0.00154824 -0.00113145 0.0030954 -0.00189785 -0.00019909 0.0031332 0.00126891 0.00218198 0.00185231 -0.000393251 -0.00172638 0.00201181 -0.00142821 0.000434967 -0.000761712 0.00334843 0.00361977 -0.000574098 0.0026908 0.0025137 0.0023324 0.00157893 -0.00146557 -0.00207612 -0.00158034 -0.001467 0.00123578 -0.00145334 -0.000602075 0.00100643 -0.00134698 0.00199832 -0.000441284 0.000531718 0.0021618 0.00261763 -0.0019708 -0.000313047 0.00282258 0.00287561 0.00250591 -0.00121436 -0.00139932 -0.00154417 0.00066264 -0.00125926 -0.00138507 0.00271279 0.00273404 -0.00187705 0.00228531 -0.00188939 -0.000702855 -0.00213215 -0.00200746 -0.00171241 -0.00126001 -0.00155508 -0.00124636 0.00321198 0.00327291 -0.000580184
internal_weight=14733 6171 8562 7833 450 5155 2901 2794 999 7383 318 1016 729 544 147 126 1795 1124 397 681 387 5958 2254 2645 630 201 1341 290 429 671 1425 337 286 173 3313 3109 930 494 324 934 412 267 472 119 2179 1206 1711 913 1792 265 408 200 168 565 470 1115 1019 505 402 362 441 144 376 411 149 294 392 106 489 353 151 301 502 149 113 1028 298 387 351 358 523 175 287 818 349 128 138 152 764 1125 522 145 535 244 163 514 364 219 301 224 292 586 113 469 417 220 174 463 227 207 204 150 106 237 397 172 163 230 668 263 151 236 416 236 348 284 160
internal_count=14733 6171 8562 7833 450 5155 2901 2794 999 7383 318 1016 729 544 147 126 1795 1124 397 681 387 5958 2254 2645 630 201 1341 290 429 671 1425 337 286 173 3313 3109 930 494 324 934 412 267 472 119 2179 1206 1711 913 1792 265 408 200 168 565 470 1115 1019 505 402 362 441 144 376 411 149 294 392 106 489 353 151 301 502 149 113 1028 298 387 351 358 523 175 287 818 349 128 138 152 764 1125 522 145 535 244 163 514 364 219 301 224 292 586 113 469 417 220 174 463 227 207 204 150 106 237 397 172 163 230 668 263 151 236 416 236 348 284 160
is_linear=0
shrinkage=0.01


Tree=3
num_leaves=128
num_cat=0
split_feature=3 5 3 3 0 5 5 3 3 7 0 3 3 7 8 5 0 2 5 6 3 3 6 5 3 3 3 2 5 0 2 7 5 0 6 3 6 3 6 5 8 5 0 3 3 8 0 8 3 5 5 0 0 0 6 5 5 0 3 7 8 5 0 5 5 3 3 0 5 1 7 3 0 0 6 0 2 6 8 3 5 5 8 3 3 3 3 3 0 5 0 8 0 5 3 7 5 3 2 2 6 1 6 7 7 1 6 3 3 3 0 2 3 7 0 3 7 0 5 3 5 2 7 5 1 7 0
split_gain=363.607 54.1003 25.8211 8.1578 8.48429 5.06689 5.00173 4.66575 4.40977 7.39858 4.52644 4.07548 3.55021 3.54127 3.51753 3.93994 8.29593 2.22947 2.06639 1.74104 1.8425 1.58009 1.56411 1.50714 1.49479 1.23164 1.1699 1.04608 0.884319 0.863799 0.790461 0.777667 0.829806 0.743314 0.732367 0.711895 0.702455 0.70017 0.694913 0.669112 0.624607 0.614338 0.595329 0.589371 1.31826 0.532848 0.531554 0.516262 0.492598 0.487079 0.422622 0.41273 0.408521 0.379165 0.366031 0.33803 0.333976 0.317277 0.354422 0.528363 0.308797 0.301877 0.289007 0.281712 0.278962 0.274849 0.260443 0.255636 0.245782 0.227019 0.231324 0.220902 0.209621 0.208782 0.188189 0.184173 0.180446 0.174876 0.147723 0.183503 0.142783 0.191062 0.178528 0.139541 0.222888 0.134361 0.12703 0.12591 0.121245 0.117358 0.188941 0.115504 0.115287 0.110397 0.108414 0.104532 0.103144 0.201789 0.0990755 0.0984269 0.0977031 0.0940149 0.0917236 0.116833 0.0876315 0.0833396 0.0803669 0.0792204 0.0788592 0.078526 0.0778776 0.0774243 0.0770327 0.0969455 0.0768948 0.0768656 0.0744571 0.0729265 0.0707564 0.065624 0.0651508 0.064948 0.0629114 0.0612581 0.0600243 0.0598918 0.0564991
threshold=38.614999771118171 0.94303381443023693 32.244998931884773 39.694999694824226 16.964843750000004 0.98808932304382335 0.9940268099308015 38.795000076293952 38.524999618530281 3.6790755987167363 22.960937500000004 39.38499832153321 31.844999313354496 3.2336983680725102 396.23611450195318 0.90903306007385265 17.871093750000004 11.908203125000002 0.98572784662246715 36.940437316894538 38.904998779296882 39.214998245239265 40.545284271240241 0.98230198025703441 39.064998626708991 39.045000076293952 37.545000076293952 14.193359375000002 0.72035834193229686 13.501953125000002 11.125976562500002 2.795554637908936 0.89568111300468456 12.894531250000002 5.6574645042419442 37.254999160766609 30.840729713439945 40.244998931884773 25.400072097778324 0.93473306298255932 335.87606811523443 0.92118445038795482 25.628906250000004 33.914999008178718 33.104999542236335 293.94441223144537 15.574218750000002 212.48638916015628 40.084999084472663 0.99504795670509349 0.99430313706398021 19.402343750000004 16.035156250000004 20.519531250000004 35.586679458618171 0.80483996868133556 0.9963459074497224 19.003906250000004 39.88499832153321 2.9835014343261723 341.72575378417974 0.99352961778640758 24.996093750000004 0.53962582349777233 0.99504795670509349 37.674999237060554 40.144998550415046 13.730468750000002 0.98808932304382335 17.763671875000004 4.0488300323486337 38.424999237060554 10.673828125000002 13.832031250000002 15.462677478790285 11.283203125000002 16.470703125000004 44.627355575561531 243.3029479980469 38.334999084472663 0.91145014762878429 0.93886592984199535 365.57672119140631 40.414999008178718 40.804998397827156 32.144998550415046 37.314998626708991 39.295000076293952 13.396484375000002 0.99504795670509349 15.105468750000002 560.61343383789074 16.035156250000004 0.99746620655059826 40.474998474121101 4.3834433555603036 0.96493408083915722 33.18499946594239 13.166015625000002 14.142578125000002 35.867391586303718 17.115234375000004 29.346152305603031 3.5335431098937993 4.030595302581788 14.576171875000002 52.48878479003907 38.734998703002937 39.144998550415046 40.63499832153321 11.283203125000002 15.580078125000002 39.554998397827156 3.3444036245346074 27.199218750000004 38.004999160766609 4.2842650413513192 24.394531250000004 0.72035834193229686 37.93499946594239 0.91259875893592846 9.1826171875000018 4.0906410217285165 0.92965713143348705 17.251953125000004 2.5708894729614262 10.074218750000002
decision_type=2 2 2 2 2 2 2 2 2 2 2 2 2 2 2 2 2 2 2 2 2 2 2 2 2 2 2 2 2 2 2 2 2 2 2 2 2 2 2 2 2 2 2 2 2 2 2 2 2 2 2 2 2 2 2 2 2 2 2 2 2 2 2 2 2 2 2 2 2 2 2 2 2 2 2 2 2 2 2 2 2 2 2 2 2 2 2 2 2 2 2 2 2 2 2 2 2 2 2 2 2 2 2 2 2 2 2 2 2 2 2 2 2 2 2 2 2 2 2 2 2 2 2 2 2 2 2
left_child=2 14 12 4 6 13 7 40 10 39 23 18 56 -6 24 28 17 -17 67 20 36 69 33 34 -2 73 29 -22 108 -25 112 -30 124 48 -4 42 -7 72 -13 -10 -3 87 63 44 53 -20 65 92 110 52 76 -46 -49 111 86 -48 -1 58 59 -35 -41 99 85 -12 -32 -45 -60 -9 122 70 -15 -67 -24 -8 114 94 -29 -63 115 119 -37 101 -83 100 -85 -14 -51 -26 -66 90 -28 121 -31 -56 126 105 97 117 -47 -21 -50 -82 109 -104 -70 -54 -75 -72 -16 -68 -5 123 -27 -114 -44 -57 -77 -65 -55 -80 -121 -74 -40 -36 -33 -90 -39
right_child=1 3 8 22 5 19 25 11 9 -11 35 38 62 21 15 16 -18 -19 45 61 27 -23 37 26 41 30 89 50 31 47 64 32 -34 57 43 80 -38 75 68 60 -42 -43 74 46 51 98 55 49 83 54 -52 -53 95 118 93 78 -58 -59 66 -61 -62 77 -64 96 88 71 102 -69 104 -71 107 -73 91 106 -76 116 -78 -79 79 -81 81 82 -84 84 -86 -87 -88 -89 125 -91 -92 -93 -94 -95 -96 -97 -98 -99 -100 -101 -102 -103 103 -105 -106 -107 -108 -109 -110 -111 -112 -113 113 -115 -116 -117 -118 -119 -120 120 -122 -123 -124 -125 -126 -127 -128
leaf_value=0.00033593217674642804 -0.0020129655920678659 -0.001096423697486824 -0.0010323169941099685 0.0020115476846694945 0.0015844998805635219 0.004487117385422742 0.0008969407857512124 0.0022410359569624357 -0.0018803960410878062 0.0019721103739994829 -0.00031999788543793796 0.0016352651519864275 -0.00029663774550854253 0.0037469198240661157 -0.0010604214542545378 0.0014172654020173164 0.0043194143726275518 -0.001161358507846384 0.002068653162078638 0.0010285448033032537 0.0013185033568181099 0.0025637398192764455 0.0016744060560225328 -0.0015778401678402884 -0.00099483851956105548 0.0018310324022526381 -0.0019087935871673083 0.0019357187705380577 -0.0011302508279681207 -0.0014979938034796053 0.0022149407511285273 -0.00013603973882839326 0.0013498748780913512 0.0043826568363204838 -0.0019965873234547103 -0.0011008659804141836 0.0028505952466352314 0.0021410207316661491 5.2670865142183596e-05 -0.001346302851486732 0.00026815417204417437 0.00039343925397843121 -0.00035304239789848139 -0.0017337116946868349 -0.0027628443315625192 0.00083680582435234727 -0.0008070967607916547 -0.0011885634413652721 0.0028309344086382129 -0.00080567952126682724 0.0033414891530882639 -0.0021798321500255615 -0.00058589035299861346 -0.0011520335062406956 -0.0021013991651581787 -0.0017125430753675559 0.0012176648140961273 0.0024437886662781239 0.0027237137034535406 0.0030538887465209291 -0.00041579688241084422 0.0023872672897927902 0.00014933061333263491 -0.0011654973799242309 0.00250956935041091 -0.0020947731665801254 0.003810819548368454 0.0030831052459836979 0.001017078064077226 0.0050776948928833009 0.0048396078539344502 -0.0015493427305704071 0.0021155366723516348 0.0017705747620625932 -0.00069282436575223176 0.0027555821632797069 0.0026703791297040878 0.0015550140423700213 -0.0015722333667229633 -0.0013416037768251283 -0.0020281271077692508 -0.0016519017512664983 -0.00092325631162100592 0.0030830024786270296 0.0023713355613689795 -0.00078379375558044464 -0.0013611418324929309 -0.00047975289871565242 0.0028558890315993081 -0.0019954564219336148 -0.001297109678790376 0.0017578881084453317 -0.0021194238201075913 -0.0015178703018621112 0.0027615205488706889 -0.00094830661239102482 -0.00067496800199151044 -0.0016099552810192109 0.0013645467097903119 0.0014930090723835208 0.0024673978517884792 -0.0015013686370932394 0.0027684625817669764 0.0033689589927225938 0.00055294192534736323 -0.0001274913524054379 0.0012747140723065689 0.0043271193078586031 -0.00060649254028835608 0.0032800687991437461 0.0024308887464324319 -0.0017573019679297101 0.0022480803446189778 0.0017686867890721661 0.00017216686091851442 -0.0021111390994089404 0.0032209878772497176 -0.00085938574650918883 -0.0015638473576733045 -0.0014953985795378686 -0.001907450560819019 0.0024496017297108968 0.0004653055372841235 -0.0023889272391796113 0.00024457008225991475 0.0032979332277408013 0.0024814552252109233
leaf_weight=50 105 98 109 68 69 54 64 51 116 93 51 57 241 51 100 60 65 76 76 79 100 53 107 1184 152 186 159 70 50 72 83 168 53 63 195 152 51 78 122 68 51 50 63 542 220 92 52 174 207 98 53 271 117 50 51 118 305 50 112 57 75 51 130 201 51 640 50 123 59 50 53 84 113 88 117 110 64 50 245 237 64 57 82 321 51 74 71 69 58 411 74 50 51 89 95 50 50 79 58 108 115 72 54 81 131 60 52 70 62 63 127 110 148 59 50 82 50 127 252 50 165 120 53 50 55 65 130
leaf_count=50 105 98 109 68 69 54 64 51 116 93 51 57 241 51 100 60 65 76 76 79 100 53 107 1184 152 186 159 70 50 72 83 168 53 63 195 152 51 78 122 68 51 50 63 542 220 92 52 174 207 98 53 271 117 50 51 118 305 50 112 57 75 51 130 201 51 640 50 123 59 50 53 84 113 88 117 110 64 50 245 237 64 57 82 321 51 74 71 69 58 411 74 50 51 89 95 50 50 79 58 108 115 72 54 81 131 60 52 70 62 63 127 110 148 59 50 82 50 127 252 50 165 120 53 50 55 65 130
internal_value=-1.30496e-05 0.00182869 -0.00136177 0.00225501 0.00189878 0.00262634 0.00148976 0.000998794 -0.00154053 -0.00044731 -0.00159326 0.00129392 0.000347634 0.00361151 -0.000222057 0.000202493 0.00138077 -2.37303e-05 0.00201716 0.00212506 0.00255877 0.00411644 0.00270202 -0.0017018 -0.00100002 0.00204798 -0.00152274 0.00214409 -0.000282822 -0.00140426 0.00226073 1.72623e-05 0.000225145 0.00290545 -0.00183904 -0.00102185 0.00369224 0.00236361 0.000608389 -0.00131606 -0.000629353 -0.000607551 -0.000833815 -0.00186519 -0.00204907 0.00138649 -0.00176988 -0.00115754 0.00272873 -0.00105392 0.00258558 -0.00244106 -0.000824 -0.00175613 -0.0013523 -0.00159096 0.00109348 0.00320187 0.00328084 0.00375149 -0.000858275 0.00153473 -0.000247365 -0.00102492 0.00269197 -0.00190401 0.00312396 0.00283629 0.000448027 0.00448382 0.00431316 -0.00203149 0.00205145 0.0013701 -0.000411712 0.00262656 0.0022866 0.00197526 -0.0016364 -0.00156766 -0.00134683 -0.00148278 -0.00122205 0.00285351 0.00298544 -0.000411081 -0.00103904 -0.00083402 0.00291951 -0.00189382 -0.00171452 0.002194 -0.00175566 -0.00173044 0.00248163 -0.000544555 -0.00110359 -0.00115625 0.00104087 0.00129679 0.0027011 -0.00174925 0.00330471 0.00312876 0.000697068 -0.000430501 0.0015864 0.00454795 -0.000886696 0.00351491 0.00228466 -0.0019777 0.00197873 0.00211144 -0.000120649 -0.00187597 0.00290102 -0.00104697 -0.00149567 -0.00168412 -0.00181162 0.00228759 0.00017764 -0.00207666 -4.21674e-05 0.00308949 0.00235379
internal_weight=14638 6188 8450 5123 2851 1026 1825 971 7650 352 7298 822 800 346 1065 689 201 136 400 680 392 277 2272 6133 376 854 2661 287 488 2017 650 326 276 1419 3472 1165 105 853 422 259 149 271 738 3363 1148 226 2215 833 889 710 187 491 401 657 309 949 355 530 480 120 143 288 445 508 257 1266 360 174 365 224 174 724 390 204 230 463 134 101 897 697 427 275 139 694 372 315 169 221 174 644 233 283 123 140 303 227 457 407 150 187 322 136 248 135 190 177 140 123 162 113 195 355 393 207 113 200 160 328 302 460 215 233 175 245 223 123 208
internal_count=14638 6188 8450 5123 2851 1026 1825 971 7650 352 7298 822 800 346 1065 689 201 136 400 680 392 277 2272 6133 376 854 2661 287 488 2017 650 326 276 1419 3472 1165 105 853 422 259 149 271 738 3363 1148 226 2215 833 889 710 187 491 401 657 309 949 355 530 480 120 143 288 445 508 257 1266 360 174 365 224 174 724 390 204 230 463 134 101 897 697 427 275 139 694 372 315 169 221 174 644 233 283 123 140 303 227 457 407 150 187 322 136 248 135 190 177 140 123 162 113 195 355 393 207 113 200 160 328 302 460 215 233 175 245 223 123 208
is_linear=0
shrinkage=0.01


Tree=4
num_leaves=128
num_cat=0
split_feature=3 5 3 3 1 0 5 1 3 7 3 5 8 5 0 7 3 3 5 3 3 5 6 6 3 3 5 3 0 3 0 3 5 3 5 0 3 3 0 6 0 3 8 0 3 3 5 5 8 5 0 3 5 0 3 8 6 3 2 0 2 0 5 1 0 5 6 3 0 5 0 0 3 0 0 0 6 3 3 6 3 3 7 5 6 0 5 3 3 5 5 5 8 7 6 7 0 3 8 3 3 2 7 1 5 0 7 6 7 2 7 8 5 5 0 1 2 6 5 5 2 7 5 3 2 5 3
split_gain=356.081 54.2758 25.2205 8.48098 8.07868 4.83326 4.68451 4.03573 4.07342 6.47931 5.43721 4.00082 3.80125 4.10463 5.37472 3.45729 2.97868 2.7914 2.09546 4.27329 1.71438 1.35003 1.28358 1.22317 1.11688 1.08505 0.836617 0.826219 0.820436 0.78076 0.751694 0.730643 0.72993 0.722585 0.701938 0.669936 0.806219 0.666962 0.932913 0.66325 0.648311 0.6403 0.615026 0.597606 0.577065 1.14789 0.477233 0.451005 0.432008 0.602296 0.427733 0.402572 0.394293 0.571891 0.382756 0.372186 0.315915 0.605165 0.428401 0.315797 0.33286 0.310819 0.296072 0.295961 0.278822 0.27626 0.268059 0.277577 0.266028 0.243702 0.241223 0.207374 0.203177 0.198981 0.196653 0.194836 0.188846 0.182144 0.180911 0.175627 0.174847 0.170646 0.151511 0.144637 0.137601 0.135869 0.133792 0.12309 0.119501 0.113923 0.111825 0.122369 0.111515 0.105652 0.104821 0.0998515 0.0972161 0.0950321 0.0940007 0.134919 0.093472 0.0877342 0.0869034 0.0868506 0.0845202 0.0829701 0.0810803 0.0742901 0.0726528 0.0700004 0.068299 0.0816692 0.0677767 0.0660086 0.0616653 0.0613884 0.0597537 0.0589619 0.0574363 0.0562406 0.0547875 0.0544281 0.0506899 0.103887 0.051883 0.0491233 0.0476543
threshold=38.589998245239265 0.9361465871334077 32.194999694824226 39.754999160766609 15.861328125000002 22.253906250000004 0.99288114905357372 11.508789062500002 39.38499832153321 3.6018658876419072 38.814998626708991 0.98766016960144054 437.73011779785162 0.90903306007385265 17.425781250000004 3.6790755987167363 31.844999313354496 38.814998626708991 0.97194460034370433 38.524999618530281 38.984998703002937 0.98851785063743602 24.415678977966312 40.747941970825202 37.545000076293952 39.144998550415046 0.72835877537727367 38.834999084472663 22.691406250000004 38.674999237060554 13.777343750000002 40.264999389648445 0.89568111300468456 39.364999771118171 0.4858741313219071 13.212890625000002 36.494998931884773 33.18499946594239 25.628906250000004 5.6574645042419442 20.613281250000004 39.104999542236335 385.43240356445318 12.894531250000002 33.914999008178718 33.104999542236335 0.74294117093086254 0.91259875893592846 376.82546997070318 0.94446256756782543 12.939453125000002 40.344999313354499 0.99504795670509349 16.035156250000004 38.444999694824226 546.11242675781261 32.236015319824226 39.424999237060554 11.322265625000002 18.707031250000004 11.509765625000002 18.339843750000004 0.99599066376686107 12.122070312500002 12.894531250000002 0.99657681584358226 35.113080978393562 37.385000228881843 16.175781250000004 0.96988350152969371 24.996093750000004 19.636718750000004 37.774999618530281 20.175781250000004 11.330078125000002 10.730468750000002 43.946063995361335 38.334999084472663 40.784999847412116 55.354948043823249 39.274999618530281 40.144998550415046 3.430780410766602 0.99816682934761058 36.175161361694343 23.683593750000004 0.99851962924003612 40.084999084472663 40.494998931884773 0.99684175848960888 0.91145014762878429 0.78232690691947948 214.18384552001956 2.9694871902465825 11.181890010833742 4.2501382827758798 11.791015625000002 39.164999008178718 243.3029479980469 38.334999084472663 37.644998550415046 10.876953125000002 4.7673885822296151 17.115234375000004 0.99397408962249767 27.199218750000004 3.4040533304214482 36.488246917724616 4.786583900451661 11.724609375000002 3.3289296627044682 431.51452636718756 0.97424891591072094 0.78232690691947948 11.603515625000002 14.482421875000002 15.298828125000002 29.492013931274418 0.9940268099308015 0.94566005468368541 9.0048828125000018 4.0027940273284921 0.94303381443023693 38.484998703002937 12.658203125000002 0.98939785361289989 32.094999313354499
decision_type=2 2 2 2 2 2 2 2 2 2 2 2 2 2 2 2 2 2 2 2 2 2 2 2 2 2 2 2 2 2 2 2 2 2 2 2 2 2 2 2 2 2 2 2 2 2 2 2 2 2 2 2 2 2 2 2 2 2 2 2 2 2 2 2 2 2 2 2 2 2 2 2 2 2 2 2 2 2 2 2 2 2 2 2 2 2 2 2 2 2 2 2 2 2 2 2 2 2 2 2 2 2 2 2 2 2 2 2 2 2 2 2 2 2 2 2 2 2 2 2 2 2 2 2 2 2 2
left_child=2 12 16 4 6 18 7 17 9 10 42 27 20 26 -15 28 65 -3 39 24 93 -12 50 43 35 40 97 102 71 -24 -28 75 113 -19 -7 -20 -37 38 85 -4 -17 -13 -9 51 45 73 -46 80 -39 90 -8 84 53 -38 100 -51 58 63 -31 60 81 -47 -59 -58 112 -1 67 106 72 -29 126 -6 -48 116 88 -25 -23 -74 114 110 115 92 -60 -52 87 94 -77 -5 108 -68 91 -50 -45 -2 -36 -76 -88 -14 -70 -100 104 -64 -11 -92 -26 -40 -54 -73 -33 -10 -65 -112 -35 -32 -53 -22 -41 -83 -55 -79 -86 -119 123 124 -101 -111 -18
right_child=1 3 5 23 15 34 22 8 109 11 21 41 13 14 -16 25 70 33 19 -21 47 76 29 31 54 -27 30 69 -30 56 32 74 -34 64 37 36 52 48 105 44 -42 -43 -44 59 46 61 68 -49 49 55 83 78 66 118 -56 -57 57 62 82 -61 -62 -63 101 79 -66 -67 89 -69 98 -71 -72 107 77 -75 95 86 -78 119 -80 -81 -82 117 -84 -85 120 -87 96 -89 -90 -91 103 -93 -94 -95 -96 -97 -98 -99 99 122 -102 -103 -104 -105 -106 -107 -108 -109 -110 125 111 -113 -114 -115 -116 -117 -118 121 -120 -121 -122 -123 -124 -125 -126 -127 -128
leaf_value=0.00048516276247438888 -0.0020817892789170983 -0.00095515181506542791 -0.0010235227036173456 0.0023842905123605796 0.0016476797122094366 -1.7902165018856082e-05 0.0020743860473686998 -0.0015477396752084456 0.00069635825175227539 0.0039691028177884276 0.0030383704591255925 0.0023972484414224271 -0.001028070782731269 1.7228582433789947e-05 0.0039474287751268171 0.0036102734930042561 -0.00027446342894402946 0.0019272255498383726 -0.0015704975572792949 0.00062923110228903744 -0.0012319822845837244 0.0017018031216028964 0.003099753078487184 0.0015962969725270095 -0.0014680109706557828 0.002894713692367077 -0.00099534328629368178 0.0034258322075180624 0.0032035188320316851 0.001788649167746875 -0.0002628779192361565 0.0024884214516608947 0.0013932778765913098 0.00010331477191626888 -0.00086689536239613189 -0.0022748215225609869 -0.0012534499234046603 -0.0016125793869702356 -0.00037855357839686291 -0.0020365570225025133 0.0049574509645581889 0.0010435463945296678 -6.520396664592565e-05 0.0031721613036011747 -0.0008145211562149081 -0.00279336674184334 -0.0017292252960957981 0.00026027224695479329 -0.0016435266680577222 -0.00017972182606572061 0.0026961737075080613 0.0029326568578835577 -0.00074193788945933075 -0.00065812772889857767 -0.0010629194065675898 -0.001127726540436063 0.00089567052053385668 0.0014106725515531642 0.0022980292545384672 0.0024336723003674436 0.0037566654825088933 -0.0022414229197634593 0.0020845580064520544 0.0015031154527340408 0.0011521557688345793 0.0012208064314409781 -0.0020653580611242968 -0.0016491912413192423 -0.0018609396546329343 0.0025889977234704741 0.00022603795708368572 0.0024452888090596642 -0.0021042607158176167 -0.0015276456441391598 0.0027449651781854957 0.0017925924773832473 0.00097917736601084459 -0.0018636930219724146 0.0024081842202161039 0.0010718838557600976 -0.0004113640902862095 0.0034689278884066478 0.0029948550119996073 0.0032937311700412205 0.0019768435676705163 -0.0009097685219706796 0.0020742951203947483 0.0027685248289330334 0.0027983086035456711 -0.0014910326041629382 -0.0019014886100418293 -0.0010846470225844864 0.0025807223059237006 -0.0015466151545415559 -0.0013729552978184072 0.0033022434746517856 0.0025378694962919428 -0.00049587451294064524 -0.001708812863483728 -0.001565639516711235 -0.0019668274512103837 0.002529845149428756 0.0045500682924802492 -0.0013493305722635891 -0.0018679501258425022 7.1330018290082349e-05 -0.001190594789196751 0.0019693121806068242 0.002090117252790011 0.00014543662026394593 0.0020744437531014033 0.0015611071110356086 0.00056182680252095461 0.00015698786333009633 0.0032139863233481137 -0.0008076438012372966 -0.0017598101808963453 0.0028864415778833276 -0.00030645702622132377 -0.0015122002652331965 0.0024115596548654138 0.0033462144463108135 -0.0011247283515502821 -0.0018569914076258154 -0.0011451151835876452 0.0004897100004018285 -0.00057801788825496004
leaf_weight=62 89 114 96 141 90 67 66 62 66 51 65 54 102 81 61 58 198 56 1172 94 52 66 54 82 81 65 53 87 79 157 56 155 50 54 55 66 244 247 101 183 93 99 51 53 51 164 475 55 51 91 73 256 101 138 59 76 76 63 83 54 98 270 245 81 71 289 51 76 159 58 98 86 484 220 87 72 80 142 56 50 98 90 50 91 53 282 92 204 93 107 52 169 80 63 160 51 89 50 351 50 567 54 52 63 152 69 67 53 65 86 79 51 80 113 112 99 136 51 70 67 64 52 53 51 71 80 70
leaf_count=62 89 114 96 141 90 67 66 62 66 51 65 54 102 81 61 58 198 56 1172 94 52 66 54 82 81 65 53 87 79 157 56 155 50 54 55 66 244 247 101 183 93 99 51 53 51 164 475 55 51 91 73 256 101 138 59 76 76 63 83 54 98 270 245 81 71 289 51 76 159 58 98 86 484 220 87 72 80 142 56 50 98 90 50 91 53 282 92 204 93 107 52 169 80 63 160 51 89 50 351 50 567 54 52 63 152 69 67 53 65 86 79 51 80 113 112 99 136 51 70 67 64 52 53 51 71 80 70
internal_value=5.13986e-06 0.00179597 -0.00135964 0.00220434 0.00187209 -0.00152983 0.0016442 0.00122963 0.0015742 0.00194326 0.000891549 0.00279302 -0.000313379 0.00023403 0.00170555 0.00300502 0.000432692 0.000350308 -0.00165491 -0.00146975 -0.000992839 0.00183956 0.00207797 0.00268787 -0.00153661 0.00397498 -0.000258792 0.00357757 0.0023248 0.00192886 7.3269e-05 0.00237366 0.000331883 0.000920509 -0.00101807 -0.00141195 -0.00120997 -0.00106539 -0.000835411 -0.00184141 0.00443999 0.00152132 -0.000878631 0.00286894 -0.00186824 -0.00206722 -0.00176916 -0.000559271 -0.0012702 -0.00110174 0.00275417 0.00271519 -0.00112767 -0.000925034 -0.00184021 -0.000611149 0.00186493 0.00174981 0.0021424 0.00315391 0.00324564 -0.00244999 0.0020337 0.00144485 0.000645503 0.00109086 -0.00135552 -0.00114772 -0.00179474 0.0030911 -0.000198506 0.00202166 -0.00188853 -0.00175901 0.00263643 0.00201991 0.00130584 -0.00199773 0.0029377 0.00160477 -0.000740295 0.00309202 0.00255999 0.00302775 0.00251099 -0.00105414 0.0021572 0.00261149 0.00249778 -0.00167642 -0.0013463 -0.00121421 0.00281641 -0.00185997 -0.0012435 0.00295092 0.00230224 -0.000853006 -0.00164569 -0.00158628 -0.00189754 0.00216498 0.00426241 -0.001599 -0.00172892 -0.000195954 -0.000920867 0.0022638 0.00237074 0.000420879 0.00173104 0.00187306 0.000377053 1.78607e-05 0.00301828 -0.000953774 -0.00191857 0.00328194 -0.000539777 -0.00175101 0.00221464 0.00311856 -0.00139512 -0.00147844 -0.00131889 0.000311352 -0.00035375
internal_weight=14569 6301 8268 5279 3129 7551 2605 1332 957 725 324 401 1022 566 142 524 717 375 6068 3045 456 211 1273 2150 2951 216 424 248 308 1043 272 786 219 261 1483 2092 920 1416 667 3023 151 153 113 1364 2927 973 1954 304 749 502 230 886 854 452 859 167 989 699 290 478 424 434 362 337 205 351 402 244 1903 145 366 229 1168 539 451 335 146 693 424 261 249 326 133 164 462 497 253 345 313 158 335 220 133 152 215 138 181 152 735 576 800 299 103 115 233 170 168 139 220 232 211 130 134 169 368 151 319 193 208 209 117 103 225 172 121 166 268
internal_count=14569 6301 8268 5279 3129 7551 2605 1332 957 725 324 401 1022 566 142 524 717 375 6068 3045 456 211 1273 2150 2951 216 424 248 308 1043 272 786 219 261 1483 2092 920 1416 667 3023 151 153 113 1364 2927 973 1954 304 749 502 230 886 854 452 859 167 989 699 290 478 424 434 362 337 205 351 402 244 1903 145 366 229 1168 539 451 335 146 693 424 261 249 326 133 164 462 497 253 345 313 158 335 220 133 152 215 138 181 152 735 576 800 299 103 115 233 170 168 139 220 232 211 130 134 169 368 151 319 193 208 209 117 103 225 172 121 166 268
is_linear=0
shrinkage=0.01


Tree=5
num_leaves=128
num_cat=0
split_feature=3 5 3 3 4 0 5 3 5 3 0 3 8 5 0 2 6 6 3 2 4 5 4 4 5 3 5 4 3 0 4 5 2 0 4 1 5 4 3 3 6 4 3 5 4 5 5 3 3 4 6 6 5 3 0 0 0 4 3 3 0 0 5 3 5 5 5 0 3 0 3 4 0 5 2 5 0 2 0 0 3 6 0 3 0 5 1 4 3 6 3 3 8 5 4 5 4 0 8 1 8 2 0 4 3 5 0 4 4 3 4 4 0 1 0 5 6 3 1 0 3 5 0 6 4 0 4
split_gain=350.512 54.2927 26.3203 7.66976 11.8205 6.71538 5.05351 4.94876 6.7565 4.61355 4.20683 3.62565 3.20699 3.44542 6.77495 2.46333 2.41625 1.98318 2.44149 1.68333 1.64271 1.57078 1.61669 1.5423 1.43625 3.71806 1.39827 3.50747 1.36667 1.30415 1.10274 1.14329 0.896376 0.87195 0.763101 0.735833 0.727449 0.695828 0.995137 0.792704 0.621114 0.620912 0.778825 0.603565 0.602469 0.637031 0.581466 0.578924 0.569699 0.519395 0.509971 0.446276 0.418077 0.413881 0.395599 0.37722 0.300126 0.289371 0.286331 0.349594 0.280946 0.272487 0.269285 0.26445 0.256472 0.255267 0.25165 0.232168 0.231678 0.231325 0.228601 0.896044 0.221819 0.21006 0.204626 0.196991 0.195791 0.195565 0.194398 0.192241 0.190671 0.238055 0.184054 0.183383 0.17109 0.195211 0.170863 0.166731 0.160642 0.157348 0.154883 0.152837 0.151241 0.14139 0.137195 0.125922 0.121117 0.16768 0.113971 0.112718 0.108219 0.106962 0.106674 0.101911 0.0986539 0.0975911 0.0961229 0.0955698 0.0948559 0.0947448 0.0902647 0.0885836 0.0772427 0.0751507 0.0735534 0.0721046 0.0804566 0.0685465 0.0681774 0.0660517 0.0651575 0.0650243 0.0637405 0.061149 0.0584204 0.0595969 0.0564336
threshold=38.614999771118171 0.9361465871334077 32.244998931884773 39.674999237060554 0.95855584740638744 17.425781250000004 0.98766016960144054 38.524999618530281 0.98349335789680492 39.264999389648445 22.253906250000004 31.844999313354496 415.88749694824224 0.9073474407196046 18.785156250000004 13.810546875000002 25.400072097778324 36.940437316894538 38.904998779296882 12.142578125000002 0.90201130509376537 0.98230198025703441 0.92343050241470348 0.93618211150169384 0.99577102065086376 39.404998779296882 0.98675557971000682 0.90886470675468456 39.064998626708991 11.744140625000002 0.91139835119247448 0.89261537790298473 15.173828125000002 14.144531250000002 0.81183937191963207 10.698242187500002 0.96026757359504711 0.77420908212661754 33.914999008178718 33.104999542236335 23.502154350280765 0.92704269289970409 37.314998626708991 0.99264976382255565 0.94743829965591442 0.74294117093086254 0.99300944805145275 37.484998703002937 39.214998245239265 0.91611099243164074 38.280796051025398 29.492013931274418 0.72835877537727367 37.93499946594239 14.660156250000002 21.324218750000004 24.996093750000004 0.92674943804740917 32.784999847412116 37.564998626708991 19.402343750000004 13.347656250000002 0.99860626459121715 39.124998092651374 0.99319958686828624 0.99657681584358226 0.99343019723892223 14.751953125000002 39.414999008178718 18.191406250000004 33.914999008178718 0.8810446858406068 20.175781250000004 0.99383145570755016 11.075195312500002 0.98808932304382335 16.363281250000004 13.166015625000002 11.560546875000002 25.835937500000004 40.43499946594239 36.338321685791023 14.558593750000002 33.18499946594239 16.542968750000004 0.99577102065086376 14.115234375000002 0.95056271553039562 40.224998474121101 49.528593063354499 40.284999847412116 38.814998626708991 583.69839477539074 0.74294117093086254 0.95318162441253673 0.99187403917312633 0.93137890100479137 15.699218750000002 302.73970031738287 16.080078125000004 247.249870300293 13.955078125000002 15.363281250000002 0.87755909562110912 32.094999313354499 0.77486163377761852 10.074218750000002 0.94945600628852855 0.87431186437606823 40.084999084472663 0.95996245741844188 0.94145005941391002 13.300781250000002 12.826171875000002 23.792968750000004 0.75963056087493908 4.5423450469970712 39.88499832153321 11.165039062500002 13.029296875000002 37.545000076293952 0.64343622326850902 16.035156250000004 21.839110374450687 0.92919233441352855 12.353515625000002 0.94979664683341991
decision_type=2 2 2 2 2 2 2 2 2 2 2 2 2 2 2 2 2 2 2 2 2 2 2 2 2 2 2 2 2 2 2 2 2 2 2 2 2 2 2 2 2 2 2 2 2 2 2 2 2 2 2 2 2 2 2 2 2 2 2 2 2 2 2 2 2 2 2 2 2 2 2 2 2 2 2 2 2 2 2 2 2 2 2 2 2 2 2 2 2 2 2 2 2 2 2 2 2 2 2 2 2 2 2 2 2 2 2 2 2 2 2 2 2 2 2 2 2 2 2 2 2 2 2 2 2 2 2
left_child=2 12 11 4 5 16 9 10 15 20 21 65 28 30 19 36 35 18 51 -15 -7 37 47 40 25 26 27 -18 -2 80 31 52 66 87 121 -3 -9 115 39 72 61 42 70 100 45 -40 75 84 93 -30 57 -8 -14 -47 -29 91 104 -28 114 105 -41 -5 92 -59 101 -1 -20 -38 89 122 79 -72 -39 -34 -70 124 110 123 109 83 81 -25 111 -36 -23 -86 -52 120 -84 113 -83 -22 119 -32 -61 -82 -55 -98 126 -66 -35 -19 -6 -49 -13 -60 -92 -51 -44 -64 -46 -31 -105 -26 -43 -4 -117 -80 -77 -42 -24 -12 -45 -37 125 -27 -97
right_child=1 3 7 23 102 6 17 8 -10 -11 34 56 13 14 -16 -17 24 64 32 -21 55 22 33 29 68 46 50 54 49 82 48 -33 73 43 41 77 67 38 44 60 62 58 108 69 76 53 -48 103 -50 107 86 -53 -54 96 -56 -57 -58 63 59 94 -62 -63 78 -65 99 -67 -68 -69 74 -71 71 -73 -74 -75 -76 118 -78 -79 117 -81 95 90 88 -85 85 -87 -88 -89 -90 -91 106 -93 -94 -95 -96 98 97 -99 -100 -101 -102 -103 -104 112 -106 -107 -108 -109 -110 -111 -112 -113 -114 -115 -116 116 -118 -119 -120 -121 -122 -123 -124 -125 -126 -127 -128
leaf_value=0.00051404048866104512 -0.0019444893676388477 0.0016772455354466251 -0.00093495984510941947 0.002319273689389229 -0.001066159594458403 0.0025550662159919742 0.0046129965256242189 -0.0018753141157388214 0.0028777600472623651 0.0009803215191119684 -0.00027928449263210208 -0.0002747382162480897 -0.00095527916019292258 0.0013409752511943224 0.0044606566846370696 0.00109127249866724 7.7388197649270297e-06 0.00088019759183362973 0.0011375125798664682 -0.0011729618273998393 0.0045767128905025095 -0.0015940594451472798 -0.0014599074240525564 0.0027265596144059874 0.001629704801738262 0.00010760141570490839 0.0022951424675005856 0.0025205453802296458 0.00024164913610244792 0.0027587241692058114 -0.00096240003965795051 0.0012681817595401538 0.0023485469928867107 -0.001727297768369317 -0.0011453966315337055 0.0028075936083476268 -0.0012506021382444996 -0.0020401289076476857 -0.0007130063281339758 -0.0027026490643270703 0.0018905627098348406 -0.0014820563650867914 -0.002264670802880142 -0.00083423536591645741 -0.0017139518406096991 -0.0017152448247123027 0.0014576981928578372 -0.002107533924281597 -0.00021042827037331101 -0.00072486747512205815 0.000835595699097205 0.0032900827129681903 8.9134179895473088e-05 -0.0021240334031678468 0.0034308656981003657 0.0053233746528625493 0.00016361454028209068 0.0018136126939783392 -0.00071823754898594843 -0.0011387110521396003 -0.0021884296187814675 0.0032249302560030811 0.0019379129731761557 0.00094048604679604364 0.0015500701355802664 0.0012106082398666298 0.0020478239239981543 -0.00038417986637124645 0.0020054513282921848 1.1042293592944242e-05 -0.001599104368481143 0.00022763877008110287 -0.0016076790029183031 0.0031562534654349613 0.0026854944256720719 0.00094745579189083604 -0.0011448620044299074 0.0032942780497528259 0.0027054777020152584 -0.00073884148526793495 0.0023033372439303489 0.0019086254423155505 0.0039575581496412108 -0.0016941530219255348 -0.00081880498190338793 -0.0014972839815939061 0.0014611637242711506 -0.0010525524996451497 0.0032904238871165688 0.0012683680446611513 0.0020959589752283965 0.0039804905233248858 0.0014471778352657017 -0.0016402762859128418 -0.00061074694917936413 0.0031448720724959124 -0.0021148648188095685 -0.0016115972920156577 0.0025858726794831454 0.0022086220206517094 -0.0011481959187006065 0.0014304009041274494 -0.00050826516564724585 -0.0019557795986267076 -0.00064996875707216766 -0.00024202939951161777 0.0026103550989494146 -0.0011831616033469478 -0.0017769298605560288 0.0023311009292208821 -0.001224929527938366 0.0031811496006033291 -0.0016780047275084817 0.0021752832713080386 -0.0010829793118561307 -0.0010365031436085702 -0.0015329960337344636 0.002391479922814316 0.00050026843046788324 0.002308903137078652 -0.0018028618418253384 -0.00064916331726172017 -0.00048713291021085334 0.0023817659746855498 -0.00011797542893784303 0.00052337453259026698 0.0028277029586534432
leaf_weight=63 112 76 55 50 97 50 51 126 55 53 89 203 57 50 50 50 50 53 73 57 109 894 375 188 50 85 66 94 54 59 80 69 74 50 127 77 59 276 51 213 90 89 59 135 154 1007 59 200 97 171 133 51 117 469 97 50 133 97 78 225 212 99 140 54 51 319 52 65 245 58 58 50 208 57 54 52 185 63 94 52 53 85 55 117 65 122 65 97 105 63 55 71 53 50 63 95 129 136 128 53 91 106 53 224 107 96 107 62 123 109 50 313 181 51 96 50 94 267 99 65 65 102 87 60 51 58 137
leaf_count=63 112 76 55 50 97 50 51 126 55 53 89 203 57 50 50 50 50 53 73 57 109 894 375 188 50 85 66 94 54 59 80 69 74 50 127 77 59 276 51 213 90 89 59 135 154 1007 59 200 97 171 133 51 117 469 97 50 133 97 78 225 212 99 140 54 51 319 52 65 245 58 58 50 208 57 54 52 185 63 94 52 53 85 55 117 65 122 65 97 105 63 55 71 53 50 63 95 129 136 128 53 91 106 53 224 107 96 107 62 123 109 50 313 181 51 96 50 94 267 99 65 65 102 87 60 51 58 137
internal_value=3.0955e-06 0.00179717 -0.00131582 0.00220834 0.00186467 0.00201362 0.00269185 -0.00149743 -0.000344243 0.00368575 -0.00155308 0.000381831 -0.000306778 0.000139215 0.0014218 -0.000934944 0.00165396 0.00215888 0.00264324 1.77513e-06 0.00419785 -0.00167023 -0.00148875 0.00263343 0.00149795 0.00129499 0.00175977 0.00236561 -0.00100762 0.00284802 -0.000289223 0.00017894 0.00212197 -0.00116071 -0.00106498 0.00251486 -0.00134019 -0.00181612 -0.00185303 -0.00213101 0.0023272 -0.00115609 -0.00139189 -0.000819982 -0.00173717 -0.00181461 0.000540306 -0.00167515 -0.000790385 -0.000642018 0.00140794 0.00395154 -0.000253001 -0.00184688 0.00298285 0.00455498 -0.000233765 0.00174279 -0.000942525 -0.000809403 -0.00244614 0.00292102 0.00221903 0.00150137 0.00149956 0.00109573 0.0015162 -0.000796429 0.0019626 -0.000551292 -0.0011472 -0.00075339 -0.00185428 0.00269999 0.00212827 0.000383418 -0.00138045 0.00283315 0.00232498 -0.00129088 0.00260453 0.00245842 0.00323614 -0.00140853 -0.00153652 -0.00126145 0.00104096 -0.00142784 0.00351975 0.00166056 0.00225433 0.00434154 0.00190832 -0.00122312 -0.00102322 0.00275842 -0.00202747 -0.00185658 0.00282542 0.00188568 -0.00135355 0.001247 -0.000869037 -0.00192284 -0.000404253 -0.000455502 0.00243571 -0.000846817 -0.00193504 0.00211003 -0.00159409 0.00311415 -0.00183164 0.00190519 -0.00127497 -0.00124296 -0.0013606 0.00247324 0.000654267 0.002066 -0.00151057 -0.000476811 -0.000698209 0.0026211 0.000172604 0.000276237 0.00295758
internal_weight=14813 6276 8537 5250 2903 2753 954 7712 355 333 7357 825 1026 627 157 300 1799 621 358 107 280 5933 2644 2347 1523 1060 656 241 399 1380 470 243 256 958 1424 276 250 3289 3090 909 967 1233 586 421 2181 1792 404 1686 227 287 415 102 174 1741 191 230 443 217 647 462 425 149 818 151 263 382 125 124 463 280 404 108 484 131 299 345 389 200 610 296 848 435 532 244 1081 187 198 537 160 164 247 180 208 130 288 413 734 265 360 104 141 159 150 605 310 174 162 233 182 249 204 372 405 101 185 199 144 361 151 155 440 191 222 137 194 143 232
internal_count=14813 6276 8537 5250 2903 2753 954 7712 355 333 7357 825 1026 627 157 300 1799 621 358 107 280 5933 2644 2347 1523 1060 656 241 399 1380 470 243 256 958 1424 276 250 3289 3090 909 967 1233 586 421 2181 1792 404 1686 227 287 415 102 174 1741 191 230 443 217 647 462 425 149 818 151 263 382 125 124 463 280 404 108 484 131 299 345 389 200 610 296 848 435 532 244 1081 187 198 537 160 164 247 180 208 130 288 413 734 265 360 104 141 159 150 605 310 174 162 233 182 249 204 372 405 101 185 199 144 361 151 155 440 191 222 137 194 143 232
is_linear=0
shrinkage=0.01


Tree=6
num_leaves=128
num_cat=0
split_feature=3 5 3 3 4 0 5 0 3 5 3 4 6 3 0 5 6 3 5 3 7 5 3 5 4 4 2 6 2 5 5 1 5 0 3 5 4 3 4 3 3 4 4 4 0 3 5 3 0 3 5 4 3 4 6 3 7 0 5 5 3 4 0 0 0 5 5 0 1 6 5 5 2 0 0 4 0 0 2 0 5 3 4 7 4 0 3 4 7 6 7 0 2 0 5 3 0 4 3 4 6 3 3 3 6 3 3 6 4 4 0 3 5 3 0 5 0 5 4 0 6 0 5 3 0 6 0
split_gain=345.292 52.2312 24.329 7.37018 10.8181 6.67635 5.11355 4.29235 3.45981 5.92988 3.27766 2.68238 2.6778 2.65366 2.2296 6.60342 1.92758 2.54332 1.64376 3.71711 2.04664 2.64849 1.94344 1.56271 1.61287 1.52735 1.37483 1.22777 1.0938 1.05691 1.03442 0.959584 0.895229 0.836349 0.788812 0.762834 0.756506 0.723565 0.670802 0.955168 0.787491 0.642422 0.615179 0.744544 0.597378 0.583021 0.565672 0.533562 0.518314 0.502522 0.491884 0.472442 0.451046 0.4387 0.404372 0.397811 0.379859 0.371092 0.356547 0.349369 0.348254 0.340484 0.331021 0.322536 0.317692 0.314164 0.294087 0.274069 0.250944 0.245687 0.230534 0.229235 0.224278 0.213955 0.213679 0.212767 0.276806 0.197397 0.191346 0.190632 0.189821 0.188425 0.212211 0.180364 0.176509 0.170893 0.16479 0.162898 0.153247 0.152324 0.148703 0.144879 0.127389 0.125199 0.135176 0.124229 0.122917 0.128332 0.121072 0.119477 0.134288 0.117099 0.114126 0.111053 0.110388 0.108808 0.107375 0.103401 0.100434 0.0988811 0.0962815 0.0951147 0.0919323 0.0869539 0.0859214 0.0849974 0.0845209 0.0788813 0.078518 0.078387 0.0754512 0.0748797 0.0723954 0.0693869 0.0676573 0.0616145 0.060198
threshold=38.614999771118171 0.9361465871334077 32.244998931884773 39.714998245239265 0.95855584740638744 17.488281250000004 0.98624545335769664 22.253906250000004 38.524999618530281 0.98015195131301891 31.844999313354496 0.91711714863777172 26.698425292968754 39.254999160766609 20.613281250000004 0.87592396140098583 36.781501770019538 38.904998779296882 0.99599066376686107 39.404998779296882 3.3444036245346074 0.98459070920944225 38.854999542236335 0.98230198025703441 0.92343050241470348 0.90142938494682323 12.232421875000002 40.747941970825202 15.173828125000002 0.95364463329315197 0.90497958660125744 10.698242187500002 0.4858741313219071 14.144531250000002 38.734998703002937 0.89418447017669689 0.92642062902450573 38.484998703002937 0.77420908212661754 33.914999008178718 33.104999542236335 0.94743829965591442 0.81183937191963207 0.92582213878631603 12.894531250000002 40.244998931884773 0.99325579404830944 37.484998703002937 16.035156250000004 37.904998779296882 0.99264976382255565 0.93240320682525646 37.774999618530281 0.9397667944431306 29.492013931274418 39.854999542236335 2.9565421342849736 21.246093750000004 0.9963459074497224 0.99300944805145275 39.164999008178718 0.93645039200782787 24.394531250000004 16.113281250000004 18.339843750000004 0.83796519041061412 0.99352961778640758 24.996093750000004 12.861328125000002 15.745950222015383 0.99383145570755016 0.75111451745033275 11.075195312500002 16.300781250000004 20.175781250000004 0.94945600628852855 15.105468750000002 16.363281250000004 13.166015625000002 10.986328125000002 0.98459070920944225 39.914999008178718 0.94145005941391002 3.19952404499054 0.95016011595726024 11.330078125000002 40.304998397827156 0.86512851715087902 3.2721939086914067 38.080505371093757 4.2842650413513192 17.034164428710941 15.580078125000002 25.628906250000004 0.88392540812492382 33.18499946594239 15.699218750000002 0.92984935641288768 32.094999313354499 0.92984935641288768 45.23609924316407 40.474998474121101 39.534999847412116 39.064998626708991 21.982998847961429 38.814998626708991 32.734998703002937 50.777879714965827 0.87755909562110912 0.93702432513237011 15.105468750000002 39.254999160766609 0.92770677804946911 40.784999847412116 11.423828125000002 0.96493408083915722 25.449218750000004 0.99934449791908275 0.90002354979515087 12.535156250000002 4.8993289470672616 10.074218750000002 0.99860626459121715 37.545000076293952 19.261718750000004 33.213539123535163 18.191406250000004
decision_type=2 2 2 2 2 2 2 2 2 2 2 2 2 2 2 2 2 2 2 2 2 2 2 2 2 2 2 2 2 2 2 2 2 2 2 2 2 2 2 2 2 2 2 2 2 2 2 2 2 2 2 2 2 2 2 2 2 2 2 2 2 2 2 2 2 2 2 2 2 2 2 2 2 2 2 2 2 2 2 2 2 2 2 2 2 2 2 2 2 2 2 2 2 2 2 2 2 2 2 2 2 2 2 2 2 2 2 2 2 2 2 2 2 2 2 2 2 2 2 2 2 2 2 2 2 2 2
left_child=2 11 10 4 5 12 13 8 23 29 58 14 31 25 26 -16 17 54 19 20 22 63 -14 38 47 -7 35 44 66 125 65 88 -9 84 -13 -2 -23 42 120 40 74 49 116 52 53 79 80 87 -31 71 83 55 89 -5 -8 -46 -32 105 -1 92 68 72 98 103 -42 -28 -19 106 -38 -69 -30 -41 102 -52 -40 76 -36 115 104 -29 -21 -53 -83 -35 123 101 -84 -25 -3 93 -55 -89 -18 94 95 -44 -51 -98 -12 -24 -101 121 -20 -22 -33 -27 -45 -63 -49 -87 -6 -78 -108 114 -92 -43 -34 -93 -54 -110 -4 -47 -81 -26 -122 -10 -75
right_child=1 3 7 27 110 6 16 32 9 -11 62 34 18 -15 15 -17 59 28 61 46 21 36 99 24 33 57 30 45 70 48 56 78 37 50 75 -37 60 -39 39 41 64 77 43 67 51 85 -48 108 -50 96 73 81 118 90 -56 -57 -58 -59 -60 -61 -62 107 -64 -65 -66 -67 -68 69 -70 -71 -72 -73 -74 126 -76 -77 111 -79 -80 122 -82 82 86 -85 -86 109 -88 91 -90 -91 113 117 -94 -95 -96 -97 97 -99 -100 100 -102 -103 -104 -105 -106 -107 112 -109 119 -111 -112 -113 -114 -115 -116 -117 -118 -119 -120 -121 124 -123 -124 -125 -126 -127 -128
leaf_value=0.00026895149802679523 -0.00026599243853741515 0.002039127161480346 -0.00099757046886731556 0.002308572347715216 -0.0010655688121914864 0.0025983142137527464 0.0045465231879993724 0.00010979291833271938 -0.0020778687298297883 0.0023055418439466378 -0.00029019422484105741 -0.0017317656773541655 -0.00072398118463889603 0.0016697229043233627 -0.00034117337862675588 0.0041363626148770835 0.00095618832817203128 0.0010462351157452519 0.0017238308548143035 0.00011337944254585981 0.0024878203451633454 0.0023932785516310681 0.0018716516553495938 -0.0016439926283446705 -0.0014410782798931197 0.0045369347996926041 -0.00051411320134066047 0.0016787045376490703 0.0023900051340460778 -0.0010974352391702788 -0.0017847093309198195 0.0028761483185078909 -0.00071272606109368047 -0.0010150278946871524 0.00012208401761930801 0.0012134806819617202 0.0011478286401130431 0.00013062886428087951 -0.0020121904413985172 -0.0010119630353382001 -0.0027513050135563721 -0.0017178342523549101 -0.0011975188451734456 -0.0013833880543458364 0.0032704228582516523 0.0020407673657724733 0.001481032580723641 -0.0020903756492531181 0.00023563552126288416 -0.002106464996933937 -0.00081333889644469651 0.0038379364420067182 -0.002276531963371763 0.003025242016877535 0.0033048617898249161 0.0023245944818403542 -0.0006751937239594688 0.0052960384845733644 0.0011712410703842199 0.0019574516194482004 0.00059956163498422793 0.0017987292087995089 0.00013329810674907934 0.0037978414460724474 -0.002197159062106296 0.00060138414315160315 0.0020167189695925085 -0.00012248905477198687 0.0019904647748917341 -0.00086555681486670012 0.0032310279607772829 -0.0016943653571224679 0.0025697015784680844 -0.00044259928689891663 -0.0015804041135219896 -0.0011516993584698193 -0.00089422847665214945 -0.0011327389452046681 0.0032385882266930174 0.0019490295776890384 0.00057917937929092796 0.0026707660456498465 0.003804384647754201 -0.0017594531989799671 -0.0010448013445870442 0.0024813441847855188 0.0031782071348279719 -0.0014871021325683226 0.0012786730421039294 -0.0017935880478106292 0.0026588906969072118 -0.00079207148617849903 0.0015681116233737962 -0.00080182247637440595 -0.00084965118986124607 -0.0017000308264507335 -0.0020213425381222319 -0.0016113143888386813 -0.0007214145524883453 0.0016099675288123469 0.00092442641210443576 0.0027132913532356422 0.002117840011338681 0.0031212428500575406 0.0023779642522580679 0.0040056450577343212 -0.0011302570586597454 0.0011894805553990106 -0.001995299776395162 0.0030165525608592566 -0.00051604731278494004 -0.00051583566762641755 -0.00068073797146560712 0.0023029298554448521 0.0030182250186629677 -0.0012725908561579643 -0.00024989648509825415 -0.00133775573361803 -0.0017756401572698428 -0.0017074144573416561 -0.0016159505932591856 0.0024287439168741306 0.0023051848472693029 -0.0017966617643833162 -0.0011303328704805329 -0.0016496440460018458 7.9657093346423398e-06
leaf_weight=51 63 53 79 265 88 50 54 70 56 58 194 84 53 51 93 51 95 76 114 151 50 76 52 588 385 89 50 113 80 70 72 87 94 87 51 78 86 50 276 52 176 139 110 119 71 76 54 194 50 450 151 55 51 193 51 119 54 50 310 93 62 52 158 51 251 51 53 55 60 233 55 923 80 69 196 73 118 193 70 90 208 60 57 52 110 53 160 389 53 51 283 52 53 62 52 89 181 132 98 62 53 96 207 62 91 68 179 60 150 99 50 152 61 51 87 62 68 54 81 256 64 144 156 64 52 84 52
leaf_count=51 63 53 79 265 88 50 54 70 56 58 194 84 53 51 93 51 95 76 114 151 50 76 52 588 385 89 50 113 80 70 72 87 94 87 51 78 86 50 276 52 176 139 110 119 71 76 54 194 50 450 151 55 51 193 51 119 54 50 310 93 62 52 158 51 251 51 53 55 60 233 55 923 80 69 196 73 118 193 70 90 208 60 57 52 110 53 160 389 53 51 283 52 53 62 52 89 181 132 98 62 53 96 207 62 91 68 179 60 150 99 50 152 61 51 87 62 68 54 81 256 64 144 156 64 52 84 52
internal_value=5.78574e-06 0.001793 -0.00131264 0.00219162 0.0018683 0.00200003 0.00270305 -0.00148784 -0.00160164 -0.000585686 0.00033399 -0.00031325 0.00166856 0.00375339 0.000189697 0.00124462 0.00217272 0.00262701 0.00149374 0.00127235 0.00173399 0.0021226 0.000944398 -0.00165659 -0.00147681 0.00416688 -0.0002231 0.0026274 0.00210344 -0.00123065 -0.000704822 0.00245527 -0.000992965 -0.00115203 -0.000851971 0.00055244 0.00153945 -0.00104993 -0.00180444 -0.00184102 -0.00211439 -0.00172574 -0.00109517 -0.00117691 0.00280776 0.00232186 0.000526793 -0.00166399 -0.000541989 -0.00180839 -0.000809582 0.00307571 -0.0014684 0.00264863 0.00394343 0.00267804 -0.0013092 0.00454576 0.00104377 0.00147714 0.00122747 0.00195982 -0.000235412 0.00313864 -0.00242557 4.91577e-05 0.00144496 -0.00095344 0.00149412 -0.000723652 0.00273264 -0.00165797 0.00209597 -0.000562277 -0.00183289 -0.0006644 -0.000553582 -0.00136116 0.00279565 0.00201871 0.000383258 0.0033033 0.00319714 -0.00129352 -0.00140381 0.00255441 0.00334269 -0.00153147 0.0016589 -0.00128681 0.0027954 -0.0013978 0.00117532 -0.00120423 -0.00130363 -0.00142226 -0.00200061 -0.00184842 -0.000434919 0.00147388 0.00129402 0.00242188 0.00197791 0.00283846 0.00262146 0.00430682 -0.00113778 0.00147235 -0.00190321 0.00282993 -0.000866467 -0.000681207 -0.001016 0.00269003 0.00274338 -0.0015805 -0.000518452 -0.00107006 -0.00196917 -0.00181378 -0.00123593 0.00229472 0.00217488 -0.00149176 -0.00139826 -0.00182093 -0.000248968
internal_weight=14654 6221 8433 5231 3003 2865 918 7622 6197 318 811 990 1947 308 512 144 610 369 1593 1080 667 447 220 5879 2653 257 368 2228 264 260 227 354 1425 970 478 141 284 1355 3226 3031 899 2132 1305 1143 1401 827 413 1683 120 1738 411 522 496 879 105 190 126 207 361 241 208 513 450 163 427 101 129 647 146 288 135 975 401 272 472 394 321 394 248 359 359 332 277 139 559 468 217 1083 106 364 614 495 148 313 251 199 763 313 292 167 115 316 321 112 178 157 359 112 600 152 138 270 240 421 370 201 162 106 132 406 195 220 246 449 116 140 121
internal_count=14654 6221 8433 5231 3003 2865 918 7622 6197 318 811 990 1947 308 512 144 610 369 1593 1080 667 447 220 5879 2653 257 368 2228 264 260 227 354 1425 970 478 141 284 1355 3226 3031 899 2132 1305 1143 1401 827 413 1683 120 1738 411 522 496 879 105 190 126 207 361 241 208 513 450 163 427 101 129 647 146 288 135 975 401 272 472 394 321 394 248 359 359 332 277 139 559 468 217 1083 106 364 614 495 148 313 251 199 763 313 292 167 115 316 321 112 178 157 359 112 600 152 138 270 240 421 370 201 162 106 132 406 195 220 246 449 116 140 121
is_linear=0
shrinkage=0.01


Tree=7
num_leaves=128
num_cat=0
split_feature=3 5 3 3 4 0 5 3 0 3 5 8 5 0 3 4 5 3 4 5 6 3 5 3 4 6 2 4 4 6 5 5 3 4 3 3 5 0 0 3 0 4 4 5 3 5 5 4 6 3 6 5 0 3 4 3 4 4 5 0 0 3 8 4 2 7 0 0 0 2 0 6 3 2 5 4 0 0 0 3 3 0 3 0 5 3 4 4 0 5 5 2 0 0 4 3 5 6 0 7 3 0 6 7 3 3 4 5 4 0 4 4 4 0 4 4 3 4 8 4 7 7 0 4 7 3 3
split_gain=339.142 48.7109 23.6246 7.62187 11.3347 6.79595 5.75591 6.3729 4.61384 3.80722 6.75409 2.99554 3.13497 5.66074 2.87033 2.63959 2.48741 3.63793 2.80189 3.00798 1.81353 2.18263 1.50401 1.39659 1.3827 1.29998 1.02964 0.959017 0.841107 0.830732 0.805854 0.797889 0.785547 0.758884 0.85391 0.761212 0.732796 0.719328 0.717983 0.683858 0.682945 0.623095 0.601513 0.559452 0.541717 0.530191 0.629489 0.495343 0.487682 0.455455 0.44665 0.446314 0.4102 0.463585 0.357039 0.54755 0.34661 0.341734 0.312336 0.301928 0.288083 0.289771 0.286258 0.271476 0.412795 0.262246 0.24765 0.244601 0.237153 0.229597 0.229539 0.225233 0.230913 0.221001 0.218582 0.214862 0.205585 0.185531 0.184895 0.169246 0.168951 0.163876 0.156825 0.156807 0.156599 0.153274 0.149885 0.142988 0.139569 0.21695 0.132013 0.131612 0.124409 0.122682 0.155375 0.115921 0.10878 0.102092 0.101887 0.101843 0.0939249 0.0882928 0.0844965 0.0826694 0.0811289 0.0788615 0.158684 0.095619 0.0776513 0.0739312 0.0724658 0.0713648 0.0678187 0.0667641 0.101496 0.0662192 0.0618089 0.0595962 0.0582374 0.0538909 0.0533563 0.0529872 0.0526061 0.055128 0.0524932 0.051935 0.0518539
threshold=38.614999771118171 0.93223592638969432 32.194999694824226 39.694999694824226 0.95855584740638744 16.964843750000004 0.98766016960144054 39.295000076293952 22.253906250000004 38.524999618530281 0.98015195131301891 437.73011779785162 0.9037953019142152 17.425781250000004 31.844999313354496 0.90002354979515087 0.99577102065086376 39.38499832153321 0.90380784869194042 0.98572784662246715 36.940437316894538 38.904998779296882 0.98230198025703441 38.984998703002937 0.92487442493438732 40.747941970825202 13.998046875000002 0.92674943804740917 0.81183937191963207 21.839110374450687 0.72835877537727367 0.99300944805145275 38.464998245239265 0.77420908212661754 33.914999008178718 33.104999542236335 0.95364463329315197 13.158203125000002 22.363281250000004 40.264999389648445 14.097656250000002 0.94777020812034618 0.90623107552528392 0.99264976382255565 37.524999618530281 0.99599066376686107 0.98292219638824474 0.94001594185829174 29.787870407104496 37.904998779296882 25.400072097778324 0.99430313706398021 24.652343750000004 37.584999084472663 0.93645039200782787 39.854999542236335 0.9108722209930421 0.92515987157821666 0.9963459074497224 19.464843750000004 15.574218750000002 39.064998626708991 331.28799438476568 0.93378737568855297 11.125976562500002 3.2721939086914067 10.673828125000002 24.996093750000004 20.175781250000004 12.322265625000002 27.199218750000004 40.545284271240241 39.124998092651374 16.681640625000004 0.99300944805145275 0.9344281554222108 16.300781250000004 16.363281250000004 15.167968750000002 40.804998397827156 38.814998626708991 11.330078125000002 40.264999389648445 15.972656250000002 0.89123007655143749 40.414999008178718 0.94115626811981212 0.95016011595726024 16.910156250000004 0.99577102065086376 0.91145014762878429 15.580078125000002 18.707031250000004 18.628906250000004 0.89163613319396984 39.354999542236335 0.98292219638824474 35.867391586303718 26.449218750000004 3.9669286012649541 39.504999160766609 10.074218750000002 5.6574645042419442 5.9525322914123544 39.144998550415046 33.18499946594239 0.93174326419830333 0.63372093439102184 0.87755909562110912 13.300781250000002 0.90482828021049511 0.95996245741844188 0.94843631982803356 15.699218750000002 0.92984935641288768 0.92798891663551342 37.339998245239265 0.94261214137077343 321.29896545410162 0.94945600628852855 4.1747217178344735 3.8848638534545903 11.283203125000002 0.95056271553039562 3.0015041828155522 37.524999618530281 37.295000076293952
decision_type=2 2 2 2 2 2 2 2 2 2 2 2 2 2 2 2 2 2 2 2 2 2 2 2 2 2 2 2 2 2 2 2 2 2 2 2 2 2 2 2 2 2 2 2 2 2 2 2 2 2 2 2 2 2 2 2 2 2 2 2 2 2 2 2 2 2 2 2 2 2 2 2 2 2 2 2 2 2 2 2 2 2 2 2 2 2 2 2 2 2 2 2 2 2 2 2 2 2 2 2 2 2 2 2 2 2 2 2 2 2 2 2 2 2 2 2 2 2 2 2 2 2 2 2 2 2 2
left_child=2 11 14 4 5 16 7 15 9 22 36 23 30 -14 58 -7 17 18 -3 60 21 48 33 -2 44 37 -23 69 98 -18 104 50 45 102 35 68 124 47 80 66 87 49 -25 65 88 46 52 121 -8 93 -19 73 105 70 55 -39 84 -55 -1 -37 61 -20 -38 64 100 -42 -27 -16 117 -21 -54 72 78 -28 91 96 116 111 -29 85 -17 99 -56 -6 -32 97 -76 125 110 -90 -51 -22 -82 -36 -95 119 -52 -49 103 -41 -31 -101 -4 -10 -13 -30 107 -107 -46 -110 126 -43 -83 -92 -115 -57 -45 -35 -78 -44 -98 -5 123 -87 -11 -26 -24
right_child=1 3 8 25 83 6 20 -9 28 10 -12 12 13 -15 67 38 29 31 19 27 74 26 24 42 40 39 51 71 32 63 56 -33 -34 34 41 59 62 54 -40 81 43 77 95 76 108 -47 -48 79 -50 90 75 -53 53 57 82 115 -58 -59 -60 -61 -62 -63 -64 -65 -66 -67 -68 -69 -70 -71 -72 -73 -74 -75 86 -77 118 -79 -80 -81 92 112 -84 -85 -86 122 -88 -89 89 -91 113 -93 -94 94 -96 -97 120 -99 -100 101 -102 -103 -104 -105 -106 106 -108 -109 109 -111 -112 -113 -114 114 -116 -117 -118 -119 -120 -121 -122 -123 -124 -125 -126 -127 -128
leaf_value=0.00036241788589568051 -0.0018735961409874708 -0.00048597442209720617 -0.00097059644506468129 0.0023837331630837868 -0.0010326545951621874 0.0019624805420637133 0.0044306240449933443 0.0002505179040133953 -0.00087928387895226472 -0.001929046862891742 0.0022736269060303184 -0.0010422270337585361 -0.00018086269387852523 0.0037562052618528973 -0.00034272167886045791 0.0044819720139106121 0.0029855595772033151 0.001393422674679873 0.002198639360826407 0.0017473411363990686 0.0010358684180015378 0.0011581198258532419 -0.0015717355276356978 0.00040417937543608398 -0.0014270816388291105 0.0015909240937285257 0.0018382524895942075 0.0012747188184696896 -0.0012131750404369087 0.0016535671883159216 0.00011235405231499053 0.0016322765358413262 5.0593317447540661e-05 -0.0019293909805461699 -0.0016949102666708161 -0.0026605314609495184 -0.0011151157644178186 0.0035275486975476361 0.0055424154639244086 0.0027027611610709978 -0.001011759470367886 -0.001674453554144741 -0.00079751320210077776 -0.00064950203812784619 -0.0020621966685240084 -0.0020719153686825716 -0.00022555477339429437 0.0027775312744997404 0.0030670427462017097 -0.0016216392429565553 0.00024303861728136277 0.0032046671903559138 -0.00078063585923636577 -0.0019259857000516994 0.0036980388783242391 0.0021951203054142378 -0.00044603074207924401 -0.0010303154214170208 0.0011883510266464711 -0.002132882570205297 0.0034911832073703411 0.0030736046549917641 -0.00012443115487694741 0.0014681224352581072 0.0026466746358795369 -0.0018966247637773742 0.0021399885683390154 0.00024050396741979958 -0.0015514303442950433 0.002604984688586083 -3.4077018264304991e-05 0.0008726235709862033 0.00093129012153529732 0.0026574034623379978 0.0020468090073420451 -0.00016927952477871849 -0.0004492060678700606 -0.0011040753668004816 0.0021064273559234358 0.0022455406526349624 0.0036371884531662116 0.0026193473027909505 0.0031708992497153478 -0.00035224747429601851 0.00078415842893776819 0.0031079328493638469 0.0013454327151179314 -0.0010425059326613943 -0.00079570900419583684 -0.0015051179536385462 -0.0021000979173014752 0.0016335176828282851 0.0043064324996050672 -0.0017862304051717123 -0.0010937336813888433 -0.00037850207402327754 0.00088491984062938627 0.0023321251529203335 -6.6939139851167543e-05 0.0020407147950763944 0.0020133829730398516 0.0024604888336501852 -0.0013859440948814153 -0.00039410586653364097 -0.00056054621325297787 -0.001272265893571517 -0.0011229300553289552 -0.0017918025040677911 -0.0019348407208919524 -0.0016433397370886494 -0.0014088187284279066 -0.0012330686852335931 0.0030659642267753095 -0.0020390250812093898 -0.001615750961178957 0.0026405149446406834 -0.001079963728926092 -0.0023107651829719546 8.0217891823289952e-06 -0.0011673156063665045 0.00053093137128242093 0.0020977037722865739 0.0031100059943909969 0.0027151483487264784 -0.0015247692765954597 -0.0017568306787447497 -0.0017984159879323816
leaf_weight=54 117 50 96 231 105 50 51 50 50 84 68 96 91 61 278 120 92 51 67 57 116 90 664 51 363 114 87 52 320 108 94 75 60 227 863 206 70 69 50 93 91 137 139 90 182 56 81 187 54 93 111 56 198 56 92 63 83 178 301 229 64 87 50 94 94 53 294 97 208 69 52 134 61 53 78 57 60 176 55 53 61 68 146 50 55 55 50 96 65 128 424 54 51 54 81 54 59 71 63 79 221 137 100 118 55 51 96 116 200 154 244 50 68 166 86 71 53 50 52 55 153 90 161 102 52 55 119
leaf_count=54 117 50 96 231 105 50 51 50 50 84 68 96 91 61 278 120 92 51 67 57 116 90 664 51 363 114 87 52 320 108 94 75 60 227 863 206 70 69 50 93 91 137 139 90 182 56 81 187 54 93 111 56 198 56 92 63 83 178 301 229 64 87 50 94 94 53 294 97 208 69 52 134 61 53 78 57 60 176 55 53 61 68 146 50 55 55 50 96 65 128 424 54 51 54 81 54 59 71 63 79 221 137 100 118 55 51 96 116 200 154 244 50 68 166 86 71 53 50 52 55 153 90 161 102 52 55 119
internal_value=2.12877e-06 0.0017725 -0.00130139 0.00214768 0.00182112 0.00196279 0.00259425 0.00357881 -0.0014637 -0.00158326 -0.000527781 -0.00031087 0.000184029 0.00139914 0.000418242 0.00408005 0.00158936 0.00132556 0.00179464 0.00197116 0.00204839 0.00249628 -0.00164108 -0.00094734 -0.00146523 0.00258964 0.00204358 0.00148416 -0.000964742 0.00211003 -0.00029821 0.000680349 -0.00106614 -0.00178567 -0.00182443 -0.00207903 -0.0012719 0.00277812 0.00445551 0.00228228 -0.00114957 -0.00171447 -0.000584892 -0.000839147 -0.00162935 -0.00112179 -0.00107545 0.00262318 0.00372935 -0.00179199 0.0005147 0.00245016 -0.00113996 -0.000924771 0.00311188 0.00280379 7.1851e-05 -0.00124466 0.00106272 -0.00238276 0.00292729 0.00269294 -0.000702331 0.00195422 0.00206225 -0.00133744 0.00198657 -0.000191861 -0.00180661 0.002217 -0.000625352 0.00117841 0.00142231 0.00214836 0.00146072 0.000396766 -0.000557759 -0.00133711 0.00170223 0.0027863 0.00422126 0.0025534 0.00337467 -0.000813168 0.000360336 0.00283606 0.00177283 -0.00139054 -0.00151293 -0.0012662 -0.00197489 0.00122571 0.00394193 -0.00165106 -0.00137073 -0.00078829 0.000496657 0.00265496 -0.000409895 0.00242608 0.00189527 0.00230696 -0.00118251 -0.000538504 -0.00086678 -0.00131861 -0.0014469 -0.00163314 -0.00189433 -0.00180803 -0.00155929 -0.00155644 0.00284266 -0.00202348 -0.00189457 0.00243111 -0.000809044 -0.00199823 -0.000236922 -0.000902354 0.000629447 0.00230354 0.00298299 0.00285275 -0.00177447 -0.00147047 -0.00160619
internal_weight=14696 6232 8464 5281 3037 2882 1071 382 7734 6239 324 951 535 152 730 332 1811 1202 696 646 689 391 5915 416 2669 2244 286 428 1495 609 383 506 1264 3246 3050 920 256 1391 282 853 913 2130 299 399 1756 1204 1148 950 105 1767 431 196 1067 484 441 203 232 234 355 435 218 154 120 517 423 144 408 375 485 126 250 302 168 140 298 380 255 363 107 629 232 445 238 155 149 576 128 514 1220 193 769 170 112 998 135 248 323 258 231 309 329 216 196 168 151 583 263 167 536 354 1027 187 136 676 252 134 143 277 112 194 212 321 318 157 136 418 783
internal_count=14696 6232 8464 5281 3037 2882 1071 382 7734 6239 324 951 535 152 730 332 1811 1202 696 646 689 391 5915 416 2669 2244 286 428 1495 609 383 506 1264 3246 3050 920 256 1391 282 853 913 2130 299 399 1756 1204 1148 950 105 1767 431 196 1067 484 441 203 232 234 355 435 218 154 120 517 423 144 408 375 485 126 250 302 168 140 298 380 255 363 107 629 232 445 238 155 149 576 128 514 1220 193 769 170 112 998 135 248 323 258 231 309 329 216 196 168 151 583 263 167 536 354 1027 187 136 676 252 134 143 277 112 194 212 321 318 157 136 418 783
is_linear=0
shrinkage=0.01


Tree=8
num_leaves=128
num_cat=0
split_feature=3 5 3 3 0 3 4 4 0 5 3 0 3 4 6 4 0 5 6 3 5 4 5 3 4 5 4 2 0 0 5 0 0 4 5 5 4 3 0 4 4 4 4 8 3 5 3 3 1 6 3 5 0 5 5 2 0 5 3 3 1 3 3 4 5 3 3 0 5 5 0 3 4 0 0 6 3 3 4 3 6 4 8 8 0 2 5 4 3 0 3 6 4 3 4 3 6 4 0 3 3 4 3 0 3 8 4 0 4 0 0 3 8 6 3 0 0 0 0 0 0 3 5 3 5 4 0
split_gain=333.516 46.1896 23.5566 8.17016 7.22294 6.54849 8.19925 6.41997 6.25491 5.44556 5.11295 4.25228 3.20819 2.77927 2.65376 2.49356 2.35481 5.97045 1.85867 2.07663 1.56715 1.63447 1.44151 4.00282 1.76696 2.98603 1.4082 1.30454 1.2664 1.13869 1.05983 0.896646 0.867469 0.851416 0.826741 0.806954 0.705957 0.968941 0.701186 0.651699 0.571097 0.774181 0.539537 0.510713 0.487577 0.485511 0.475106 0.470554 0.444536 0.443385 0.441512 0.405319 0.375019 0.360246 0.354593 0.32792 0.294469 0.282908 0.280903 0.278406 0.412862 0.271773 0.332409 0.250815 0.23355 0.227984 0.221437 0.216918 0.208995 0.207114 0.188512 0.245174 0.18842 0.199099 0.188411 0.184325 0.26833 0.176556 0.173983 0.173845 0.198909 0.167738 0.167519 0.154223 0.184482 0.150309 0.149584 0.132982 0.192222 0.192633 0.134895 0.132442 0.131358 0.121201 0.120276 0.119128 0.117904 0.117346 0.123173 0.112506 0.111656 0.107591 0.104147 0.101016 0.0993462 0.0946108 0.0923845 0.0920406 0.091467 0.0868654 0.08539 0.0829149 0.0819461 0.0814293 0.0807597 0.0801694 0.075766 0.0740744 0.0724975 0.0719558 0.0708006 0.0701606 0.0693419 0.0681939 0.0675869 0.0650569 0.0644608
threshold=38.644998550415046 0.93355056643486034 32.244998931884773 38.545000076293952 16.238281250000004 39.714998245239265 0.95855584740638744 0.88964703679084789 17.488281250000004 0.98766016960144054 39.274999618530281 22.253906250000004 31.844999313354496 0.94049370288848888 25.400072097778324 0.91711714863777172 20.785156250000004 0.87996771931648265 32.236015319824226 38.854999542236335 0.98230198025703441 0.91139835119247448 0.9940268099308015 39.38499832153321 0.90848419070243847 0.98675557971000682 0.93618211150169384 12.232421875000002 11.791015625000002 14.191406250000002 0.90497958660125744 22.082031250000004 12.535156250000002 0.93645039200782787 0.89261537790298473 0.4858741313219071 0.77420908212661754 33.914999008178718 18.855468750000004 0.94743829965591442 0.81183937191963207 0.92704269289970409 0.90963402390480053 403.15736389160162 37.774999618530281 0.99383145570755016 38.754999160766609 37.464998245239265 14.728515625000002 37.069129943847663 37.904998779296882 0.9706026315689088 14.660156250000002 0.99619916081428539 0.99279186129570018 11.099609375000002 25.269531250000004 0.83259490132331859 33.104999542236335 39.854999542236335 11.287109375000002 32.784999847412116 37.564998626708991 0.93932080268859874 0.98459070920944225 32.734998703002937 38.394998550415046 13.777343750000002 0.78232690691947948 0.99735447764396679 13.636718750000002 40.244998931884773 0.94945600628852855 15.363281250000002 14.705078125000002 44.902441024780281 39.124998092651374 40.084999084472663 0.95056271553039562 40.43499946594239 35.867391586303718 0.92674943804740917 591.44308471679699 583.69839477539074 11.041015625000002 15.580078125000002 0.91145014762878429 0.86085930466651928 37.125000000000007 25.449218750000004 33.18499946594239 43.946063995361335 0.91874280571937572 37.404998779296882 0.87755909562110912 40.284999847412116 54.177968978881843 0.8639410436153413 18.707031250000004 37.545000076293952 39.444999694824226 0.90002354979515087 32.094999313354499 14.613281250000002 39.344999313354499 248.7126388549805 0.92827287316322338 16.175781250000004 0.94979664683341991 20.785156250000004 25.449218750000004 39.274999618530281 400.45916748046881 4.1356637477874765 40.394998550415046 16.113281250000004 23.792968750000004 13.449218750000002 22.847656250000004 10.837890625000002 10.074218750000002 40.63499832153321 0.94810083508491527 39.354999542236335 0.79558268189430248 0.86633247137069713 16.605468750000004
decision_type=2 2 2 2 2 2 2 2 2 2 2 2 2 2 2 2 2 2 2 2 2 2 2 2 2 2 2 2 2 2 2 2 2 2 2 2 2 2 2 2 2 2 2 2 2 2 2 2 2 2 2 2 2 2 2 2 2 2 2 2 2 2 2 2 2 2 2 2 2 2 2 2 2 2 2 2 2 2 2 2 2 2 2 2 2 2 2 2 2 2 2 2 2 2 2 2 2 2 2 2 2 2 2 2 2 2 2 2 2 2 2 2 2 2 2 2 2 2 2 2 2 2 2 2 2 2 2
left_child=2 15 12 11 51 6 8 -6 14 10 31 20 53 -9 32 16 27 -18 19 -11 36 47 23 24 -16 52 49 34 79 78 57 42 -3 55 -2 -13 113 38 65 50 110 44 -10 54 87 85 -17 97 -21 59 82 -5 91 -1 105 100 102 -29 109 60 -7 116 68 -47 -25 -38 -64 -35 -63 123 114 -72 73 -48 122 76 -27 83 99 80 -28 -50 -39 84 -51 -20 -52 -42 89 90 -89 -26 -66 115 -49 -82 -69 -22 -99 -23 -24 -46 -14 -71 -57 -31 -44 -54 -81 -40 -37 -75 -32 -4 -30 -56 -43 -96 -104 -110 -97 -116 -41 -34 -115 -55 -67
right_child=1 5 3 4 7 26 -8 13 9 18 -12 35 56 -15 22 46 17 -19 45 48 21 29 33 64 25 75 28 30 70 43 112 -33 69 67 -36 40 37 39 58 74 41 61 106 -45 101 63 72 94 81 77 86 -53 107 125 93 104 -58 -59 -60 -61 -62 62 66 -65 92 126 -68 96 -70 103 71 -73 -74 111 -76 -77 -78 -79 -80 108 95 -83 -84 -85 -86 -87 -88 88 -90 -91 -92 -93 -94 -95 117 120 -98 98 -100 -101 -102 -103 118 -105 -106 -107 -108 -109 119 -111 -112 -113 -114 124 121 -117 -118 -119 -120 -121 -122 -123 -124 -125 -126 -127 -128
