tree
version=v4
num_class=1
num_tree_per_iteration=1
label_index=0
max_feature_idx=2
objective=regression
feature_names=Column_0 Column_1 Column_2
feature_infos=[4:30] [0.083846792578697205:0.99975723028182983] [10.239999771118164:81.930000305175781]
tree_sizes=12016 12624 12634 12627 12643 12697 12643 12658 12656 12652 12636 12604 12723 12656 12685 12652 12625 12679 12701 12667 12652 12671 12606 12595 12671 12618 12636 12637 12644 12686 12730 12635 12710 12604 12769 12678 12689 12731 12694 12632 12687 12589 12609 12542 12723 12678 12588 12448 12613 12532 12459 12650 12586 12704 12631 12526 12611 12376 12599 12624 12407 12580 12632 12450 12391 12393 12389 12680 12575 12633 12445 12443 12503 12341 12755 12585 12397 12628 12357 12569 12430 12225 12141 12524 12187 12505 12495 12378 12226 12433 12158 12413 12404 12390 12692 12585 12389 12397 12332 12179 12139 12169 12214 12128 12183 12543 12414 12074 12201 12439 12527 12318 12195 12192 12061 12265 12094 12058 12105 12162 12135 12565 12081 12350 12209 12047 12035 12188 12340 12069 11978 12116 12357 11955 12360 12343 12394 12385 12015 11948 11992 12222 12294 12114 12389 12479 12147 12056 11931 12025 12065 11887 12022 11676 12086 12089 12374 12337 12540 12376 12049 11820 11866 12323 12115 12357 12271 11905 12318 12325 12302 11993 12009 11873 11974 12267 12256 11514 12307 11891 12168 12238 12511 12417 12124 12440 11776 11922 12014 12138 12052 12071 12231 12284 11891 11997 12211 11993 12176 12465 12047 11973 12123 11561 12310 11894 12035 12220 11754 11856 11956 11950 11960 12115 12298 11957 12165 12417 12179 11541 11725 12384 12171 12068 12058 11539 11879 11926 12083 12290 11745 12114 12341 12038 12353 11890 11900 11918 12145 11958 11724 11732 11665 12092 11923 12253 12151 12133 11748 12048

Tree=0
num_leaves=128
num_cat=0
split_feature=0 0 2 2 2 0 2 2 0 1 0 0 1 2 2 1 2 1 1 2 2 1 1 1 2 2 1 2 1 2 0 1 2 0 2 2 2 1 2 0 2 1 2 1 1 0 1 2 0 2 1 1 1 2 2 0 2 2 2 1 1 1 2 1 2 2 2 2 1 0 1 1 2 2 1 2 2 2 1 1 2 2 2 2 2 2 1 0 2 0 1 2 2 1 2 2 2 2 1 2 2 2 1 2 2 1 0 2 1 2 0 0 1 2 2 2 2 2 2 2 1 2 2 2 2 2 2
split_gain=30735.9 15536.9 8789.36 5382.22 4876.2 2973.67 2607.27 1944.56 1768.74 1733.56 1560.16 1535 1244.68 1127.72 999.172 995.185 906.541 749.963 682.526 613.54 564.46 507.368 459.447 453.622 491.201 445.124 380.869 362.852 317.972 311.325 304.705 287.148 294.086 283.088 267.305 259.821 252.768 484.1 371.403 242.072 233.649 225.694 224.592 207.99 204.637 195.395 194.922 192.696 191.18 187.61 175.702 174.969 171.635 165.482 196.203 165.312 164.243 250.381 254.785 237.726 217.556 221.409 162.527 199.191 156.651 151.165 141.789 131.665 161.004 130.83 128.905 135.883 130.405 122.387 121.372 121 358.898 255.456 218.034 156.777 141.659 137.438 119.973 113.827 109.234 144.799 107.942 103.604 102.415 114.034 101.059 142.7 103.807 100.86 99.5263 99.1197 98.3051 97.6837 95.175 93.9917 105.602 93.7926 88.3377 94.8814 85.6098 97.2898 85.5967 92.0276 85.0206 82.729 82.6599 82.3182 80.8189 126.164 131.302 247.703 186.034 139.369 132.073 195.931 80.7507 79.8544 79.7785 155.166 105.29 79.1184 78.6097
threshold=8.5996093750000018 15.410156250000002 57.04499816894532 24.07499980926514 58.394998550415046 6.5410156250000009 20.044999122619632 31.274998664855961 11.425781250000002 0.91351976990699779 6.1888034343719491 19.191406250000004 0.69864368438720714 39.454999923706062 44.674999237060554 0.89471018314361583 29.014999389648441 0.96163180470466625 0.64673161506652843 76.354999542236342 72.184997558593764 0.90709564089775097 0.83954280614852916 0.89185380935668956 62.854997634887702 53.144998550415046 0.8975992500782014 36.224998474121101 0.97296744585037243 59.784997940063484 5.1503906250000009 0.85241752862930309 15.584999561309816 5.4902343750000009 39.054998397827156 76.354999542236342 54.754999160766609 0.88605600595474254 70.864997863769545 11.820944786071779 78.154998779296889 0.8670509159564973 72.354999542236342 0.95882415771484386 0.94918596744537365 7.4849679470062265 0.8670509159564973 25.82499980926514 13.167968750000002 59.144998550415046 0.91708719730377208 0.94395297765731823 0.98241847753524791 32.444999694824226 35.284999847412116 7.1097030639648446 66.614997863769545 59.584999084472663 55.914999008178718 0.96458223462104808 0.6953236758708955 0.96163180470466625 27.184999465942386 0.92331251502037059 37.88499832153321 59.784997940063484 22.444998741149906 27.184999465942386 0.6884993612766267 9.9550781250000018 0.84599545598030101 0.97714716196060192 46.224998474121101 56.284997940063484 0.95750054717063915 38.604999542236335 44.674999237060554 35.064998626708991 0.89471018314361583 0.94395297765731823 36.224998474121101 41.474998474121101 62.694997787475593 44.674999237060554 68.514999389648452 76.354999542236342 0.61207318305969249 22.285156250000004 69.944995880126967 12.566236019134523 0.77995783090591442 67.614997863769545 60.564998626708991 0.98241847753524791 43.045000076293952 78.514995574951186 13.35499954223633 21.524999618530277 0.96163180470466625 20.044999122619632 16.944999694824222 80.154998779296889 0.80009162425994884 20.044999122619632 20.724999427795414 0.92413881421089183 13.056640625000002 63.754999160766609 0.90709564089775097 61.734998703002937 13.056640625000002 13.57283401489258 0.91351976990699779 31.92499923706055 40.714998245239265 43.304998397827156 34.614999771118171 49.43499946594239 37.444999694824226 36.764999389648445 0.95383030176162731 34.375000000000007 76.914997100830092 71.684997558593764 78.514995574951186 39.454999923706062 71.854999542236342
decision_type=2 2 2 2 2 2 2 2 2 2 2 2 2 2 2 2 2 2 2 2 2 2 2 2 2 2 2 2 2 2 2 2 2 2 2 2 2 2 2 2 2 2 2 2 2 2 2 2 2 2 2 2 2 2 2 2 2 2 2 2 2 2 2 2 2 2 2 2 2 2 2 2 2 2 2 2 2 2 2 2 2 2 2 2 2 2 2 2 2 2 2 2 2 2 2 2 2 2 2 2 2 2 2 2 2 2 2 2 2 2 2 2 2 2 2 2 2 2 2 2 2 2 2 2 2 2 2
left_child=2 4 10 31 6 21 39 18 19 20 30 42 66 15 94 64 62 36 -5 23 46 33 67 24 -6 70 35 48 34 44 102 32 -3 122 51 45 112 90 87 50 74 -21 52 -27 -28 -7 65 -24 93 -25 -2 -29 56 -50 -55 99 57 58 60 -59 -9 75 63 -17 -14 -10 -8 -20 -69 -26 -16 -72 -73 -45 106 77 81 79 80 -62 -79 -77 98 -63 -35 -86 -68 -39 -76 -90 91 92 -38 120 -15 -43 -57 -34 -23 100 -12 -31 103 -1 105 -98 -11 -108 -58 -47 -67 -22 -13 -114 116 -116 -115 -117 119 -118 -18 -122 123 -4 -124 -120 -92
right_child=1 3 5 7 8 26 12 11 9 40 55 17 13 14 25 16 27 -19 22 41 111 82 47 49 69 43 29 28 -30 101 -32 -33 97 84 -36 -37 37 38 -40 -41 -42 95 -44 73 -46 109 -48 -49 53 -51 -52 -53 -54 54 -56 96 108 59 -60 -61 61 83 -64 -65 -66 110 86 68 -70 -71 71 72 -74 -75 88 76 -78 78 -80 -81 -82 -83 -84 -85 85 -87 -88 -89 89 -91 126 -93 -94 -95 -96 -97 104 -99 -100 -101 -102 -103 -104 -105 -106 -107 107 -109 -110 -111 -112 -113 113 114 115 117 118 -119 125 -121 121 -123 124 -125 -126 -127 -128
leaf_value=0.78556516247046604 0.72811028445061277 0.72871237199474181 0.76071132257553697 0.72558538805601092 0.7371400836334342 0.74859504751462347 0.72348690110643288 0.73091013343993994 0.73078119940313524 0.74244120109734657 0.73239628195831907 0.73275362156541091 0.73677008478217743 0.73366241895490614 0.73705201417161093 0.73753242562810095 0.74174905519434098 0.72652382249799119 0.74268131494178047 0.74576919103864947 0.74088518017074856 0.76519321247630612 0.73077816720006783 0.75249774766149924 0.74318806975733598 0.73539607214003622 0.75448064829707695 0.74509599592700759 0.72485122983569106 0.74986916352595778 0.7449137733654414 0.72120533067584214 0.72138963433591841 0.75639877741022155 0.73565693596629533 0.75118108091793134 0.73207543520533624 0.72989734832331987 0.73425091386820029 0.72611207692788649 0.75682064592443077 0.74949634256770448 0.73656613253497494 0.73082365790908999 0.76815490945872733 0.74207917849822214 0.73807122052523222 0.73700944346902797 0.74230716476675052 0.74383997099236199 0.73337651764466016 0.7506043525485917 0.72690955190339457 0.7330504124157271 0.74133823742336225 0.7302271995816132 0.73232111913425513 0.73576079278256479 0.73111230537997729 0.74538034012400711 0.73469373426175899 0.72612098410234227 0.73847858650780829 0.73028519785138779 0.7399532226799016 0.73697384892501472 0.72924083788546923 0.72925453017844188 0.73985561885763929 0.74082537017086048 0.73929454307892661 0.74500548767410635 0.73052064553728857 0.75043208308240394 0.74463421937335506 0.73365666388534712 0.73590024977510926 0.73949708281905124 0.74152170786905425 0.72693536588446428 0.73410923598433164 0.73000293011237838 0.75923284651670819 0.73463312276462045 0.7503429999141471 0.75665111267878482 0.73298819932575876 0.72719654354043817 0.73829488821909817 0.74305202593398001 0.73112967476854906 0.73181877329863787 0.73459385456650483 0.72207924817050773 0.73115417255831983 0.7580562117221773 0.73694567497219132 0.7259142562859271 0.77731145849968963 0.73931662666044906 0.74623343792511387 0.78272949915131451 0.75056946276157921 0.75666306488362089 0.73697719702345832 0.74377258343982966 0.74212174722834323 0.73875962442355059 0.73493918927983148 0.74581494122280856 0.73516755024717106 0.73852598573797967 0.72241361974194562 0.73231097646818821 0.7265721616759373 0.73689723824273501 0.73813533311370427 0.72978785346327979 0.73166021060597397 0.74949777845335008 0.74694661103553572 0.73922776543318514 0.76951946040405217 0.75404562378478757 0.75830681292260038 0.73837715496857903 0.73369391680002105
leaf_weight=301 29976 42357 21931 11255 67104 69685 5610 39521 15403 64025 1600 423187 372275 165003 144780 19669 69110 60352 48891 43519 87659 13406 13637 6518 115718 293188 9145 48845 1847 55850 37116 60253 32004 27986 5925 36449 59690 60168 31965 45386 2689 8054 118520 1022 3904 17840 111032 137526 18060 156421 33583 20453 7885 18476 11640 4882 133017 215317 64907 6620 52725 10855 45095 18305 43129 104212 29355 3893 44775 118684 194305 1925 8059 3595 60748 62056 158297 19399 28882 7429 32874 43978 8458 6154 28416 13381 55642 86639 17261 46627 196988 173784 130106 605 52017 5830 10273 19017 1843 49532 9976 218 12123 5017 137234 10607 32714 53866 40437 87535 161478 63949 2192 21230 12674 23289 16214 9792 9012 4953 16061 4234 3871 14505 4560 8537 35234
leaf_count=301 29976 42357 21931 11255 67104 69685 5610 39521 15403 64025 1600 423187 372275 165003 144780 19669 69110 60352 48891 43519 87659 13406 13637 6518 115718 293188 9145 48845 1847 55850 37116 60253 32004 27986 5925 36449 59690 60168 31965 45386 2689 8054 118520 1022 3904 17840 111032 137526 18060 156421 33583 20453 7885 18476 11640 4882 133017 215317 64907 6620 52725 10855 45095 18305 43129 104212 29355 3893 44775 118684 194305 1925 8059 3595 60748 62056 158297 19399 28882 7429 32874 43978 8458 6154 28416 13381 55642 86639 17261 46627 196988 173784 130106 605 52017 5830 10273 19017 1843 49532 9976 218 12123 5017 137234 10607 32714 53866 40437 87535 161478 63949 2192 21230 12674 23289 16214 9792 9012 4953 16061 4234 3871 14505 4560 8537 35234
internal_value=0.736846 0.735681 0.746774 0.732997 0.738114 0.751351 0.736395 0.73352 0.740387 0.738941 0.739893 0.733078 0.736885 0.737212 0.735997 0.738683 0.740886 0.731973 0.737629 0.742663 0.737299 0.75735 0.738174 0.742061 0.740912 0.736982 0.748394 0.742598 0.745347 0.751616 0.747475 0.723896 0.725633 0.755973 0.74585 0.747341 0.732225 0.731649 0.729367 0.728901 0.742153 0.74754 0.734516 0.735562 0.758572 0.746541 0.736297 0.736447 0.741065 0.744186 0.730893 0.746722 0.734255 0.738523 0.736254 0.738047 0.734318 0.734639 0.734046 0.736048 0.734458 0.734789 0.736449 0.734039 0.737101 0.735597 0.731186 0.740849 0.739008 0.741992 0.738193 0.739002 0.733313 0.746092 0.74201 0.735024 0.734392 0.736205 0.738035 0.733736 0.736109 0.732141 0.764009 0.729201 0.753981 0.752362 0.731694 0.728303 0.743164 0.741767 0.732334 0.732854 0.733802 0.742426 0.733061 0.753091 0.737215 0.723076 0.766658 0.740265 0.744321 0.749997 0.752926 0.758299 0.737431 0.740414 0.741055 0.74003 0.732931 0.745182 0.735876 0.73989 0.733065 0.734287 0.734533 0.732516 0.736072 0.734793 0.738135 0.740794 0.742563 0.745336 0.759072 0.758058 0.763455 0.734928 0.731519
internal_weight=6.64682e+06 5.94917e+06 697644 2.82849e+06 3.12069e+06 418983 1.77718e+06 2.67486e+06 1.34351e+06 821663 278661 2.41488e+06 1.66823e+06 1.57762e+06 863894 713729 298325 1.36601e+06 259977 521848 543733 138357 248722 464445 301506 646874 280626 215256 77070 69117 54557 153631 93378 114650 75223 211509 1.30565e+06 774574 178772 108945 277930 57403 1.04887e+06 297805 13049 175060 392125 151163 138186 162939 63559 69298 930353 48176 30116 224104 922468 749014 527077 221937 462170 422649 83069 37974 415404 281093 90607 97559 48668 234402 349069 204289 9984 4617 275241 405640 264331 141309 81155 60154 52273 106034 23707 17009 69783 41797 84997 146807 124636 63888 595802 363580 189796 90010 217020 13884 162996 51021 15249 61108 11576 56068 17441 5318 158114 20880 150605 86580 173454 105375 265690 151608 531080 107893 105701 45755 59946 33081 38716 21167 89405 20295 44867 36436 8431 17549 232222
internal_count=6646817 5949173 697644 2828487 3120686 418983 1777175 2674856 1343511 821663 278661 2414879 1668230 1577623 863894 713729 298325 1366006 259977 521848 543733 138357 248722 464445 301506 646874 280626 215256 77070 69117 54557 153631 93378 114650 75223 211509 1305654 774574 178772 108945 277930 57403 1048873 297805 13049 175060 392125 151163 138186 162939 63559 69298 930353 48176 30116 224104 922468 749014 527077 221937 462170 422649 83069 37974 415404 281093 90607 97559 48668 234402 349069 204289 9984 4617 275241 405640 264331 141309 81155 60154 52273 106034 23707 17009 69783 41797 84997 146807 124636 63888 595802 363580 189796 90010 217020 13884 162996 51021 15249 61108 11576 56068 17441 5318 158114 20880 150605 86580 173454 105375 265690 151608 531080 107893 105701 45755 59946 33081 38716 21167 89405 20295 44867 36436 8431 17549 232222
is_linear=0
shrinkage=1


Tree=1
num_leaves=128
num_cat=0
split_feature=0 0 2 2 2 0 0 2 2 1 0 1 0 1 1 2 2 2 1 2 1 2 2 1 0 1 2 1 0 1 2 2 2 2 1 1 2 2 2 1 2 2 1 2 2 2 2 1 2 2 2 2 2 2 2 2 0 2 1 2 1 2 2 2 1 2 1 2 2 2 2 0 0 2 2 2 0 0 1 1 0 2 2 2 2 2 1 0 2 1 2 2 2 2 1 2 2 1 2 0 2 0 2 0 1 2 2 1 2 2 2 2 1 0 2 1 2 1 1 2 2 2 1 2 2 0 1
split_gain=27814.2 14797.6 6902.02 6098.96 4389.98 2798.44 2637.45 1597.75 1410.26 1177.62 991.022 811.75 766.607 719.396 717 708.701 1322.09 641.543 553.009 471.347 442.448 414.743 412.761 406.304 382.467 374.008 344.927 399.969 315.778 310.41 319.161 290.809 289.525 267.44 258.542 253.046 362.916 255.93 248.175 243.086 247.805 285.349 241.888 239.449 237.07 227.015 213.803 198.105 181.173 234.752 403.49 175.241 161.685 151.754 146.966 208.053 130.52 129.828 127.635 218.974 126.217 123.102 121.071 120.776 119.731 119.364 118.989 114.61 714.16 172.893 149.232 113.78 111.425 104.8 102.071 101.97 100.096 97.9449 97.4511 96.9907 96.7847 96.0868 146.45 350.292 107.128 200.265 95.1898 94.6761 131.873 113.322 93.7786 414.574 248.6 246.308 211.941 177.55 117.186 92.9704 92.7934 88.8217 87.8264 87.031 86.0509 193.454 85.5238 85.0972 111.321 121.589 85.0176 115.514 97.2446 84.2713 82.7359 82.5954 81.2563 80.78 80.6727 79.3161 79.0522 78.8846 104.56 85.2539 78.1813 127.264 85.3746 78.0682 77.8036
threshold=13.910156250000002 7.3652343750000009 57.814998626708991 24.07499980926514 56.824998855590827 17.832031250000004 9.7050781250000018 31.274998664855961 16.944999694824222 0.89278912544250499 6.1888034343719491 0.8975992500782014 5.4902343750000009 0.96310943365097057 0.90331554412841808 39.054998397827156 29.014999389648441 63.144998550415046 0.70475494861602794 78.154998779296889 0.64185497164726268 37.444999694824226 76.354999542236342 0.8449797034263612 11.820944786071779 0.89861041307449352 58.924999237060554 0.96926000714302074 20.925781250000004 0.89185380935668956 59.144998550415046 62.694997787475593 52.664999008178718 69.204998016357436 0.89663168787956249 0.79726803302764904 40.714998245239265 72.354999542236342 64.734996795654311 0.65639224648475658 32.704999923706062 72.354999542236342 0.85241752862930309 15.584999561309816 59.38499832153321 20.044999122619632 61.904998779296882 0.98241847753524791 56.824998855590827 53.144998550415046 45.114999771118171 72.184997558593764 76.354999542236342 21.914999961853031 20.044999122619632 16.944999694824222 5.1503906250000009 67.614997863769545 0.88415840268135082 34.614999771118171 0.94809430837631237 21.124999046325687 62.694997787475593 48.444999694824226 0.92841249704360973 61.734998703002937 0.83631613850593578 39.664999008178718 45.114999771118171 37.88499832153321 53.144998550415046 6.3755486011505136 8.5996093750000018 25.82499980926514 29.604998588562015 11.074999809265138 4.7021484375000009 15.285156250000002 0.95147261023521434 0.80566352605819713 9.4941406250000018 66.614997863769545 45.114999771118171 39.664999008178718 54.914999008178718 59.784997940063484 0.75012150406837474 9.2207031250000018 10.63499975204468 0.90046629309654247 38.844999313354499 35.704999923706062 44.674999237060554 30.93499851226807 0.94705903530120861 29.604998588562015 48.804998397827156 0.80297696590423595 25.82499980926514 20.589843750000004 48.444999694824226 18.531843185424808 26.864998817443851 9.0796980857849139 0.96310943365097057 43.304998397827156 54.604999542236335 0.89949399232864391 76.354999542236342 68.514999389648452 60.974998474121101 45.624998092651374 0.97714716196060192 15.097476959228517 68.154998779296889 0.78491923213005077 71.034999847412124 0.91078895330429088 0.97296744585037243 37.664999008178718 39.454999923706062 36.764999389648445 0.92494845390319835 66.614997863769545 76.075000762939467 11.000627517700197 0.9400630295276643
decision_type=2 2 2 2 2 2 2 2 2 2 2 2 2 2 2 2 2 2 2 2 2 2 2 2 2 2 2 2 2 2 2 2 2 2 2 2 2 2 2 2 2 2 2 2 2 2 2 2 2 2 2 2 2 2 2 2 2 2 2 2 2 2 2 2 2 2 2 2 2 2 2 2 2 2 2 2 2 2 2 2 2 2 2 2 2 2 2 2 2 2 2 2 2 2 2 2 2 2 2 2 2 2 2 2 2 2 2 2 2 2 2 2 2 2 2 2 2 2 2 2 2 2 2 2 2 2 2
left_child=1 4 8 42 12 14 22 20 87 17 25 18 75 28 39 16 102 66 53 122 -7 47 29 74 52 56 27 32 -9 46 60 104 73 77 108 57 58 38 105 44 -41 81 43 -2 -5 -20 -4 -18 49 50 -17 -26 -19 -10 55 -14 -6 -30 -37 -60 -31 -45 -27 -15 -50 78 -8 69 -69 -47 -70 -56 114 -16 -22 -1 -77 -33 -36 -24 -23 82 83 86 -84 -86 -42 -3 89 -89 91 93 -92 95 -95 -75 -94 -76 -25 -65 -29 -44 103 -13 -28 -38 -107 -108 109 110 -12 -55 -52 -35 -48 -71 -40 -105 -82 121 -121 -61 -11 -124 -125 -104 -57
right_child=3 2 6 5 10 7 9 13 11 19 34 15 54 63 26 48 21 24 45 -21 23 80 79 98 51 62 31 100 35 30 -32 33 -34 113 65 36 37 -39 116 40 41 -43 101 61 -46 67 72 -49 64 -51 112 -53 -54 111 71 126 -58 -59 59 119 -62 -63 -64 99 -66 -67 -68 68 70 115 -72 -73 -74 90 97 76 -78 -79 -80 -81 118 -83 84 -85 85 -87 -88 88 -90 -91 92 -93 96 94 -96 -97 -98 -99 -100 -101 -102 -103 125 117 -106 106 107 -109 -110 -111 -112 -113 -114 -115 -116 -117 -118 -119 -120 120 -122 -123 123 124 -126 -127 -128
leaf_value=-0.0065512509248494459 -0.0078306153371184902 -0.0037530947966596274 0.0031795966015229753 -0.0072218167308961984 0.021734179304861743 -0.011489909130767247 -0.0024395516679261839 -0.0032539303011477174 -0.012867787880816002 0.0043250782863869641 0.0099876992238530689 0.0026054754114020213 -0.0043523046663694522 -0.011031623732076015 -0.010330069874550695 -0.0016600748985231837 0.0053853879441249702 0.0037822821744095628 -0.010152486652617594 0.020822084535286559 0.0048675654319581445 -0.00066136514931188395 0.010475033886229604 -0.0059274835167054648 5.6877075064778149e-05 0.029474915787530698 0.0045335875869930735 -0.0095226473045241303 -0.0032956145126501568 0.01537420788555223 0.0091642635740575122 0.00089747573916208767 -0.0047527149860787394 0.0049081454430792686 0.019377290142073129 -0.0049919366690208515 -0.0081632977970694572 -0.0020162762176348203 -0.0093329284929239125 0.00067506439461469201 -0.0040038547092786725 0.0010312023869284673 -0.012335483157589439 -0.014697705543821646 -0.0024061263145193509 0.00010080531485439852 0.010387721472921791 -0.01223421720674351 0.0012685661858958092 -0.0032858998158985147 0.0036804779915173579 0.003150823534237312 0.007560418830176505 -0.0052157098947225502 0.0054002842041499417 0.0058557976230730899 0.017625320079340742 -0.0051169630733655241 -0.0053889226300099088 0.00078060331153972354 0.028604185854402983 -0.010189691615908734 0.021429003562693991 -0.0030213785903697183 0.011211392568964473 0.015396099712426673 0.00062978708289795839 -0.0043598290819560686 0.0011580455266173785 -0.0028673794200846075 -0.0007382103941220566 0.0015651402569150576 0.0062183230844448352 0.00098584522942104656 -0.0060610038830756054 0.018242017441301599 0.011573239649868214 -0.0030009204339787629 0.029975755407470508 0.0147721109094837 0.01242611017945083 -0.0034708507746252777 -0.00011843127082207029 -0.0054490216166164429 -0.0039207712480357013 -0.00084474547170646842 -0.00039672969450846491 -0.010710126285455198 -0.0097711791185074899 -0.0018818046666012299 -0.0037839518801437814 0.0069429936929569433 0.004776035563327832 -0.00052135640124937601 -0.0085787505610617765 0.0087215000056645349 -0.00032916705973748585 0.003295667770524788 -0.00044052137443450275 -0.0090136765610695797 -0.0018657233565978959 -0.015806304845568938 -0.0023294744540441523 0.00079143291132136549 0.0097625041799075125 -0.0040090500669903153 -0.0052705180579939101 -0.0082636223426532998 0.015753143805485807 0.010129555629537781 0.015445032785660546 -0.0016320798694587923 -0.0021267412598989172 0.0016676974794614559 0.0073755231463579624 0.0042719409361056627 -0.0052328241682699367 -0.0047749464307442341 -0.010552937301483356 -0.0053382310794840675 0.001500064206184928 0.0079104806071617385 0.007132386669522657 0.0045042194746921643 0.011158600518740548 0.002527590489845204 0.012448059389051379
leaf_weight=628 47014 16995 36077 34874 29481 7036 75279 637477 5201 108184 11343 16037 3171 41930 2123 97333 130803 168224 5754 5051 61899 1552 27945 8536 114211 13024 42446 13953 327663 6525 90425 29373 27435 34768 9792 45305 32598 34314 81265 125674 22965 83610 32938 32271 95652 308825 38339 1615 6574 54124 70697 76370 34049 49695 28891 8032 56117 139495 24056 14896 2491 28534 7294 10078 5613 18276 54390 104257 220900 4429 195650 58496 99947 45018 4327 8539 16499 35688 2786 24773 30015 103084 136614 80479 79591 157863 89840 5150 35933 12356 33360 28856 19900 26811 11733 8881 25832 6870 79184 16005 5119 39989 12274 7755 9586 86813 103996 50362 18928 40153 29116 24489 6716 45268 53815 37588 14075 36617 379 9900 12840 5835 115165 111919 5037 25380 10109
leaf_count=628 47014 16995 36077 34874 29481 7036 75279 637477 5201 108184 11343 16037 3171 41930 2123 97333 130803 168224 5754 5051 61899 1552 27945 8536 114211 13024 42446 13953 327663 6525 90425 29373 27435 34768 9792 45305 32598 34314 81265 125674 22965 83610 32938 32271 95652 308825 38339 1615 6574 54124 70697 76370 34049 49695 28891 8032 56117 139495 24056 14896 2491 28534 7294 10078 5613 18276 54390 104257 220900 4429 195650 58496 99947 45018 4327 8539 16499 35688 2786 24773 30015 103084 136614 80479 79591 157863 89840 5150 35933 12356 33360 28856 19900 26811 11733 8881 25832 6870 79184 16005 5119 39989 12274 7755 9586 86813 103996 50362 18928 40153 29116 24489 6716 45268 53815 37588 14075 36617 379 9900 12840 5835 115165 111919 5037 25380 10109
internal_value=1.00971e-06 0.00340848 0.0021568 -0.00307068 0.0127923 -0.00258275 0.00491623 -0.00386973 -9.33931e-05 0.00339473 0.0168953 0.000239916 0.00557619 -0.00433212 -0.000941992 0.00186501 0.00366291 0.00189738 -0.000615248 0.00566022 0.000782776 0.00640414 0.0083881 0.00131973 0.00290393 0.020488 0.000727417 -0.000509529 -0.00412073 0.00772736 0.0100587 0.00228997 6.75664e-05 0.00113996 0.0139771 -0.00468262 -0.00544558 -0.00614667 -0.00653065 -0.00167925 -0.00138049 -0.00172308 -0.0120146 -0.0105103 -0.00369278 -0.000253673 0.00671135 0.0051705 -9.22664e-05 -0.000408575 0.000482618 0.00129669 0.00441826 -0.00461155 0.00374101 0.00746387 0.0190405 -0.00383948 -0.00293886 -0.00156142 0.0190295 -0.0125822 0.0265865 -0.00936982 0.00584796 0.0179761 -0.00115211 -0.000188328 -0.000658903 0.000510216 0.00026739 0.00283308 0.00737462 0.00072058 0.0040729 0.0133484 0.0138476 -0.00124092 0.0217248 0.0124943 0.0115177 -0.00206657 -0.00181142 -0.00292897 -0.00123398 -0.00187578 -0.00113107 -0.00700372 -0.00803751 -0.00447896 0.000837654 0.00171107 -0.000501853 7.79275e-05 -0.00297407 0.00226046 0.00189233 -0.000320151 -0.000974456 -0.00669836 -0.0074675 -0.0142387 -0.00093169 -0.00210106 0.00549693 -0.00576555 -0.00544146 -0.00624707 0.0127375 0.0120295 0.013915 -0.00403271 0.00317667 0.00307536 0.00862869 0.00351939 -0.00872763 -0.0038021 0.0121396 0.000556644 -0.00147703 0.0027874 0.00543518 0.00595256 0.00479081 0.000944343 0.00952931
internal_weight=6.64349e+06 3.1496e+06 2.77892e+06 3.4939e+06 370675 3.31315e+06 1.24822e+06 1.85676e+06 1.53071e+06 867879 236310 1.46027e+06 134365 1.6889e+06 1.4564e+06 503484 262427 522523 956788 345356 167852 164364 380337 160816 392854 105916 446150 249021 1.62089e+06 327619 99441 197129 229949 145097 130394 983413 516255 403423 369109 1.01025e+06 879720 754046 180746 107819 130526 877403 228178 132418 241057 228870 174746 190581 202273 79385 108699 21312 85598 467158 112832 67527 9016 60805 20318 68013 12187 30854 129669 871649 520807 350842 416550 87387 192101 202514 73096 25666 25038 65061 12578 52718 31946 670436 567352 193284 374068 237454 112805 70434 53439 17506 200391 121299 79092 92443 38544 53899 45732 11197 87720 26083 19072 72927 98063 60409 52032 273769 241171 154358 99540 80612 40459 74184 77413 80036 92154 42017 95340 44372 30394 43471 22740 20731 340305 232121 116956 37654 18141
internal_count=6643494 3149597 2778922 3493897 370675 3313151 1248216 1856755 1530706 867879 236310 1460272 134365 1688903 1456396 503484 262427 522523 956788 345356 167852 164364 380337 160816 392854 105916 446150 249021 1620890 327619 99441 197129 229949 145097 130394 983413 516255 403423 369109 1010246 879720 754046 180746 107819 130526 877403 228178 132418 241057 228870 174746 190581 202273 79385 108699 21312 85598 467158 112832 67527 9016 60805 20318 68013 12187 30854 129669 871649 520807 350842 416550 87387 192101 202514 73096 25666 25038 65061 12578 52718 31946 670436 567352 193284 374068 237454 112805 70434 53439 17506 200391 121299 79092 92443 38544 53899 45732 11197 87720 26083 19072 72927 98063 60409 52032 273769 241171 154358 99540 80612 40459 74184 77413 80036 92154 42017 95340 44372 30394 43471 22740 20731 340305 232121 116956 37654 18141
is_linear=0
shrinkage=0.05


Tree=2
num_leaves=128
num_cat=0
split_feature=0 0 2 2 2 0 2 2 0 0 1 0 1 1 2 2 2 1 1 2 1 2 2 1 1 1 2 0 2 1 2 2 2 2 2 2 1 2 2 0 0 1 0 2 2 2 1 2 0 2 2 1 1 2 2 1 1 2 2 2 1 1 1 1 0 2 2 2 1 2 1 1 2 2 1 0 2 2 1 1 2 2 2 2 2 2 1 2 2 2 2 2 2 2 2 2 2 1 2 1 2 2 2 2 2 2 2 2 0 2 2 0 2 1 2 0 2 0 0 1 2 2 0 2 1 1 1
split_gain=25227 12461.9 7470.13 4464.73 3858.94 2553.42 2130.22 1580.61 1302.51 1286.37 1270.55 1192.03 1239.22 738.749 662.08 838.763 750.802 620.302 549.352 445.303 443.226 443.024 412.637 389.596 316.538 304.194 291.776 287.545 234.759 230.428 236.54 218.284 762.667 289.831 210.435 209.663 401.549 324.47 199.648 199.497 195.611 189.791 180.114 177.632 338.4 169.692 168.813 246.508 164.718 161.2 160.721 205.95 152.596 151.653 147.991 144.288 157.135 145.803 245.207 247.103 194.787 189.558 141.309 141.297 135.809 131.721 312.763 214.729 174.975 134.712 134.382 131.389 130.34 130.268 123.665 122.549 122.305 134.629 122.189 121.837 120.61 112.158 110.651 109.714 102.193 98.7479 98.285 94.0461 92.1581 90.2598 88.6867 164.183 97.9104 87.0389 180.905 94.1692 85.3298 92.2064 83.1282 80.7403 86.8046 80.7297 79.7004 90.4948 79.1696 108.938 76.6125 76.0209 76.3091 75.6478 75.4125 73.7183 73.1234 71.6367 80.8659 67.9094 67.7988 67.6958 66.6187 66.4013 65.7743 69.9747 64.1505 63.4025 63.2706 63.0273 62.4618
threshold=8.6843519210815447 15.285156250000002 57.04499816894532 24.07499980926514 59.954998016357429 6.695763587951661 20.044999122619632 30.93499851226807 19.191406250000004 5.9863281250000009 0.90424343943595897 11.000627517700197 0.89949399232864391 0.6953236758708955 39.054998397827156 35.704999923706062 56.824998855590827 0.96310943365097057 0.64673161506652843 27.184999465942386 0.89861041307449352 72.184997558593764 76.354999542236342 0.82366463541984569 0.97296744585037243 0.93015199899673473 59.584999084472663 5.7597656250000009 76.354999542236342 0.85241752862930309 15.584999561309816 39.664999008178718 45.114999771118171 54.914999008178718 78.154998779296889 54.754999160766609 0.88605600595474254 70.24499893188478 72.354999542236342 11.425781250000002 6.9806818962097177 0.91881313920021068 5.1503906250000009 53.144998550415046 44.674999237060554 29.604998588562015 0.8870455026626588 63.144998550415046 7.6096274852752694 37.88499832153321 34.375000000000007 0.93816208839416515 0.86174878478050243 25.82499980926514 62.694997787475593 0.7296583652496339 0.98241847753524791 65.224998474121108 59.584999084472663 55.914999008178718 0.96310943365097057 0.96022161841392528 0.96163180470466625 0.93909019231796276 12.939453125000002 38.604999542236335 44.674999237060554 35.064998626708991 0.89471018314361583 41.474998474121101 0.94097086787223827 0.94395297765731823 37.444999694824226 29.604998588562015 0.79275777935981762 11.820944786071779 63.894998550415046 58.924999237060554 0.92494845390319835 0.97714716196060192 46.224998474121101 36.224998474121101 44.674999237060554 42.164999008178718 66.614997863769545 13.35499954223633 0.96611544489860546 67.794998168945327 58.924999237060554 43.584999084472663 76.634998321533217 72.024997711181655 78.514995574951186 58.924999237060554 67.434997558593764 76.634998321533217 20.724999427795414 0.92413881421089183 21.524999618530277 0.8199203908443452 20.724999427795414 68.514999389648452 20.044999122619632 16.944999694824222 68.33499908447267 76.354999542236342 74.224998474121108 29.314999580383304 20.019531250000004 78.514995574951186 76.914997100830092 13.113281250000002 21.524999618530277 0.83188045024871837 65.404998779296889 10.392578125000002 54.284997940063484 10.205078125000002 12.939453125000002 0.87430697679519664 45.114999771118171 51.354999542236335 5.9863281250000009 63.144998550415046 0.85863673686981212 0.62475433945655834 0.88605600595474254
decision_type=2 2 2 2 2 2 2 2 2 2 2 2 2 2 2 2 2 2 2 2 2 2 2 2 2 2 2 2 2 2 2 2 2 2 2 2 2 2 2 2 2 2 2 2 2 2 2 2 2 2 2 2 2 2 2 2 2 2 2 2 2 2 2 2 2 2 2 2 2 2 2 2 2 2 2 2 2 2 2 2 2 2 2 2 2 2 2 2 2 2 2 2 2 2 2 2 2 2 2 2 2 2 2 2 2 2 2 2 2 2 2 2 2 2 2 2 2 2 2 2 2 2 2 2 2 2 2
left_child=2 4 9 29 6 20 41 18 38 42 13 22 21 83 15 19 43 35 -5 78 27 64 46 45 72 28 88 90 48 30 125 49 -33 -34 63 -10 93 76 55 71 102 -2 99 44 -16 -20 47 -6 101 -15 51 73 -24 119 86 89 57 58 59 61 -60 65 -52 118 123 67 69 70 81 -67 -57 -18 -17 -21 -51 -43 77 -38 -12 -46 -81 -69 -63 112 -65 -42 122 -86 -27 -9 91 -4 -92 -37 113 -96 97 -87 -32 100 -1 -7 103 -11 -29 -106 -93 -55 -109 -54 -39 -23 -8 -95 -115 -35 -68 -64 -14 -25 -98 126 -22 -13 -118 -3 -122
right_child=1 3 5 7 11 25 10 8 17 40 14 12 34 31 16 24 39 -19 23 50 54 111 52 53 -26 26 -28 104 -30 -31 98 32 33 115 -36 36 37 110 -40 -41 85 75 -44 -45 79 -47 -48 -49 -50 74 62 -53 109 107 -56 56 -58 -59 60 -61 -62 82 117 84 -66 66 116 68 -70 -71 -72 -73 -74 -75 -76 -77 -78 -79 -80 80 -82 -83 -84 -85 87 96 -88 -89 -90 -91 92 106 -94 94 95 -97 120 -99 -100 -101 -102 -103 -104 -105 105 -107 -108 108 -110 -111 -112 -113 -114 114 -116 -117 124 -119 -120 -121 121 -123 -124 -125 -126 -127 -128
leaf_value=0.040408224691735863 -0.0091405564788137727 -0.012695639283410557 0.020590076757478454 -0.010315874074233981 0.00077002700917379752 0.011944630703014061 -0.014583459518970283 -0.0055736439273235822 -0.0034006048026262985 -0.0039477770105921569 2.2136275479711928e-05 -0.00070791361702363543 0.004481994570564452 5.6658254122267763e-05 -0.0023451330135594111 0.0069149125367493642 0.0074757334060340623 -0.009528098364226821 0.0048922457882999452 0.0001643038399575607 0.027961451692775221 0.0039391391173818971 0.0082501716749829607 -0.0011090479855632967 -0.011042403135743757 0.020346695124227515 0.012100568335973838 0.016709620156130464 0.013073394722064339 -0.014072628424229752 -0.013949655285806238 -0.0044559485521498713 0.00063542580506871027 -0.00020161378296008607 0.01585554166837759 -0.0054847820275177846 -0.0088111197234579924 -0.0039958501232707326 -0.00017534196790811873 0.003422651172507324 -0.0061823257615008648 -0.0030646162584681042 0.0078751681320870012 -0.0035912191250203891 0.0027097409535031384 -0.0033643649174626374 0.0064190857833897001 0.0049452913438277728 0.0076747866572134437 -0.0025344253855682209 0.0010638943689948899 0.0063950575157072399 0.011437129272929603 -0.00033625505736725741 0.019175279758170016 -0.0015519092834170836 -0.0088623569109051916 -0.0033788533062792561 -0.00025313746958960007 -0.0052085094271334788 0.0083163632287234189 -0.009374510702790901 0.0049309049841276438 0.0068182436914769875 -0.001143107049356593 -0.0027651148635344722 -0.00017997023857176315 0.0026188878091180489 0.0044630875177770922 -0.0064228000646259706 -0.0083053187235433198 0.016380987400806363 0.011047298241050618 0.0045613211989830281 0.0040057090518807424 -0.0083655939199149005 -0.0095634745885535364 -0.0047624418601470882 -0.0063050821413687223 0.0081256854694038722 -0.005936487723955268 -0.0022730010416687576 -0.0015328079198825965 -0.0030457902274529155 -0.00031509324301816073 0.00019420773481207586 0.038941480553263734 0.0048607399940877125 0.033742583601678595 -0.0029579902359570961 0.027778240131211964 0.0095412249410980823 0.018644891182010109 -0.0023762507595560946 -0.0051480613731862482 -0.0024386268826248488 -0.00089985835897622669 0.0064001131673095514 -0.0098136592326346066 0.011809208976363075 0.01728947012931013 0.0088081353158445449 0.0027611395885885877 0.0089735758430046636 0.011374119128450733 0.016967554466871267 0.016792554700483953 0.0038627079198170289 -0.00033288282385020572 0.019431414718134962 0.0010256955372593348 0.0017618752004729293 -0.0062168765806971324 -0.0035155924713142226 -0.0083427628650812723 -0.0025187894587197193 -0.00078366464263182546 -0.013697204880249112 0.0021966369125533294 -0.0074521789462063783 0.0019002432550182529 0.00018433779140520102 0.021851814880870873 0.0014880978628340237 -0.0047190279479815576 -0.0066764763078918741 0.0076628412675504524
leaf_weight=436 57587 4916 29684 10674 43801 46289 2756 42767 538157 1556 14102 47065 57403 392766 83148 42276 12181 56090 71635 36383 9623 82712 35482 7451 2068 5762 26287 25497 38801 60968 32396 129709 354111 42872 4127 90862 37536 26824 123719 21571 5540 31658 27315 44231 80804 6815 126498 183245 123310 8592 24221 51495 7186 104134 12099 55727 8281 143330 144979 58571 6949 12512 602 73376 199702 58893 117857 19099 29911 43965 8488 6276 34780 31367 45528 16630 59794 45329 16627 1892 7857 30315 7024 35106 9534 11683 1414 110458 1652 144149 5914 5502 5824 190539 216032 37660 74921 12273 19438 11120 5906 36846 48551 10491 27451 12747 10778 26226 18470 5031 10366 73357 49830 50425 10479 120467 22979 2569 71741 9245 18389 56569 7762 108965 18385 37712 6318
leaf_count=436 57587 4916 29684 10674 43801 46289 2756 42767 538157 1556 14102 47065 57403 392766 83148 42276 12181 56090 71635 36383 9623 82712 35482 7451 2068 5762 26287 25497 38801 60968 32396 129709 354111 42872 4127 90862 37536 26824 123719 21571 5540 31658 27315 44231 80804 6815 126498 183245 123310 8592 24221 51495 7186 104134 12099 55727 8281 143330 144979 58571 6949 12512 602 73376 199702 58893 117857 19099 29911 43965 8488 6276 34780 31367 45528 16630 59794 45329 16627 1892 7857 30315 7024 35106 9534 11683 1414 110458 1652 144149 5914 5502 5824 190539 216032 37660 74921 12273 19438 11120 5906 36846 48551 10491 27451 12747 10778 26226 18470 5031 10366 73357 49830 50425 10479 120467 22979 2569 71741 9245 18389 56569 7762 108965 18385 37712 6318
internal_value=2.02509e-06 -0.00107566 0.00881 -0.00343407 0.00115584 0.012972 -0.000321267 -0.00296353 -0.00335051 0.00261502 0.000108227 0.00330304 0.00223047 -0.000794673 0.00218227 0.00398112 0.000393671 -0.00437875 0.00078695 0.00207138 0.0181332 0.000694824 0.00554429 0.0012727 0.00826202 0.0101172 0.0145713 0.0167922 0.0095051 -0.0116763 -0.0101296 -0.000440741 -0.00102763 -0.000168255 0.00463663 -0.00415895 -0.00468496 -0.00675568 -0.00206735 0.00668779 0.00119773 -0.00720205 0.0104107 -0.000762383 -4.20516e-05 0.00417499 0.00495534 0.00413981 0.00883445 0.000409164 0.00321825 0.00401163 0.00990963 -0.00010282 0.0234886 -0.00230763 -0.00201113 -0.0019383 -0.00161347 -0.00216383 0.000138821 -0.00174438 -0.000235511 0.00449307 -0.000279559 -0.00151268 -0.0021795 -0.000295188 0.00144478 -0.00432853 -0.00244458 0.0105038 0.00878011 0.00220004 0.00296741 -0.00489023 -0.00784002 -0.0065964 -0.00340143 0.00207269 -0.00320743 -0.000382238 -0.00655509 -0.00521033 0.00534835 0.000392768 0.0262647 0.00444949 0.0233316 -0.00355646 0.0193676 0.018377 0.0232466 -0.0040601 -0.00380384 -0.00474585 0.000594963 0.00337358 -0.0123986 0.0143768 0.0188788 0.0105545 0.0036644 0.00730464 0.0145302 0.0131478 0.0143419 0.000404081 0.00212894 0.0147292 -0.00259619 0.00291576 -0.00665536 -0.00285339 -0.00434614 -0.00191059 -0.000791214 -0.0101607 0.00321245 -0.0046214 0.000168806 0.00115391 0.0252336 0.000825691 -0.00253281 -0.00737063 0.00337384
internal_weight=6.64413e+06 5.91982e+06 724310 2.87807e+06 3.04174e+06 433242 1.80206e+06 2.72264e+06 2.46799e+06 291068 1.69619e+06 1.23968e+06 838440 1.18174e+06 514450 256490 257960 1.37009e+06 254650 177366 154295 511801 401243 243976 79124 278947 33701 123397 245246 155430 94462 1.09404e+06 647159 517450 326639 1.314e+06 775846 179849 1.0979e+06 40028 246291 105875 44777 217932 173701 78450 353544 227046 206445 446886 146637 119245 47699 165526 30898 974181 787265 778984 635654 483726 151928 425155 27392 322512 355732 405619 262079 143540 79325 102858 64215 18457 77056 67750 54120 48288 142659 82865 30729 90553 9749 49414 19536 87692 193368 185693 18799 119992 7414 186916 57702 45964 11738 595997 505135 253692 180153 23956 51834 17462 6342 83135 60598 12047 65695 40198 16280 148830 44696 12217 37190 156069 52586 251443 60904 163339 159221 3171 129144 16696 156197 81276 17385 156030 41364 42628 24707
internal_count=6644128 5919818 724310 2878073 3041745 433242 1802062 2722643 2467993 291068 1696187 1239683 838440 1181737 514450 256490 257960 1370093 254650 177366 154295 511801 401243 243976 79124 278947 33701 123397 245246 155430 94462 1094045 647159 517450 326639 1314003 775846 179849 1097900 40028 246291 105875 44777 217932 173701 78450 353544 227046 206445 446886 146637 119245 47699 165526 30898 974181 787265 778984 635654 483726 151928 425155 27392 322512 355732 405619 262079 143540 79325 102858 64215 18457 77056 67750 54120 48288 142659 82865 30729 90553 9749 49414 19536 87692 193368 185693 18799 119992 7414 186916 57702 45964 11738 595997 505135 253692 180153 23956 51834 17462 6342 83135 60598 12047 65695 40198 16280 148830 44696 12217 37190 156069 52586 251443 60904 163339 159221 3171 129144 16696 156197 81276 17385 156030 41364 42628 24707
is_linear=0
shrinkage=0.05


Tree=3
num_leaves=128
num_cat=0
split_feature=0 0 2 2 2 0 0 2 2 1 0 1 1 0 1 2 2 2 1 2 1 1 2 2 1 0 2 1 0 2 2 2 1 2 1 1 1 2 2 2 2 2 2 1 2 2 2 1 2 2 2 2 2 2 2 1 2 1 0 2 2 2 1 2 2 0 2 2 1 2 2 2 2 2 0 2 2 2 2 2 2 2 2 1 2 2 0 2 0 2 1 1 2 1 2 0 2 2 2 1 2 1 2 0 2 1 0 2 2 2 1 1 2 2 2 1 2 0 2 2 2 2 1 1 2 1 2
split_gain=22800.9 11995.8 5603.18 5075.51 3581.25 2397.33 2101.45 1308.01 1116.31 944.372 811.71 648.269 645.952 630.604 587.081 567.954 1071.87 552.173 441.458 420.626 357.271 347.055 320.653 319.856 334.539 315.848 307.81 303.67 257.116 249.375 247.38 239.304 237.971 251.976 230.337 209.289 208.449 282.161 219.932 207.758 255.852 206.777 198.459 198.167 201.505 189.169 167.261 163.895 152.666 150.543 222.405 333.079 133.372 220.118 170.272 127.544 135.297 124.73 124.002 123.94 113.982 144.062 108.943 107.337 106.432 103.775 100.811 162.775 100.13 95.4781 94.4675 92.6893 92.622 92.0718 88.9732 86.6572 565.23 142.199 132.707 82.0149 367.435 216.606 215.31 185.934 154.281 108.857 81.9719 79.7264 79.4708 116.375 98.0351 79.3511 75.0352 81.4243 74.9012 73.5003 78.5559 73.1166 237.75 195.106 121.987 73.54 72.4297 72.2773 70.5625 70.1224 70.0818 69.2516 94.6446 89.3367 69.16 66.6701 66.5583 128.184 69.9377 66.4126 83.4186 76.2715 106.175 66.2085 66.1641 72.0172 148.539 63.5587 62.2913 61.0627 107.749
threshold=13.800781250000002 7.3652343750000009 57.814998626708991 24.07499980926514 56.824998855590827 17.832031250000004 9.5642676353454608 31.274998664855961 16.944999694824222 0.89278912544250499 6.1888034343719491 0.8975992500782014 0.90331554412841808 5.7597656250000009 0.95882415771484386 39.054998397827156 29.014999389648441 63.004999160766609 0.68142831325531017 78.154998779296889 0.64185497164726268 0.84705108404159557 37.444999694824226 58.924999237060554 0.96926000714302074 11.532450675964357 76.354999542236342 0.89861041307449352 21.660156250000004 52.664999008178718 62.694997787475593 69.204998016357436 0.89471018314361583 59.144998550415046 0.89562135934829723 0.67348265647888195 0.79726803302764904 40.714998245239265 72.354999542236342 36.224998474121101 72.354999542236342 59.584999084472663 20.044999122619632 0.85760977864265453 15.584999561309816 64.734996795654311 61.904998779296882 0.98241847753524791 72.184997558593764 56.624998092651374 53.144998550415046 45.114999771118171 45.114999771118171 40.714998245239265 55.104999542236335 0.89861041307449352 34.614999771118171 0.94198021292686474 4.7021484375000009 76.354999542236342 20.044999122619632 16.944999694824222 0.84383413195610057 67.794998168945327 20.724999427795414 5.4902343750000009 59.784997940063484 66.614997863769545 0.94809430837631237 64.184997558593764 73.274997711181655 62.694997787475593 45.624998092651374 25.82499980926514 15.097476959228517 39.664999008178718 45.114999771118171 37.88499832153321 53.144998550415046 38.844999313354499 35.704999923706062 30.93499851226807 44.674999237060554 0.94599696993827831 29.604998588562015 48.444999694824226 9.4941406250000018 48.444999694824226 9.1548900604248065 10.63499975204468 0.90046629309654247 0.83407157659530651 29.314999580383304 0.79431617259979259 11.074999809265138 8.3378906250000018 67.974998474121108 37.664999008178718 35.064998626708991 0.88030549883842479 36.224998474121101 0.71631789207458507 25.82499980926514 18.440778732299808 71.034999847412124 0.96310943365097057 15.855468750000002 76.354999542236342 68.514999389648452 61.254999160766609 0.78325730562210094 0.95032790303230297 76.354999542236342 72.024997711181655 78.895000457763686 0.93909019231796276 32.704999923706062 12.048828125000002 36.224998474121101 74.224998474121108 76.075000762939467 66.614997863769545 0.94198021292686474 0.97714716196060192 47.104999542236335 0.89085769653320324 49.714998245239265
decision_type=2 2 2 2 2 2 2 2 2 2 2 2 2 2 2 2 2 2 2 2 2 2 2 2 2 2 2 2 2 2 2 2 2 2 2 2 2 2 2 2 2 2 2 2 2 2 2 2 2 2 2 2 2 2 2 2 2 2 2 2 2 2 2 2 2 2 2 2 2 2 2 2 2 2 2 2 2 2 2 2 2 2 2 2 2 2 2 2 2 2 2 2 2 2 2 2 2 2 2 2 2 2 2 2 2 2 2 2 2 2 2 2 2 2 2 2 2 2 2 2 2 2 2 2 2 2 2
left_child=1 4 8 43 13 12 26 20 88 17 27 18 35 58 28 16 -13 62 72 120 -7 92 47 24 29 59 32 65 97 73 105 74 46 68 107 41 63 55 45 -37 52 -5 -20 44 -2 125 -4 115 -27 50 51 -17 53 -41 -54 -38 -57 -51 -1 -19 61 -15 -8 -30 -46 112 -56 -68 -34 111 -16 -29 -10 -14 -32 77 -77 -44 -78 80 81 84 -81 -83 -75 -84 -24 -26 -3 90 -90 -79 -22 -94 -60 96 -48 98 -9 100 101 -100 -23 -45 -47 -25 -33 108 109 -12 -28 -36 113 -6 -114 -18 -117 -118 -119 -115 121 122 -11 -53 -62 -39 -127
right_child=3 2 6 5 10 7 9 14 11 19 34 15 23 60 70 49 22 25 42 -21 21 102 86 30 87 48 110 71 36 -31 31 106 33 -35 69 39 37 38 -40 40 -42 -43 75 103 64 104 95 -49 -50 57 -52 123 54 -55 66 56 -58 -59 94 -61 124 -63 -64 -65 -66 -67 67 -69 -70 -71 -72 -73 -74 79 -76 76 78 91 -80 82 -82 83 85 -85 -86 -87 -88 -89 89 -91 -92 -93 93 -95 -96 -97 -98 -99 99 -101 -102 -103 -104 -105 -106 -107 -108 -109 -110 -111 -112 -113 114 119 -116 116 117 118 -120 -121 -122 -123 -124 -125 -126 126 -128
leaf_value=0.015983978984092404 -0.007066330089112071 -0.0031365691522793242 0.0030585019319182612 -0.0060614562991157129 0.020139286616098456 -0.010371361302153959 -0.0021823653325967309 -0.0039945781152007391 -0.0060315680873695484 0.0042918291107235385 0.0089276281084884248 -0.00084140042562572267 -0.0095352956055060525 -0.0039575478543772162 -0.0084353220738005805 -0.0014764407687750066 0.0040132527072302823 0.0036418435567326032 -0.0094090070389309301 0.019379713230092833 0.0044347299027470448 -0.0053937046569552775 -0.00091321676021351649 0.0042498039879699306 -0.0086465126595504354 0.00030544413654934869 0.0094137094297930008 0.026537678819386019 -0.0029749344674974143 -0.0043189167232690158 0.001062837526030551 0.0040034445819993056 0.01411540235721309 0.008471359845143845 0.017243327580121242 0.00033202412318698274 -0.0044997487440920541 -0.0047158617413461815 -0.0015440348188706027 -0.0016541427939515138 0.0010301463361674149 -0.0020385608888999316 4.402944158754e-05 -0.011143170134150645 -0.013485649865250748 -0.0087712236186484605 0.010107874701287942 -0.011175965898917513 0.0030641910304295781 0.0016994504440023411 -0.0032882643061100097 0.0034100607144601108 -0.0001042293010573465 -0.0055962322197951851 -0.0037590418795142538 -0.004347581918894723 0.0011672661413127626 0.011628124484497772 -0.0081101344761895268 0.0070397290570534858 0.00081321549614304174 0.0083107961670414437 0.00087443128487701667 -0.0047508082844011177 -0.0093776467684199057 0.015420409404983508 -0.00067974247189114389 -0.0032377293925836474 0.026164086481519244 0.01320139169538067 -0.0014490117100652337 0.019509552742057252 -0.0015848053018054184 0.0009109250998760956 -0.0025847592810057901 -0.0038817827131198686 0.0010599707814100945 0.00055254145544295248 -0.00072626902786398031 -0.0034427497177827652 0.0063978570700875294 -0.0003997276672614167 0.0048746830759427854 -0.0077238307183567197 0.0080158396823384881 -8.9852683627464187e-05 0.010974141492045815 -0.0015086750194490731 -0.0096098943025979752 -0.0088011162619504694 -0.0014560007105230575 0.0049897034637971342 -0.0046121103610035708 0.0032541468243385639 0.0095366975625623095 0.0060505214158485358 0.0067440686902269136 -0.0032230361206718725 -0.007030522057826726 0.0052823868914684052 -0.0042889704760209644 0.0038505821208658845 -0.00050396260537969272 -0.014321207843963644 -0.0046692503385787785 0.0088948526203427754 0.00095974239747144852 0.014164943961873075 0.0090930873523457616 0.014065038308687501 0.013142783720816582 0.02487460924353278 0.026296747613384498 0.0086052985843442422 0.01765143540956329 0.0095952706721659942 0.0067863150764660611 -0.00013425905588385697 0.011409204923115554 0.01638851168375817 0.0093429640172853698 0.0040871625209140403 0.007206075924076568 -0.0017636271710432289 0.0035909383359449191 -0.0040286098237033458 -0.0075747145556298683
leaf_weight=8815 47730 15849 34350 44834 22303 6979 79018 54736 41336 99718 12087 96195 2185 2805 78389 95989 77240 159888 5883 5162 60822 8389 1525 44294 14331 125886 23530 13038 293628 28381 29176 55092 6042 78844 14208 175458 46394 142298 29064 87424 82443 111086 309842 32666 30638 69802 29131 1598 83354 9934 50855 68895 145963 59520 75439 17420 30759 4641 616 32250 40073 16286 46184 119804 32484 41481 158459 102369 2413 13477 5157 7328 16339 46555 39153 105024 221594 17157 195909 34650 30145 26933 17501 12776 9141 29917 29575 5381 5222 35960 12535 24413 5161 9073 25207 110293 42940 649328 1822 16281 17003 10510 77886 39553 12337 9950 28798 19069 40084 28217 26365 3584 5467 4116 4089 14191 23442 10656 2450 8128 8542 152060 77869 6496 40664 32674 62202
leaf_count=8815 47730 15849 34350 44834 22303 6979 79018 54736 41336 99718 12087 96195 2185 2805 78389 95989 77240 159888 5883 5162 60822 8389 1525 44294 14331 125886 23530 13038 293628 28381 29176 55092 6042 78844 14208 175458 46394 142298 29064 87424 82443 111086 309842 32666 30638 69802 29131 1598 83354 9934 50855 68895 145963 59520 75439 17420 30759 4641 616 32250 40073 16286 46184 119804 32484 41481 158459 102369 2413 13477 5157 7328 16339 46555 39153 105024 221594 17157 195909 34650 30145 26933 17501 12776 9141 29917 29575 5381 5222 35960 12535 24413 5161 9073 25207 110293 42940 649328 1822 16281 17003 10510 77886 39553 12337 9950 28798 19069 40084 28217 26365 3584 5467 4116 4089 14191 23442 10656 2450 8128 8542 152060 77869 6496 40664 32674 62202
internal_value=-2.06628e-06 0.00313382 0.00198508 -0.00273795 0.0115668 -0.00229689 0.00449597 -0.00349893 -6.25274e-05 0.00317446 0.0152689 0.000238122 -0.000815294 0.00505074 -0.00391765 0.00170455 0.00333289 0.0018442 -0.000534095 0.00521461 0.000704472 0.0011836 0.00583198 0.000735938 -0.0004382 0.00274849 0.00774433 0.0185215 -0.00370507 7.98602e-05 0.00220257 0.0011694 0.00714696 0.00935102 0.0126328 -0.00150593 -0.00429699 -0.00505062 -0.00570813 -0.00120899 -0.00158894 -0.00319532 -0.000256299 -0.0108456 -0.00951785 -0.00608714 0.00625909 0.00473771 0.00140443 -6.17317e-05 -0.00038458 0.000477054 -0.00193213 -0.0032509 -0.00153028 -0.00262858 -0.000826728 0.00486096 0.0108636 0.00421217 0.0030338 0.00650823 -0.00105479 -0.00348955 -0.0113716 0.0172157 -0.00214928 -0.00168369 0.017554 0.0163759 -0.00800408 0.0240089 -0.00477183 0.000674903 -0.00102726 -0.000194686 -0.000602992 0.000412438 0.000221796 0.000782356 0.00158581 6.5357e-05 -0.000446795 -0.00275619 0.00207701 0.00174245 0.0103912 -0.00669802 -0.00624779 -0.00716574 -0.00385391 0.00315837 0.00366994 0.000401979 0.00911574 0.00686195 0.00810371 -0.00302892 -0.00177286 0.000893046 -0.00154305 0.00224295 -0.00097942 -0.0128837 -0.00815512 0.00510185 0.00295859 0.011456 0.0108134 0.0125244 0.0113842 0.0187806 0.0189042 0.0178826 0.0225974 0.00493641 0.00634173 0.00507844 0.00202364 0.0137721 0.0049984 0.00488582 0.00556968 0.00296427 0.00221224 -0.00537096 -0.00635348
internal_weight=6.64407e+06 3.09573e+06 2.72458e+06 3.54834e+06 371142 3.36527e+06 1.22384e+06 1.85792e+06 1.50074e+06 869931 236676 1.43118e+06 1.50735e+06 134466 1.68961e+06 493682 256872 526580 937497 343351 168310 161331 160677 464359 257896 401378 353908 105950 1.60606e+06 238184 206463 152219 304013 87299 130726 1.043e+06 856382 442950 348377 887075 711617 155920 879822 183071 110852 319313 216714 129577 209240 236810 222235 171380 629174 146944 482230 94573 48179 14575 34638 192138 99828 19091 125202 413432 63122 85584 336267 260828 8455 31269 83546 20366 57675 209803 68329 873939 522527 351412 417503 207618 125550 95405 82068 39709 55696 47418 31100 19712 69566 53717 17757 41570 75056 14234 25823 182364 72071 749680 100352 45616 29335 12332 86275 72219 82139 54244 83890 99457 80388 40304 49895 17792 44103 34547 9556 127979 50739 36548 13106 12244 338189 329647 177587 75391 80737 237174 94876
internal_count=6644069 3095726 2724584 3548343 371142 3365272 1223839 1857918 1500745 869931 236676 1431179 1507354 134466 1689608 493682 256872 526580 937497 343351 168310 161331 160677 464359 257896 401378 353908 105950 1606062 238184 206463 152219 304013 87299 130726 1042995 856382 442950 348377 887075 711617 155920 879822 183071 110852 319313 216714 129577 209240 236810 222235 171380 629174 146944 482230 94573 48179 14575 34638 192138 99828 19091 125202 413432 63122 85584 336267 260828 8455 31269 83546 20366 57675 209803 68329 873939 522527 351412 417503 207618 125550 95405 82068 39709 55696 47418 31100 19712 69566 53717 17757 41570 75056 14234 25823 182364 72071 749680 100352 45616 29335 12332 86275 72219 82139 54244 83890 99457 80388 40304 49895 17792 44103 34547 9556 127979 50739 36548 13106 12244 338189 329647 177587 75391 80737 237174 94876
is_linear=0
shrinkage=0.05


Tree=4
num_leaves=128
num_cat=0
split_feature=0 0 2 2 2 0 2 2 0 0 1 1 0 1 2 2 2 1 1 2 1 2 1 2 1 1 1 2 0 2 1 0 1 2 2 2 2 2 2 2 1 2 1 2 1 2 0 1 1 1 0 1 1 2 2 1 2 2 0 1 2 1 2 2 2 2 1 1 1 2 1 0 1 2 2 2 1 2 2 2 2 2 1 2 2 2 2 2 2 2 1 2 2 1 2 2 1 2 0 2 1 2 1 2 2 2 2 2 2 2 2 2 2 0 2 2 2 2 2 2 2 1 2 1 2 2 1
split_gain=20622.1 9887.38 6428.85 3354.94 2934.33 2274.73 1932.62 1299.96 1119.49 1063 1040.18 1014.97 834.32 663.906 626.02 774.809 532.802 484.512 451.103 423.456 373.541 351.449 339.525 284.963 278.961 274.84 266.849 270.085 251.134 223.183 214.162 204.648 196.351 208.425 189.919 185.592 661.624 273.777 176.886 318.565 172.245 171.973 176.622 169.396 306.769 271.91 167.587 157.308 154.951 142.207 133.796 128.157 125.931 123.835 165.749 156.313 123.113 121.995 120.854 119.183 119.984 117.313 116.325 137.22 186.788 232.115 176.242 164.44 138.437 113.853 113.287 112.292 109.733 106.698 106.501 102.814 132.692 101.17 96.4912 97.7676 93.4859 101.148 88.1267 97.1654 112.068 183.576 85.9067 84.7466 223.337 215.437 158.799 140 125.259 106.372 84.7331 83.5201 77.2042 76.1206 73.7892 134.827 73.5809 94.3284 73.5601 76.9398 73.4819 72.6312 71.496 163.15 92.3146 76.3942 70.5811 70.5767 70.4255 114.908 67.7322 67.4479 66.9896 66.8459 65.3377 65.2178 64.8027 64.7438 63.4219 63.2951 66.7023 61.6705 60.1106
threshold=8.8456196784973162 15.790881633758547 57.04499816894532 24.07499980926514 59.954998016357429 6.695763587951661 20.044999122619632 31.274998664855961 6.1888034343719491 11.992704868316652 0.90046629309654247 0.92068126797676098 19.910156250000004 0.6953236758708955 39.054998397827156 35.704999923706062 56.624998092651374 0.95501908659935009 0.64673161506652843 76.354999542236342 0.91793161630630504 27.184999465942386 0.84167310595512401 72.354999542236342 0.97296744585037243 0.8975992500782014 0.8783870041370393 63.144998550415046 5.7597656250000009 59.954998016357429 0.8670509159564973 5.1503906250000009 0.85345384478569042 15.584999561309816 76.354999542236342 39.664999008178718 45.114999771118171 54.914999008178718 53.144998550415046 44.674999237060554 0.92494845390319835 34.375000000000007 0.93816208839416515 54.754999160766609 0.8793313503265382 70.864997863769545 12.156695365905763 0.94809430837631237 0.96022161841392528 0.92494845390319835 11.368298530578615 0.98585575819015514 0.97714716196060192 13.35499954223633 20.724999427795414 0.92413881421089183 46.714998245239265 25.82499980926514 7.7207031250000009 0.8722536861896516 62.224998474121101 0.95750054717063915 72.354999542236342 66.774997711181655 59.38499832153321 56.104999542236335 0.96163180470466625 0.6953236758708955 0.96458223462104808 37.88499832153321 0.79121890664100658 10.330078125000002 0.91881313920021068 37.664999008178718 29.604998588562015 27.184999465942386 0.69192659854888927 22.444998741149906 64.034999847412124 58.924999237060554 68.514999389648452 76.354999542236342 0.91351976990699779 31.92499923706055 38.364999771118171 34.614999771118171 45.114999771118171 38.364999771118171 44.674999237060554 35.064998626708991 0.88126689195632946 36.224998474121101 41.474998474121101 0.9429328739643098 78.514995574951186 80.154998779296889 0.61207318305969249 44.674999237060554 13.689453125000002 30.93499851226807 0.75792470574378978 67.614997863769545 0.79863241314888012 20.044999122619632 78.154998779296889 54.284997940063484 76.914997100830092 72.024997711181655 78.514995574951186 74.224998474121108 60.564998626708991 49.13499832153321 25.374999046325687 12.566236019134523 78.154998779296889 61.734998703002937 58.654998779296882 22.444998741149906 11.074999809265138 51.354999542236335 25.374999046325687 0.94918596744537365 29.604998588562015 0.95627519488334667 61.904998779296882 76.914997100830092 0.62475433945655834
decision_type=2 2 2 2 2 2 2 2 2 2 2 2 2 2 2 2 2 2 2 2 2 2 2 2 2 2 2 2 2 2 2 2 2 2 2 2 2 2 2 2 2 2 2 2 2 2 2 2 2 2 2 2 2 2 2 2 2 2 2 2 2 2 2 2 2 2 2 2 2 2 2 2 2 2 2 2 2 2 2 2 2 2 2 2 2 2 2 2 2 2 2 2 2 2 2 2 2 2 2 2 2 2 2 2 2 2 2 2 2 2 2 2 2 2 2 2 2 2 2 2 2 2 2 2 2 2 2
left_child=2 4 8 32 6 20 46 18 31 19 13 23 51 77 15 21 38 43 -5 26 28 49 75 59 73 34 27 -6 106 47 -21 102 33 126 58 69 -37 -38 39 -16 -18 42 74 82 100 78 72 -27 -43 -12 -42 62 111 -10 55 -55 -54 -24 -7 -11 -61 114 63 64 65 66 67 -9 -66 112 -71 -29 -2 -17 -23 -20 -77 -8 79 -46 -30 -82 119 -84 85 -85 121 89 92 93 91 -91 -89 -69 -32 -31 -79 -68 -44 122 101 110 103 -1 -63 -90 107 -4 -108 -109 -45 -41 113 -15 -13 -60 -49 -35 -33 -14 -98 -56 -100 -22 -125 -102 -3
right_child=1 3 5 7 9 25 10 12 53 11 14 61 17 35 16 24 40 -19 22 30 123 41 57 -25 -26 29 -28 71 80 95 94 118 -34 117 -36 36 37 -39 -40 52 50 48 98 44 45 -47 -48 116 -50 -51 -52 -53 56 54 86 -57 -58 -59 115 60 -62 104 -64 -65 68 -67 97 87 -70 70 -72 -73 -74 -75 -76 76 -78 96 -80 -81 81 -83 83 84 -86 -87 -88 88 105 90 -92 -93 -94 -95 -96 -97 120 -99 99 -101 125 -103 -104 -105 -106 -107 108 109 -110 -111 -112 -113 -114 -115 -116 -117 -118 -119 -120 -121 -122 -123 -124 124 -126 -127 -128
leaf_value=0.042708535020390626 -0.0073393863947114309 -0.011826748612798215 0.019013646309774243 -0.0094157367299588426 -0.00020011469282236002 0.0089064142977564285 -0.011430682719697436 -0.0049530335460488554 -0.0054446187513625902 -0.0010656176335053465 0.00038007069458283513 0.0029586547578408012 -0.0037122023681152245 -5.5302848949681204e-05 -0.0022945606305733554 0.0063806447688401439 0.0012289767160310473 -0.0080480723238138905 0.0050637375502037008 0.0066121174092968671 0.021147392854952853 0.00017214209371380876 -0.0051765762959426632 0.0021523953152701269 -0.010224107700621174 0.013721955211844937 0.0051933510293693643 0.0047584336674300377 0.015487445256467718 0.010113975370359206 0.010408940458576444 -0.0085919257974345908 -0.012904882333727996 -0.012145496642341104 0.011262433414348898 -0.0041917143103042944 0.0005488274530543706 -0.0019212014842869551 -0.0034975513726343537 0.0035775018843224545 0.011672783413513573 0.00064215133344912116 0.0067933398731844438 -0.0039968796518987165 -0.0079352859840016131 -0.0018377186281056572 -0.0092589257278977068 0.019775902890448699 -0.010170237368435156 -0.0059094461865927548 0.0046298748575049672 -0.009147610924036504 0.0059043304340694221 0.00039193986499157327 -0.00017696889113346536 0.0069829540649384474 -0.0064479858591309407 -9.7780675256556368e-06 0.0036658182809821437 0.0038641478827108923 -5.2896721815127007e-05 0.0053184395405176717 -0.00065507387069706734 -0.0035876382588200294 -0.001058031846038377 -0.0054871140603410451 -0.009290327909433441 -0.0020459901499378401 0.0065621440974885249 -0.0025744355782864217 0.0034047517442041385 0.0025428966309561482 -0.0031985366795411851 0.010016080554682616 0.0038867230195508678 -0.0070392153768202223 0.0025594884223966385 -0.0064037869136185843 -0.0087109625287003951 -0.0044478139329014385 0.010110440194377995 0.015416741298648631 -0.013203295449932304 -0.0031269050669629097 -0.0029562101733731465 0.0041852888630634303 0.0014113716952093187 -0.002542939896045259 -0.00032368349132691921 0.0027144773079117129 0.0039311263842223051 -0.002945769160330701 -0.0059199560576326639 -0.008150284621698355 0.018207688567714403 0.040365193316135473 0.0052865203958813211 -0.0028815266571628039 0.0041718711699113903 -0.0029157683800181485 -0.0045990213663420982 -0.0041433208850979626 0.011030247273935303 0.01663113171937811 0.02775892654034345 -0.0026888192917039707 0.026249498911044496 0.0082789236003078838 0.017071230869543631 0.015312038084619131 -0.0016316326296684459 0.00080142338183704061 0.00032587917840733773 -0.0040074396486689378 0.013000005938696435 0.0069191689857758254 0.032424385308696291 -0.0070677748275809575 0.0068847172267805989 -0.0018937448346545462 -0.0036703855480991528 -0.0045196537539480136 0.013759278135685185 0.031958298231818477 0.017635198861295515 -0.0005137411550596168 -0.0058421421193006404
leaf_weight=300 31734 4741 32610 10657 57740 79915 5513 42304 7689 268051 17878 111798 318798 58941 91172 51164 17803 72917 47085 47433 17587 40807 12572 137989 2199 10044 212671 111956 29641 62433 8612 695 56717 41447 38608 132224 355675 163872 49083 51837 11452 27055 39229 45109 36705 29401 44049 2455 3776 18072 16401 6563 2689 15945 93608 20640 8074 125167 19214 26072 78153 111326 117460 174935 228288 59809 12057 53934 6120 9546 46567 116917 32267 33331 36606 3922 43918 32239 56949 44412 28088 13202 1779 16062 47951 18435 115326 70007 116152 17911 30182 28006 45180 8225 5848 229 2097 7525 6837 6299 213845 141336 12058 4949 366 45050 5148 5690 5856 12012 104863 41006 319370 26734 1705 93242 1825 7683 36309 58327 54552 9449 2307 2978 1118 9655 36490
leaf_count=300 31734 4741 32610 10657 57740 79915 5513 42304 7689 268051 17878 111798 318798 58941 91172 51164 17803 72917 47085 47433 17587 40807 12572 137989 2199 10044 212671 111956 29641 62433 8612 695 56717 41447 38608 132224 355675 163872 49083 51837 11452 27055 39229 45109 36705 29401 44049 2455 3776 18072 16401 6563 2689 15945 93608 20640 8074 125167 19214 26072 78153 111326 117460 174935 228288 59809 12057 53934 6120 9546 46567 116917 32267 33331 36606 3922 43918 32239 56949 44412 28088 13202 1779 16062 47951 18435 115326 70007 116152 17911 30182 28006 45180 8225 5848 229 2097 7525 6837 6299 213845 141336 12058 4949 366 45050 5148 5690 5856 12012 104863 41006 319370 26734 1705 93242 1825 7683 36309 58327 54552 9449 2307 2978 1118 9655 36490
internal_value=-2.02751e-06 -0.00101736 0.00764204 -0.00325776 0.00086421 0.0114051 -0.000392261 -0.00283092 0.00215838 0.00269611 1.3516e-06 0.00144557 -0.00320069 -0.000832272 0.00175148 0.00341256 0.000113108 -0.00409635 0.000643506 0.00433503 0.0163682 0.00169293 0.00110426 0.000211614 0.00735717 0.00892441 0.00385144 0.00285573 0.0153709 0.0115117 0.00823604 0.00869306 -0.010599 -0.00915159 0.00806207 -0.000490792 -0.00103391 -0.000230252 -0.00081499 -0.000138998 0.00507033 0.00268032 0.00346517 -0.00384439 -0.00434479 -0.00620368 -0.00688535 0.0171424 -0.000682087 -0.00278166 0.00752563 -0.00218209 0.00175787 0.000807174 0.000995708 0.00411036 -0.00336192 -0.000481373 0.00741977 -0.000507763 0.000926956 0.00424156 -0.00213909 -0.00232341 -0.00203648 -0.00255106 -0.00218256 -0.0019835 -0.000859082 0.000276814 0.00238757 0.00362665 -0.00525172 0.00781473 0.00192864 0.00340507 0.00177257 -0.00485811 -0.00713341 -0.00602588 0.013345 0.0118071 -0.00310437 -0.00164212 -0.00139266 0.00078069 0.000473919 -0.00168054 -0.0021861 -0.000669874 0.00111393 -0.000737858 -0.00386751 -0.00285372 0.013563 0.0102245 -0.00445046 -0.00682754 0.00564083 0.00271316 -0.0037401 -0.0032165 0.013181 0.0181216 0.00539197 -0.000984652 0.0177143 0.0169159 0.0213651 0.0130514 -0.00234306 0.00235139 -1.55994e-05 -0.00128853 0.00310949 0.00636331 0.0251692 -0.0113514 0.00659404 -0.00343096 -0.00333882 -0.000575137 0.00659074 0.0224511 0.0280488 -0.00442254 -0.00653029
internal_weight=6.64261e+06 5.86374e+06 778863 2.67665e+06 3.18709e+06 461895 1.89046e+06 2.52957e+06 316968 1.29664e+06 1.78241e+06 735460 2.28625e+06 1.20733e+06 575077 285560 289517 1.21654e+06 243321 561177 153930 198866 232664 510265 86694 307965 499284 286613 132247 76986 61893 54311 147078 90361 230979 1.11293e+06 651771 519547 243861 194778 45656 162916 132085 1.14363e+06 682275 167467 108050 14324 30831 35950 27853 1.06971e+06 103606 262657 254968 36585 10763 137739 192371 372276 104225 225195 1.06314e+06 945685 770750 536342 476533 456951 234408 461158 56113 228873 64001 84495 77413 94925 47840 94401 138066 81117 70931 41290 461352 84227 82448 34497 218383 414647 276389 138258 76099 45917 115187 62159 14460 62662 88888 19582 54672 15443 514808 291308 17307 5249 111692 161202 61316 50312 11004 17702 149972 92843 405045 85675 113503 112456 4280 49130 37004 377125 56649 103057 9144 21683 4096 223500 41231
internal_count=6642608 5863745 778863 2676651 3187094 461895 1890457 2529573 316968 1296637 1782407 735460 2286252 1207330 575077 285560 289517 1216544 243321 561177 153930 198866 232664 510265 86694 307965 499284 286613 132247 76986 61893 54311 147078 90361 230979 1112929 651771 519547 243861 194778 45656 162916 132085 1143627 682275 167467 108050 14324 30831 35950 27853 1069708 103606 262657 254968 36585 10763 137739 192371 372276 104225 225195 1063145 945685 770750 536342 476533 456951 234408 461158 56113 228873 64001 84495 77413 94925 47840 94401 138066 81117 70931 41290 461352 84227 82448 34497 218383 414647 276389 138258 76099 45917 115187 62159 14460 62662 88888 19582 54672 15443 514808 291308 17307 5249 111692 161202 61316 50312 11004 17702 149972 92843 405045 85675 113503 112456 4280 49130 37004 377125 56649 103057 9144 21683 4096 223500 41231
is_linear=0
shrinkage=0.05


Tree=5
num_leaves=128
num_cat=0
split_feature=0 0 2 2 2 0 2 2 0 1 0 0 1 1 1 1 2 2 2 2 2 2 2 1 1 2 2 2 2 1 2 1 2 2 1 2 0 2 2 2 1 0 2 0 1 2 2 1 0 2 1 2 1 1 2 2 2 1 1 2 2 1 2 1 2 0 2 2 2 2 1 1 0 0 0 2 2 2 1 1 2 2 1 2 2 2 2 2 1 2 2 2 2 2 2 1 2 2 1 1 2 1 2 2 1 2 0 0 2 2 2 2 2 2 1 2 2 1 0 2 1 2 2 2 2 1 1
split_gain=18695.4 9476.57 5147.18 3379.88 3027.28 1697.18 1500.46 1174.92 1052.14 951.177 939.752 934.028 900.005 551.483 483.856 435.588 430.251 561.239 660.278 424.271 332.213 325.463 317.965 293.334 241.446 221.807 534.809 240.488 201.016 199.206 173.161 170.167 179.724 169.892 275.17 229.027 200.568 167.108 161.043 157.327 154.258 146.757 146.305 138.401 136.492 135.751 227.601 135.595 131.593 130.928 129.18 127.15 125.128 123.612 199.185 122.261 142.831 120.656 119.582 118.879 114.763 112.14 107.479 106.78 103.76 103.339 100.965 98.5368 211.994 194.719 153.718 152.402 98.1533 94.7526 92.7814 92.7202 310.918 130.497 123.014 114.412 92.7086 89.8702 89.5476 102.656 87.4108 85.7923 167.75 85.4895 223.883 188.376 155.162 93.5819 81.2769 79.0054 78.4847 77.8414 77.691 77.4108 76.6832 76.6275 76.0791 74.68 72.7571 85.4533 76.7321 70.1658 69.4277 69.2981 68.4985 67.0237 66.9524 66.3205 105.557 127.218 64.4097 63.9852 63.9015 62.5531 61.777 61.612 60.2234 60.0959 59.7149 77.6796 59.1098 58.9145 58.5179
threshold=8.5169134140014666 15.097476959228517 57.264999389648445 24.07499980926514 59.954998016357429 6.5410156250000009 20.044999122619632 30.93499851226807 18.722656250000004 0.91351976990699779 10.947265625000002 5.9863281250000009 0.8975992500782014 0.70774149894714367 0.96310943365097057 0.64673161506652843 26.864998817443851 39.054998397827156 56.624998092651374 37.444999694824226 65.05499649047853 76.354999542236342 72.184997558593764 0.82959654927253734 0.89562135934829723 39.664999008178718 45.114999771118171 53.144998550415046 59.954998016357429 0.85863673686981212 78.154998779296889 0.85241752862930309 15.584999561309816 40.714998245239265 0.83631613850593578 72.354999542236342 22.800781250000004 72.354999542236342 34.834999084472663 76.354999542236342 0.91974002122879039 10.515974044799806 76.354999542236342 6.8417968750000009 0.98241847753524791 52.664999008178718 44.674999237060554 0.69192659854888927 4.7021484375000009 72.184997558593764 0.74139365553855907 25.82499980926514 0.94918596744537365 0.8783870041370393 62.064998626708991 67.434997558593764 62.54499816894532 0.80962622165679943 0.78968647122383129 29.604998588562015 29.014999389648441 0.98585575819015514 21.914999961853031 0.93909019231796276 64.58499908447267 7.2425673007965097 71.034999847412124 65.224998474121108 59.38499832153321 55.914999008178718 0.96458223462104808 0.96163180470466625 13.167968750000002 10.947265625000002 12.675290107727053 39.664999008178718 44.254999160766609 35.064998626708991 0.89378830790519725 0.9400630295276643 78.895000457763686 66.614997863769545 0.9795130491256715 46.714998245239265 64.58499908447267 35.704999923706062 32.444999694824226 35.064998626708991 0.88415840268135082 36.224998474121101 37.664999008178718 35.484998703002937 36.534999847412116 39.244998931884773 35.944999694824226 0.61864349246025097 67.974998474121108 11.074999809265138 0.97296744585037243 0.75408482551574718 29.314999580383304 0.94496250152587902 13.35499954223633 20.724999427795414 0.92331251502037059 44.674999237060554 20.352046012878422 5.7597656250000009 74.005001068115249 21.524999618530277 43.584999084472663 43.584999084472663 52.664999008178718 59.584999084472663 0.84383413195610057 80.154998779296889 78.514995574951186 0.81865623593330394 9.7050781250000018 77.444995880126967 0.92413881421089183 10.63499975204468 43.584999084472663 54.754999160766609 10.63499975204468 0.92667543888092052 0.58239778876304638
decision_type=2 2 2 2 2 2 2 2 2 2 2 2 2 2 2 2 2 2 2 2 2 2 2 2 2 2 2 2 2 2 2 2 2 2 2 2 2 2 2 2 2 2 2 2 2 2 2 2 2 2 2 2 2 2 2 2 2 2 2 2 2 2 2 2 2 2 2 2 2 2 2 2 2 2 2 2 2 2 2 2 2 2 2 2 2 2 2 2 2 2 2 2 2 2 2 2 2 2 2 2 2 2 2 2 2 2 2 2 2 2 2 2 2 2 2 2 2 2 2 2 2 2 2 2 2 2 2
left_child=2 4 11 31 6 20 40 15 37 13 21 48 22 62 33 -5 -11 19 45 44 29 53 74 59 42 38 -27 114 52 -4 63 32 124 47 55 36 84 50 -15 49 -2 101 65 -13 60 46 -19 -10 -1 99 110 -25 -26 54 -6 56 122 -23 -40 -17 -18 67 -8 -14 -38 -7 -66 68 69 71 -70 75 -62 -42 -12 77 -77 79 94 -52 119 -65 -48 -84 111 86 -74 -49 89 91 92 -89 -90 -92 -79 -64 -83 -50 -21 -22 -53 -20 -45 104 -104 -73 -102 -31 -51 -34 -9 -36 -113 -114 -28 -30 -59 -91 -56 -41 -69 -75 -35 -124 -3 -94 -39
right_child=1 3 5 7 10 24 9 8 14 16 12 43 30 25 -16 23 17 18 41 98 39 57 -24 51 28 26 27 -29 115 107 -32 -33 109 34 35 -37 64 126 58 80 73 -43 -44 102 -46 -47 82 87 97 108 61 100 -54 -55 118 -57 -58 116 -60 -61 72 -63 95 81 66 -67 -68 120 70 -71 -72 105 85 121 -76 76 -78 78 -80 -81 -82 96 83 -85 -86 -87 -88 88 90 117 93 -93 125 -95 -96 -97 -98 -99 -100 -101 106 -103 103 -105 -106 -107 -108 -109 -110 -111 -112 112 113 -115 -116 -117 -118 -119 -120 -121 -122 -123 123 -125 -126 -127 -128
leaf_value=0.014458956328536202 -0.0076951667735265924 0.0035907062371475919 0.01562727547476617 -0.0090466319947278256 -0.00050648060303317799 0.0095799970673525123 -0.011057546962239047 -0.0046576056725766554 -0.0050430740964094436 -0.0050663515275111547 0.00081033964150420835 0.0035371605561968483 0.0028155590707331637 -7.3288583074252597e-05 -0.0080997738883793642 0.0040795041211391433 0.0012198452887495735 -0.0020181505026637685 0.0082307797765255233 0.010170123869910752 0.017575172654689185 0.0066352756621704777 0.0025624386697943435 -0.0043462142229643208 0.014199006991046313 -0.0035841128455540369 0.00021667423292177541 -0.0011152102225672133 0.010319118071084009 0.024868381508623416 0.014167745907036353 -0.012026119924042395 -0.0120112659135569 -0.0051616641226204796 -0.0060259887193749298 -0.0011821893533385259 -0.005509130651920182 -0.0034290360934021561 -0.0013161946885461508 0.016860796465078546 -0.0018210529320589908 0.0045210639476592788 0.011213188826268173 -0.0055120688659226324 -0.010762839385522622 -0.0036775768350921891 0.0026379642758953921 -0.003251653681138274 -0.0079373036352399732 0.0069577407245631183 -0.0011555976935775274 -0.00040670721534472314 0.025059428882538506 0.0055438163942648413 0.0051085134387863947 -0.0040384285723623122 -0.0012477790825918 0.0094268858641004157 0.0024926739918386203 -0.0022517164994335244 0.0052174515278833817 -0.0087247328819285968 -0.005749909650341509 0.0060577912495320017 -0.0089206081670995304 0.006833804489059795 -0.0028545074044146724 -0.0033727969298693373 6.3158505458052686e-05 -0.0046519156284830446 0.0077923556275027442 -0.0083838599655133832 0.005417870155318031 -0.0012427842709700938 -0.00087200059168837977 -0.0045122594331588588 -0.00056614292806427902 0.0027162466710704313 0.0032121450168003068 -0.0073472221956607138 0.013786924204313426 -0.00036257022205316871 0.0058288291721087637 -0.0067009179889613944 -0.0056531171994467552 0.0061539244536973001 -0.0023179882132118479 -0.0032075278143380613 0.0017623153695303182 -0.0025381267659030514 -0.0043341227593126815 0.006279361559551379 0.0036849642527924595 0.00081056810960356679 -0.0015385874949281938 -0.0027168726770856926 0.0042129281982708046 0.0080863481147382052 -0.0086867907457838251 0.012886012507347448 0.0035600055680242528 0.016212877536249885 0.00038827822025533929 0.00029846124650458538 0.0061698003969549208 -0.002164407942423814 -0.00050677314699795598 0.019818844925628704 0.012121842062521324 -0.0083424907624099834 -0.0024803120514871619 -0.00090308430331540856 -0.0056847652678537162 -0.0020424901615518011 0.0017957254307339873 0.039234239615810414 0.015125579318497513 -0.0052385045391680042 0.0033324654244956914 0.023304831200951677 -0.0010192463135520503 -0.0075652002036525091 -0.001881129618817087 -0.003701084522386185 -0.0066306663269602986 0.011271844514637148 0.0004591968316432298
leaf_weight=9135 58629 1464 20214 11018 25381 48805 5292 46509 43869 19572 137309 50929 131094 307918 59719 77921 39602 68534 7755 30009 15720 29609 151040 16076 9042 139826 132187 286594 54338 12741 4170 62592 33026 35515 20921 41583 149121 10603 24424 7362 25929 23217 35018 4776 1677 29773 63573 94157 770 9473 51263 104479 3753 143871 95826 233863 131528 12896 131858 8194 89030 5412 31856 72314 47405 114918 8020 97922 141547 51678 6739 10929 11815 4752 203292 72991 157902 14363 36248 8732 9526 10157 2316 5557 59311 10231 17224 3806 14748 71397 11972 8200 5009 19811 44165 62969 107151 35681 549 19544 28313 4710 10442 146228 12742 7751 16676 14558 19934 19980 146605 41670 49390 46588 126269 192 7953 30653 100115 7476 37624 17978 98261 145372 41772 5231 110756
leaf_count=9135 58629 1464 20214 11018 25381 48805 5292 46509 43869 19572 137309 50929 131094 307918 59719 77921 39602 68534 7755 30009 15720 29609 151040 16076 9042 139826 132187 286594 54338 12741 4170 62592 33026 35515 20921 41583 149121 10603 24424 7362 25929 23217 35018 4776 1677 29773 63573 94157 770 9473 51263 104479 3753 143871 95826 233863 131528 12896 131858 8194 89030 5412 31856 72314 47405 114918 8020 97922 141547 51678 6739 10929 11815 4752 203292 72991 157902 14363 36248 8732 9526 10157 2316 5557 59311 10231 17224 3806 14748 71397 11972 8200 5009 19811 44165 62969 107151 35681 549 19544 28313 4710 10442 146228 12742 7751 16676 14558 19934 19980 146605 41670 49390 46588 126269 192 7953 30653 100115 7476 37624 17978 98261 145372 41772 5231 110756
internal_value=-7.80542e-07 -0.000891246 0.00789745 -0.00290154 0.00108208 0.0114821 -0.000235776 -0.00249899 -0.0028286 0.00013153 0.00298758 0.00256603 0.00200239 -0.000563706 -0.00369108 0.00068424 0.00217433 0.00252375 0.000687903 0.00440819 0.0160136 0.00492294 0.00065297 0.00111027 0.00915649 -0.000253607 -0.00082552 -0.000117836 0.0117444 0.0193897 0.00404444 -0.00999676 -0.00867694 -0.00350533 -0.00379427 -0.00472271 -0.00507123 -0.00162642 0.000590188 0.014212 -0.00596796 0.00687063 0.00827983 0.00124438 0.00343095 -0.000611704 4.03911e-05 -0.00246825 0.0090927 0.0129219 -0.00185222 -0.000120926 0.0173846 0.00440287 0.0036612 -0.00312588 -0.00260622 0.00868696 0.00189742 0.00347708 0.00357271 -0.00155359 -0.00412282 0.00391282 -0.00619568 0.00765243 -0.00804284 -0.00150114 -0.00122785 -0.00176188 0.000414419 -0.00139251 0.00429897 -0.00388686 -0.000193786 -0.00117887 -0.00181361 -0.000231954 0.000923183 -0.00205676 0.0176363 0.0046714 0.00201503 -0.00301504 -0.0040156 0.00221665 0.000829474 -0.00204198 -0.00137523 -0.00265227 0.00119043 0.00327194 0.00413845 -0.00112733 -0.000494435 -0.00373581 0.00381676 0.00774786 0.00983134 0.0149763 0.000333524 0.0112469 0.000574022 0.000745599 0.00356582 -0.00580319 0.00205258 0.0221756 0.0104583 -0.0106284 -0.00300468 -0.00340311 -0.00300446 -0.00391679 0.000988122 0.0104209 0.0116007 -0.00334925 0.00420105 0.0201076 -0.00271951 -0.00624342 -0.00324628 -0.00296707 -0.00628456 0.00756064 0.000119486
internal_weight=6.64549e+06 5.97217e+06 673317 2.95837e+06 3.0138e+06 402614 1.78162e+06 2.79954e+06 2.53686e+06 1.67434e+06 1.23218e+06 270703 816527 1.24919e+06 1.47712e+06 262677 425144 405572 205435 200137 136548 415651 491641 251659 266066 1.14908e+06 684876 545050 67325 47513 324886 158834 96242 1.4174e+06 1.10855e+06 464009 422426 1.05974e+06 464200 89035 107288 35682 198741 225117 169579 169753 139980 308853 45586 64671 938380 165544 12795 365193 221322 644539 410676 50458 156282 86115 167902 745266 100117 320716 204546 163723 55425 739854 604308 456022 148286 404344 128300 48659 340601 385664 230893 154771 94776 59995 24364 189622 71446 7873 217880 39270 29039 264984 170827 114056 56771 12006 24988 31783 58528 94825 117308 36451 30558 35264 149468 12465 174188 169412 23184 18680 44989 27299 29407 53006 193114 158569 137648 95978 258456 54530 20849 102050 195941 14838 135546 22730 279148 243633 43236 10240 121359
internal_count=6645490 5972173 673317 2958370 3013803 402614 1781625 2799536 2536859 1674337 1232178 270703 816527 1249193 1477120 262677 425144 405572 205435 200137 136548 415651 491641 251659 266066 1149076 684876 545050 67325 47513 324886 158834 96242 1417401 1108548 464009 422426 1059739 464200 89035 107288 35682 198741 225117 169579 169753 139980 308853 45586 64671 938380 165544 12795 365193 221322 644539 410676 50458 156282 86115 167902 745266 100117 320716 204546 163723 55425 739854 604308 456022 148286 404344 128300 48659 340601 385664 230893 154771 94776 59995 24364 189622 71446 7873 217880 39270 29039 264984 170827 114056 56771 12006 24988 31783 58528 94825 117308 36451 30558 35264 149468 12465 174188 169412 23184 18680 44989 27299 29407 53006 193114 158569 137648 95978 258456 54530 20849 102050 195941 14838 135546 22730 279148 243633 43236 10240 121359
is_linear=0
shrinkage=0.05


Tree=6
num_leaves=128
num_cat=0
split_feature=0 0 2 2 2 0 0 2 2 1 0 1 1 0 1 2 2 2 1 2 1 1 2 2 2 1 1 0 2 2 2 1 2 1 1 2 2 2 0 1 2 2 2 2 2 1 2 1 2 2 2 2 2 2 1 2 0 2 2 1 2 2 1 2 1 2 1 2 2 2 1 2 2 0 1 2 2 2 2 1 1 0 1 1 2 2 2 2 2 1 0 2 1 2 2 2 2 1 0 2 1 2 2 2 2 0 2 2 2 2 2 2 1 2 2 1 0 1 2 0 2 0 2 2 1 1 2
split_gain=16922.8 8932.56 3938.89 3757.54 2866.01 1750.17 1440.9 970.296 833.689 710.697 701.158 508.867 496.013 494.54 444.292 441.611 803.552 409.392 331.709 321.436 275.302 271.493 259.368 247.415 245.849 255.425 231.423 210.175 206.33 201.977 199.876 196.312 200.256 193.114 176.567 235.447 195.05 193.89 162.964 160.328 154.913 173.12 152.702 149.184 148.222 145.954 148.787 123.548 103.147 152.98 98.8069 109.787 213.233 160.361 103.495 93.5511 93.1245 90.8863 90.1702 87.4555 160.202 85.8474 84.2443 94.2186 91.1597 82.4554 81.1128 80.2993 92.2697 231.335 77.3348 95.0921 79.7633 91.1973 200.082 76.2443 75.4989 75.195 93.6872 120.016 80.1455 75.1194 72.8839 71.7448 70.8396 70.8283 69.7369 69.2541 146.626 68.7395 68.0949 67.1604 66.3034 82.4259 88.1296 74.1841 63.9265 97.85 91.2628 63.7806 102.574 63.3209 63.0405 63.7582 61.3484 61.1278 60.8207 81.9241 60.7249 273.897 174.406 161.985 147.949 118.981 92.4754 60.1222 59.7502 59.4337 65.7781 66.5004 100.447 59.1073 58.9242 92.8023 58.7302 58.4763 58.4532
threshold=13.800781250000002 7.4849679470062265 57.814998626708991 24.07499980926514 56.824998855590827 17.744759559631351 9.8300781250000018 31.274998664855961 16.944999694824222 0.8793313503265382 6.1888034343719491 0.90331554412841808 0.89562135934829723 5.4902343750000009 0.96611544489860546 39.054998397827156 29.014999389648441 63.304998397827156 0.67740625143051159 78.154998779296889 0.64185497164726268 0.84810104966163646 76.354999542236342 37.444999694824226 58.924999237060554 0.96926000714302074 0.9061206877231599 20.925781250000004 62.694997787475593 69.204998016357436 52.664999008178718 0.89085769653320324 59.144998550415046 0.89663168787956249 0.82245272397995006 40.714998245239265 71.034999847412124 64.734996795654311 12.211498260498049 0.685075342655182 32.704999923706062 72.354999542236342 20.044999122619632 60.844999313354499 61.904998779296882 0.85760977864265453 15.584999561309816 0.98241847753524791 20.044999122619632 16.944999694824222 41.244998931884773 53.144998550415046 56.624998092651374 45.114999771118171 0.94395297765731823 67.614997863769545 5.1503906250000009 48.444999694824226 76.354999542236342 0.88415840268135082 34.614999771118171 61.734998703002937 0.79863241314888012 38.844999313354499 0.64673161506652843 20.724999427795414 0.94705903530120861 66.614997863769545 45.114999771118171 40.714998245239265 0.92331251502037059 69.944995880126967 75.594997406005874 12.446593284606935 0.97296744585037243 25.82499980926514 45.624998092651374 43.045000076293952 49.43499946594239 0.89085769653320324 0.90142741799354564 6.3755486011505136 0.95147261023521434 0.96611544489860546 72.184997558593764 72.544998168945327 15.584999561309816 55.104999542236335 59.784997940063484 0.78647431731224071 9.4941406250000018 69.514999389648452 0.7367798686027528 72.755001068115249 70.24499893188478 71.215000152587905 10.63499975204468 0.89861041307449352 9.359591484069826 27.184999465942386 0.6884993612766267 48.444999694824226 34.834999084472663 35.944999694824226 64.734996795654311 14.84687376022339 76.354999542236342 72.184997558593764 38.844999313354499 35.704999923706062 30.93499851226807 44.674999237060554 0.94705903530120861 29.604998588562015 48.804998397827156 0.9153006672859193 19.496093750000004 0.94097086787223827 32.704999923706062 11.712890625000002 36.224998474121101 21.410156250000004 68.514999389648452 76.354999542236342 0.94097086787223827 0.95750054717063915 39.664999008178718
decision_type=2 2 2 2 2 2 2 2 2 2 2 2 2 2 2 2 2 2 2 2 2 2 2 2 2 2 2 2 2 2 2 2 2 2 2 2 2 2 2 2 2 2 2 2 2 2 2 2 2 2 2 2 2 2 2 2 2 2 2 2 2 2 2 2 2 2 2 2 2 2 2 2 2 2 2 2 2 2 2 2 2 2 2 2 2 2 2 2 2 2 2 2 2 2 2 2 2 2 2 2 2 2 2 2 2 2 2 2 2 2 2 2 2 2 2 2 2 2 2 2 2 2 2 2 2 2 2
left_child=1 4 8 45 13 11 22 20 96 17 26 39 18 62 27 16 -14 -8 76 70 -7 99 31 47 25 30 56 -9 -26 105 75 44 66 106 55 59 37 77 58 43 -41 67 -20 -5 -4 46 -2 117 49 -15 -17 53 -53 -52 -54 104 -6 -16 -19 -36 -61 82 63 64 -1 -48 -33 68 69 102 84 125 73 74 -73 -13 -10 124 80 -80 -79 -50 -35 -51 -11 -40 -64 -70 -89 -24 -25 -28 93 94 -46 -94 97 -3 -98 -22 -101 -27 -42 -104 -29 -30 107 -12 109 110 113 -110 -112 -77 -113 -21 -47 -18 -119 -120 -121 -59 -58 -124 -37 -72 -44
right_child=3 2 6 5 10 7 9 14 12 19 33 24 15 48 57 50 23 38 42 115 21 -23 89 90 28 101 91 34 29 -31 -32 32 -34 61 35 36 -38 -39 85 40 41 -43 126 -45 92 116 65 -49 81 83 51 52 54 -55 -56 -57 122 121 -60 60 -62 -63 86 -65 -66 -67 -68 -69 87 -71 71 72 -74 -75 -76 108 -78 78 79 -81 -82 -83 -84 -85 -86 -87 -88 88 -90 -91 -92 -93 95 -95 -96 -97 98 -99 -100 100 -102 -103 103 -105 -106 -107 -108 -109 111 -111 112 114 -114 -115 -116 -117 -118 118 119 120 -122 -123 123 -125 -126 -127 -128
leaf_value=0.010876260525060534 -0.0060888268447496291 -0.0087296399805435673 0.0020647646908546042 -0.0048987459363862597 0.017190020838256614 -0.0089901400776457099 -0.0013300984949080677 -0.0025103967816948857 -0.0054343133012859724 0.0025722776466594339 0.01003087465314372 -0.0086331099488445098 -0.00072700982522790004 -0.0036470079270359626 -0.0091090150632445015 -0.0032898230105727782 0.0034492576521627412 0.0025365912085084865 -0.0083164596708575206 0.010824420535071204 0.0046954257989166668 -0.00089984561204442559 0.0077178980715523178 -0.0011052027045898515 0.004655834908234408 -0.0076242248289274039 0.022420452109810866 -0.0028884455313671858 0.0010024131015911265 0.0026863537080672253 -0.0038520057537951009 0.011674153634479205 0.006919095484121055 0.015031844923568108 -0.004451219844584537 -0.0061533245500805444 -0.001810454153200868 -0.0077073801457669573 -0.00015637591850707147 0.00059423503557608573 -0.0039363390221971708 0.00090767786611460491 0.00030977227740761249 -0.0017028024578692202 0.0063568786100186561 -0.0097267422861149859 -0.011652135033346776 -0.0098039523250672243 0.0041572016569080723 0.0065946652995943896 -0.00064774446056281804 -0.002917186639014727 0.0011616302387967951 0.0025904836097534033 0.010247708336094367 -0.0040950139664983386 0.015736689719273302 -0.0022455546203385972 0.0052862709272936681 -0.0044814550859051828 0.00052053260996373348 0.011896866368069785 -0.0050060977256572298 0.010012163726505229 0.028140223341578605 -0.0080403438628181331 0.022145164364486037 -0.0029020679676017361 -2.559808038888933e-05 -0.0048757218365208157 0.0045183306160895484 0.0040417801930817069 0.0083260830966849064 0.0043656997449517771 -0.0039192623869480593 0.00089877727496685085 -0.0012845545412910435 -0.0046168541393214243 -0.0037760617698990849 -0.0064562045117071394 -0.0002354457432053793 0.0011206334128465434 0.02375361382867483 0.017367830311874024 0.0055388471888631954 0.0022312540455118133 0.0092731546466463879 -0.0032599057091016442 -0.00054557559619487057 0.0113405970634518 0.0095271723487216648 0.013790294365755873 0.0057300099441422638 0.0039808337157974695 0.011068874350271811 0.0032278651934433949 -0.003094244477095223 -0.00097850862001928863 -0.0078105608458302793 -0.0068562879971719518 0.0025450186324134025 -0.0011721464873025017 0.0015694408222519864 -0.0012873499507618776 -0.0010803088429121631 -0.0021393456477622635 0.012060815920622713 0.0066946222120498099 -0.00294559479445578 0.0056308646740653584 -0.00040295716432095551 0.0041221260405732655 -0.0071044838288558954 0.0071695897597877679 -0.00036249747475911877 0.020745487920198851 -0.012609260369716466 0.0087116975895344256 0.0064230911961426791 -3.103818450332778e-05 0.01076466889300879 -0.0074286737596376967 0.01070436479891246 0.01623361547438636 -0.012285245827206553 0.006526984489561247 -0.00053102185363031673
leaf_weight=1260 47693 5579 36791 53798 30195 7166 113701 663941 39139 113576 65457 2190 96036 3630 37229 21612 83460 168093 5821 3181 36558 86502 25609 1585 53394 14063 15397 329185 24248 82946 28048 6266 95537 10812 31396 21074 42188 71997 80455 124282 16832 78271 347251 113658 27058 38107 30603 1583 29091 17511 75323 52908 10790 77639 4417 152385 22862 10110 36244 24951 44658 20991 900 4273 1945 32673 2624 97762 142608 58001 90284 18879 6772 36135 13562 45719 15224 19868 94824 74656 21989 67915 3077 1695 24457 50593 17120 73905 152250 26795 30172 2641 90320 17142 15670 44080 14670 15070 34099 3146 37310 5212 25053 88606 54708 42827 21302 25596 34003 29667 27076 20357 11836 9064 26406 2937 34034 12914 19485 11779 2637 12064 23750 11152 4793 60523 510765
leaf_count=1260 47693 5579 36791 53798 30195 7166 113701 663941 39139 113576 65457 2190 96036 3630 37229 21612 83460 168093 5821 3181 36558 86502 25609 1585 53394 14063 15397 329185 24248 82946 28048 6266 95537 10812 31396 21074 42188 71997 80455 124282 16832 78271 347251 113658 27058 38107 30603 1583 29091 17511 75323 52908 10790 77639 4417 152385 22862 10110 36244 24951 44658 20991 900 4273 1945 32673 2624 97762 142608 58001 90284 18879 6772 36135 13562 45719 15224 19868 94824 74656 21989 67915 3077 1695 24457 50593 17120 73905 152250 26795 30172 2641 90320 17142 15670 44080 14670 15070 34099 3146 37310 5212 25053 88606 54708 42827 21302 25596 34003 29667 27076 20357 11836 9064 26406 2937 34034 12914 19485 11779 2637 12064 23750 11152 4793 60523 510765
internal_value=-3.36971e-06 0.00269809 0.00166566 -0.00236061 0.00968487 -0.00198102 0.00378831 -0.00299278 -5.42885e-05 0.00259983 0.012897 -0.000695776 0.000207165 0.0040883 -0.00335118 0.00147033 0.00290357 0.00126268 -0.000483902 0.00422146 0.000602163 0.00102254 0.00629888 0.00503459 0.000691678 -0.00034681 0.0159978 -0.00319847 0.00198658 0.00103657 0.000108222 0.00578788 0.00758701 0.0106646 -0.00366055 -0.00438805 -0.00499961 -0.00543474 0.00214167 -0.00131444 -0.00103811 -0.00131477 -0.000245496 -0.00272955 0.00497478 -0.00933585 -0.00819767 0.0040804 0.00274298 0.00576629 -6.30912e-05 0.000252347 -0.00141737 0.000995885 0.00380076 -0.00304684 0.0149398 -0.00759964 0.00302431 -0.0022605 -0.00127241 0.0139146 0.0104114 0.0148728 0.0213531 -0.00978716 0.0147648 -0.00158034 -0.00134846 -0.00224838 0.00403052 0.00459975 0.00314926 0.00263804 0.000713657 0.000646597 -0.0042722 -0.00474494 -0.00443349 -0.00495667 -0.00231514 0.00203127 0.0169641 0.00754544 0.0030979 0.000765404 0.00855998 -0.000888478 -0.00143259 0.00957024 0.00899651 0.0211569 0.00552588 0.00690986 0.00808495 0.00490937 -0.00540456 -0.00307273 -0.00639187 0.00318176 0.00181394 -0.00587957 -0.00108057 -0.000657649 -0.00263077 -0.00100358 0.0096557 0.00909302 0.000746155 0.00144395 0.000118226 -0.000319652 -0.00244138 0.0019363 0.00158976 0.0155871 -0.0110866 0.00424911 0.00567505 0.0045183 0.00194373 -0.00506549 0.0137636 0.0124711 -0.00728953 0.00532446 -0.000190741
internal_weight=6.6437e+06 3.09581e+06 2.69724e+06 3.54789e+06 398572 3.36478e+06 1.20728e+06 1.8827e+06 1.48996e+06 819392 253232 1.48208e+06 1.42054e+06 145340 1.71202e+06 502340 259651 449086 918200 370306 170682 163516 387892 163615 457056 253641 105997 1.65261e+06 203415 150021 234366 335488 104427 147235 988672 452394 351389 309201 335385 1.02503e+06 857570 733288 863837 167456 231061 183110 110969 131858 119842 22836 242689 221077 68115 152962 15207 536278 87959 59403 204337 101005 69609 34880 25498 7478 3205 63276 8890 655017 557255 188492 364188 226155 75348 68576 32441 206318 54363 237204 211337 169480 41857 97006 13889 19206 138033 131048 18020 368763 226155 52404 31757 18038 194270 59870 42728 134400 69418 20649 48769 77014 40456 19275 130491 113659 383893 67075 112355 91053 204128 123362 93695 80766 38912 54783 46763 6118 72141 130275 46815 33901 14416 22174 57764 34902 25867 150807 858016
internal_count=6643704 3095814 2697242 3547890 398572 3364780 1207284 1882698 1489958 819392 253232 1482082 1420540 145340 1712016 502340 259651 449086 918200 370306 170682 163516 387892 163615 457056 253641 105997 1652613 203415 150021 234366 335488 104427 147235 988672 452394 351389 309201 335385 1025026 857570 733288 863837 167456 231061 183110 110969 131858 119842 22836 242689 221077 68115 152962 15207 536278 87959 59403 204337 101005 69609 34880 25498 7478 3205 63276 8890 655017 557255 188492 364188 226155 75348 68576 32441 206318 54363 237204 211337 169480 41857 97006 13889 19206 138033 131048 18020 368763 226155 52404 31757 18038 194270 59870 42728 134400 69418 20649 48769 77014 40456 19275 130491 113659 383893 67075 112355 91053 204128 123362 93695 80766 38912 54783 46763 6118 72141 130275 46815 33901 14416 22174 57764 34902 25867 150807 858016
is_linear=0
shrinkage=0.05


Tree=7
num_leaves=128
num_cat=0
split_feature=0 0 2 2 2 0 0 2 2 1 0 1 2 2 0 1 1 2 1 0 2 2 2 1 1 1 2 1 2 2 1 2 2 2 1 2 2 2 1 2 2 2 2 1 2 2 1 1 1 1 1 0 2 2 2 1 2 2 2 2 2 2 2 1 2 2 2 2 2 0 2 0 1 1 2 2 2 2 2 2 2 1 2 2 2 2 2 2 2 2 2 2 0 2 2 0 2 2 2 1 2 2 2 2 1 2 1 1 1 2 2 2 1 1 0 2 2 2 2 2 1 1 2 2 2 1 2
split_gain=15338.2 8261.38 3604.63 3203.96 2563.11 1405.37 1315.86 835.057 824.677 727.172 608.729 512.21 564.525 516.237 470.125 401.054 343.72 338.587 329.978 262.953 260.6 250.259 233.758 217.95 238.675 204.864 203.949 194.868 204.886 174.719 257.355 238.815 217.9 185.356 164.178 190.664 159.154 146.625 236.006 228.537 145.512 142.576 136.371 135.565 141.511 129.59 127.717 121.537 119.475 118.872 117.593 114.286 104.768 96.8599 148.235 95.0584 96.5804 98.6 212.801 88.7527 104.215 186.278 145.994 99.9613 88.0101 87.1162 131.176 86.1279 158.667 85.0322 83.5906 83.4604 82.4381 78.6828 78.2536 130.391 115.221 77.761 76.6182 75.5487 119.399 74.5523 72.1559 71.5744 70.7597 70.4744 70.3712 92.0252 199.647 68.2761 67.1399 66.7591 64.9934 64.6591 64.1539 63.576 62.8744 62.6147 468.6 103.296 115.641 98.2152 74.3535 173.641 61.8229 60.462 60.4519 60.0201 59.2927 58.9828 131.264 58.7756 58.3269 57.4523 57.0493 56.4018 55.6018 55.0642 101.95 54.9562 54.6684 54.2246 53.8971 53.328 52.8263 72.5273 327.705
threshold=14.160156250000002 7.4849679470062265 57.814998626708991 24.07499980926514 57.264999389648445 10.080078125000002 18.440778732299808 31.274998664855961 20.044999122619632 0.8870455026626588 5.9863281250000009 0.89562135934829723 39.054998397827156 29.314999580383304 5.7597656250000009 0.95501908659935009 0.66928279399871837 72.184997558593764 0.90236034989357006 9.5642676353454608 76.354999542236342 78.154998779296889 37.444999694824226 0.64185497164726268 0.85241752862930309 0.89378830790519725 62.694997787475593 0.89278912544250499 59.144998550415046 58.924999237060554 0.96769589185714733 62.38499832153321 52.664999008178718 69.204998016357436 0.64673161506652843 32.704999923706062 61.904998779296882 54.754999160766609 0.88415840268135082 70.24499893188478 72.354999542236342 62.54499816894532 57.514999389648445 0.85863673686981212 15.584999561309816 13.35499954223633 0.96926000714302074 0.84810104966163646 0.84383413195610057 0.81865623593330394 0.98241847753524791 12.392578125000002 59.954998016357429 63.894998550415046 58.924999237060554 0.91351976990699779 31.92499923706055 38.364999771118171 34.614999771118171 41.244998931884773 53.144998550415046 56.624998092651374 45.114999771118171 0.94198021292686474 16.944999694824222 76.354999542236342 72.024997711181655 58.924999237060554 67.255001068115249 4.7021484375000009 51.354999542236335 8.8456196784973162 0.94809430837631237 0.92580771446228038 43.304998397827156 41.68499946594239 49.43499946594239 76.634998321533217 66.614997863769545 20.044999122619632 16.944999694824222 0.80566352605819713 73.274997711181655 42.164999008178718 39.454999923706062 47.104999542236335 66.934997558593764 45.114999771118171 41.244998931884773 25.82499980926514 78.895000457763686 21.124999046325687 10.26594924926758 10.63499975204468 48.444999694824226 6.8417968750000009 62.694997787475593 45.114999771118171 39.93499946594239 0.78325730562210094 37.664999008178718 52.414999008178718 24.07499980926514 27.794999122619632 0.8975992500782014 63.754999160766609 0.93909019231796276 0.50870242714881908 0.97714716196060192 54.914999008178718 59.784997940063484 56.104999542236335 0.54604557156562816 0.94599696993827831 22.535156250000004 49.13499832153321 76.914997100830092 36.534999847412116 37.444999694824226 65.224998474121108 0.74139365553855907 0.96310943365097057 74.224998474121108 78.514995574951186 18.554999351501468 0.96926000714302074 19.224999427795414
decision_type=2 2 2 2 2 2 2 2 2 2 2 2 2 2 2 2 2 2 2 2 2 2 2 2 2 2 2 2 2 2 2 2 2 2 2 2 2 2 2 2 2 2 2 2 2 2 2 2 2 2 2 2 2 2 2 2 2 2 2 2 2 2 2 2 2 2 2 2 2 2 2 2 2 2 2 2 2 2 2 2 2 2 2 2 2 2 2 2 2 2 2 2 2 2 2 2 2 2 2 2 2 2 2 2 2 2 2 2 2 2 2 2 2 2 2 2 2 2 2 2 2 2 2 2 2 2 2
left_child=1 4 8 43 14 20 18 23 19 17 26 16 13 46 64 37 83 41 34 45 27 73 50 -8 -25 95 47 36 72 30 32 121 89 105 42 -36 -4 55 67 53 86 49 -5 44 -2 -3 -13 -6 -47 107 -15 -43 113 54 -40 70 -57 58 -58 -14 62 -62 -61 -63 -1 66 -28 -39 96 -66 -9 119 -29 -11 75 84 -76 -70 -75 80 -16 -22 -17 -10 -59 -81 87 88 120 -20 -67 -46 -24 104 -32 -12 112 98 99 102 -101 -99 -18 -104 -21 -33 -82 -7 115 -89 111 -111 -69 -27 -56 -64 -41 -60 -119 -38 -37 -31 -68 -79 -45 -126 -127
right_child=3 2 5 6 10 9 7 15 11 21 25 12 59 22 79 82 97 -19 29 93 81 -23 92 24 -26 52 65 28 -30 31 94 33 -34 -35 35 40 71 38 39 116 -42 51 -44 124 91 48 -48 -49 -50 -51 -52 -53 -54 -55 114 56 57 74 117 60 61 63 108 -65 69 90 122 68 77 -71 -72 -73 -74 78 76 -77 -78 123 -80 85 106 -83 -84 -85 -86 -87 -88 109 -90 -91 -92 -93 -94 -95 -96 -97 -98 101 -100 100 -102 -103 103 -105 -106 -107 -108 -109 -110 110 -112 -113 -114 -115 -116 -117 -118 118 -120 -121 -122 -123 -124 -125 125 126 -128
leaf_value=-0.0032394510638110298 -0.005758218500100591 -0.0048324031746743946 0.0017505061419912705 -0.0059526462285465218 0.014367860627926617 0.0041622487805719781 -0.0084666853045048326 -0.0030857968868680816 -0.005763764397816098 0.0028170508998621169 0.010597669338825945 0.00016925570942467221 -0.0030624040151312586 0.0040055576329011723 -0.0036314933067360488 -0.0068701663788795324 -0.0044305856609929807 0.0029943883007456248 -0.0081436891511387447 -0.0080945619532809595 0.00725069867810893 0.014621285763029155 0.0026859460589520484 0.0030559378295162503 -0.0010324870086775887 0.015056172446839357 0.015427534714823886 0.011159798936821062 0.0063829239640211706 0.0035548757122216661 -0.0074149358564376492 0.0016443530001309847 -0.0041968058063486047 0.0019677486327299779 0.00057868523161189666 -0.0034348520633672992 0.0080044755504528123 -0.0044257068963249376 -0.0070568258937197485 -0.0028687973916067667 0.00044062203972921004 0.0017892789036253545 -0.0021722821457436656 -0.01191789777602445 -0.010932879849454138 -0.0094122490930451767 -0.011500146347875316 0.022669144753773858 0.0024788351788328574 0.00026515188297201417 -0.0093373150131723665 -0.0004302692729583508 0.012114779067051291 -0.0073791209843630402 -0.0013733481803421092 -0.011319878735275561 -0.0029511281782598625 -0.006454848595138285 0.0020558633109202091 -0.00067286817916697072 -0.0027914397637074048 0.00073216858088997886 0.0039661598576414756 0.0093399953891501863 0.01377843030427848 0.020214570982047791 0.0068832683201149845 -1.0409997899341505e-05 -0.0039825537732164802 0.0080710994623545539 -0.0012634070686469586 0.0041493470921908204 0.021545183363757194 0.0053198528855927006 0.001204850880255624 -0.0095550721790273168 -0.0049689932971955942 -0.00011007480197953143 0.0034975769447349592 0.00043291602484978514 0.0033521805120628567 0.010859492675824582 -0.00068137790353411617 -0.0019418238149280537 0.00022955356701631919 0.0031807660107913676 -0.0029096706738148386 -0.00022237610062131137 -0.0051881963720972054 0.00048182377889612824 0.013586699316593134 -0.0076155321220122384 0.00928913728695137 -0.0066936107282206704 -0.0012147104503580732 0.0083098413762803264 -0.0013150625142860778 0.0010567377330931449 -0.0035581596394486923 0.00023000091850159147 0.0029217357008848748 -0.00045834347206825552 0.0044290058093193517 -0.0017123895497225734 -0.0011986950566015789 -0.0022578482650729907 0.0093329807606181477 -0.0035989012486330853 -0.0020273867913723821 -0.00141264461197295 -0.00072390345420615557 -0.0041576831578502291 -0.0032949804594090966 0.022840306134729052 -0.0047189366018172314 0.0012557405279392331 0.0012076276620956339 0.010717968272249386 2.0290272164537933e-05 0.005421612072790947 -0.0010472995218682526 0.0078772405214021703 0.012195225265390046 -0.0036942941430481084 -0.010155209241746782 0.019532054561366377 -0.011073804162583217
leaf_weight=1410 46895 12993 42495 31245 6440 2631 6333 401849 33510 126645 61785 72573 23172 133321 3227 85898 15231 150304 2320 4508 31024 5443 4256 71419 71370 6207 30144 6939 106033 40284 16387 12015 29613 78804 131829 29589 27895 99224 42131 29615 88091 131448 100875 37839 33040 2335 2423 13982 22157 50341 1672 103790 29448 64868 25449 2291 20326 5864 14940 78608 55185 11131 41895 4839 8713 9562 7538 15632 247223 26002 74606 113519 2637 110377 24385 8169 10951 23969 120825 45029 7243 26566 4983 19308 12188 48430 104887 137152 47988 206635 6364 28034 29953 58858 5597 59714 157788 193360 105424 239074 47895 239404 14021 64256 11649 57112 10140 46835 7174 31058 173907 52401 99856 3835 25520 35422 11658 6231 3466 78693 126380 8850 13029 18302 25796 1169 3473
leaf_count=1410 46895 12993 42495 31245 6440 2631 6333 401849 33510 126645 61785 72573 23172 133321 3227 85898 15231 150304 2320 4508 31024 5443 4256 71419 71370 6207 30144 6939 106033 40284 16387 12015 29613 78804 131829 29589 27895 99224 42131 29615 88091 131448 100875 37839 33040 2335 2423 13982 22157 50341 1672 103790 29448 64868 25449 2291 20326 5864 14940 78608 55185 11131 41895 4839 8713 9562 7538 15632 247223 26002 74606 113519 2637 110377 24385 8169 10951 23969 120825 45029 7243 26566 4983 19308 12188 48430 104887 137152 47988 206635 6364 28034 29953 58858 5597 59714 157788 193360 105424 239074 47895 239404 14021 64256 11649 57112 10140 46835 7174 31058 173907 52401 99856 3835 25520 35422 11658 6231 3466 78693 126380 8850 13029 18302 25796 1169 3473
