tree
version=v4
num_class=1
num_tree_per_iteration=1
label_index=0
max_feature_idx=4
objective=regression
feature_names=Column_0 Column_1 Column_2 Column_3 Column_4
feature_infos=[4:60] [10.219999313354492:81.939994812011719] [0.035829629749059677:0.99979835748672485] [0:1] [0.016332898288965225:150]
tree_sizes=12070 12621 12677 12623 12649 12631 12659 12656 12634 12702 12632 12645 12614 12700 12686 12675 12649 12672 12708 12717 12690 12628 12691 12688 12662 12705 12693 12642 12620 12713 12730 12710 12709 12589 12680 12702 12656 12766 12691 12657 12651 12688 12670 12692 12752 12707 12701 12565 12624 12769 12519 12629 12794 12586 12630 12620 12611 12650 12537 12480 12456 12622 12514 12573 12561 12392 12626 12668 12354 12642 12343 12659 12455 12412 12476 12613 12540 12390 12290 12362 12450 12344 12419 12399 12563 12257 12445 12288 12458 12210 12514 12423 12363 12477 12408 12435 12634 12231 12603 12341 12540 12124 12120 12253 12447 12128 12543 11933 12210 12264 12245 12230 12366 12509 12547 11877 12017 12402 11855 12128 11936 12342 12370 12361 12203 11731 12156 11957 12337 12045 12430 12252 12487 11798 12005 12470 12165 12100 11956 12200 12486 12369 12068 11981 11931 12157 11972 12163 12484 11856 12295 12015 12490 11930 12057 12432 12368 11946 11834 11793 12046 11718 12428 12131 11930 12062 12019 11817 12313 11660 11962 11963 12420 11964 12386 12396 11920 11945 11888 11870 12023 12027 11939 12316 11968 11649 12007 12113 12111 11935 11742 12438 11763 12431 12134 12143 12443 11706 12138 12068 12015 11745 12378 12326 11996 12070 11941 12029 11470 11980 11996 12067 11892 11748 12083 12027 11738 11491 12058 12017 11934 11923 12096 11506 12085 12147 12111 11962 11939 11471 12000 11992 12328 11920 12153 12339 12111 12319 11848 11880 12004 11744 11788 12256 11971 12005 12001 11502 11926 12022

Tree=0
num_leaves=128
num_cat=0
split_feature=0 3 0 3 1 1 0 3 0 4 1 1 1 0 1 2 2 1 0 1 0 1 0 3 1 2 1 1 4 4 1 0 2 2 3 2 3 0 1 3 4 1 3 2 0 2 1 4 1 0 1 1 3 1 3 4 0 1 2 1 1 3 2 2 2 3 1 1 3 3 1 0 3 1 1 1 1 1 0 1 1 2 4 1 1 2 1 1 1 2 3 2 1 4 4 2 3 4 1 1 2 1 0 4 2 1 1 1 1 0 1 2 2 4 0 1 2 1 0 2 1 1 0 1 2 2 2
split_gain=90200.5 41480.4 30250.5 10149.3 8565.02 7889.79 4345.7 3876.98 3793.04 3510.82 3428.37 2631.94 2391.22 2354.13 1937.06 1524.96 1470.38 1464.2 1380.39 1303.77 1261.06 1204.65 1198.38 1169.93 947.083 931.974 977.567 843.591 798.656 743.169 579.899 548.832 532.567 474.772 459.724 447.943 445.143 443.302 435.717 421.623 414.794 413.61 397.825 388.965 384.374 365.05 362.431 345.096 337.211 325.431 321.654 318.001 308.872 381.302 296.949 291.501 270.819 266.534 258.739 250.66 245.962 277.199 285.191 234.559 232.259 229.834 225.905 216.097 257.407 221.227 209.515 204.28 200.562 191.805 357.831 189.187 179.599 177.434 174.564 273.477 239.741 221.526 206.109 179.266 174.128 173.363 172.054 171.957 171.62 169.596 169.121 168.309 161.22 153.51 151.171 151.154 147.509 146.881 185.137 327.495 145.733 144.603 212.422 142.33 141.99 257.495 212.455 141.396 138.473 137.299 136.47 136.288 133.29 132.893 214.578 155.443 186.039 136.06 132.287 131.852 286.625 223.093 129.982 128.63 126.703 126.53 125.173
threshold=18.689453125000004 0.77634355425834667 8.0014648437500018 0.99921354651451122 57.124998092651374 48.724998474121101 12.361328125000002 0.99347469210624706 30.004882812500004 8.5807833671569842 57.864999771118171 58.88499832153321 19.914999961853031 11.486071586608888 22.48499965667725 0.69716772437095653 0.90298539400100719 60.944997787475593 5.995589256286622 39.454999923706062 5.7817704677581796 76.145000457763686 6.5400390625000009 0.78853973746299755 31.244999885559086 0.8947526514530183 35.674999237060554 60.224998474121101 17.118868827819828 5.044480800628663 44.404998779296882 10.086299896240236 0.89707475900650036 0.63329356908798229 0.36040779948234564 0.95929738879203807 0.36040779948234564 14.894531250000002 72.664997100830092 0.372444897890091 0.93917423486709606 27.474999427795414 0.955263912677765 0.88320690393447887 15.103075027465822 0.92256784439086925 17.425000190734867 12.542737007141115 69.49499893188478 30.004882812500004 59.104997634887702 59.88499832153321 0.99533146619796764 19.914999961853031 0.91294407844543468 24.664251327514652 9.5957031250000018 38.774999618530281 0.46980217099189764 54.774999618530281 54.254999160766609 0.99748638272285473 0.88197144865989696 0.82525262236595165 0.83153381943702709 0.29678028821945196 59.104997634887702 76.145000457763686 0.95761215686798107 0.48364135622978216 78.05499649047853 6.7036132812500009 0.48364135622978216 34.704999923706062 37.784999847412116 62.18499946594239 63.124998092651374 58.88499832153321 13.908203125000002 32.18499946594239 29.154999732971195 0.94653114676475536 13.052814960479738 34.93499946594239 76.395000457763686 0.86581733822822582 37.545000076293952 29.154999732971195 60.944997787475593 0.59918913245201122 0.94815507531166088 0.95041599869728099 36.545000076293952 31.933726310729984 20.960486412048343 0.84246355295181286 0.97906854748725902 14.695100307464601 24.175000190734867 27.134999275207523 0.7690539062023164 66.874996185302749 13.470703125000002 11.335191726684572 0.88548967242240917 69.924999237060561 67.534999847412124 74.094997406005874 15.514999389648439 11.486071586608888 78.694995880126967 0.59918913245201122 0.96245527267456066 16.586207389831547 9.5957031250000018 68.724998474121108 0.97638225555419933 73.395000457763686 6.8609607219696054 0.77446630597114574 28.804999351501468 34.704999923706062 40.922851562500007 72.044998168945327 0.61462000012397777 0.68487754464149486 0.89944052696228038
decision_type=2 2 2 2 2 2 2 2 2 2 2 2 2 2 2 2 2 2 2 2 2 2 2 2 2 2 2 2 2 2 2 2 2 2 2 2 2 2 2 2 2 2 2 2 2 2 2 2 2 2 2 2 2 2 2 2 2 2 2 2 2 2 2 2 2 2 2 2 2 2 2 2 2 2 2 2 2 2 2 2 2 2 2 2 2 2 2 2 2 2 2 2 2 2 2 2 2 2 2 2 2 2 2 2 2 2 2 2 2 2 2 2 2 2 2 2 2 2 2 2 2 2 2 2 2 2 2
left_child=2 8 4 5 20 23 17 27 11 22 12 39 29 21 63 124 38 -7 84 25 40 32 48 -4 33 93 41 54 30 109 -21 65 56 -16 89 60 58 51 101 -2 111 -27 66 72 70 -31 -47 -40 88 90 -34 -8 -25 -54 -3 78 -12 86 -10 -32 61 -26 125 108 87 107 -39 69 -69 -20 -18 -22 -24 -64 92 -46 -58 -38 80 -80 82 -81 -43 -82 123 -53 -28 -35 95 -13 100 -61 -75 119 -55 -6 -86 98 -56 -100 -29 -15 -103 -66 106 -106 -62 -19 -9 -5 -98 -1 -48 114 -52 -116 -117 -115 -71 120 -17 -121 -60 -11 -14 -63 -30
right_child=1 7 3 10 9 6 37 14 36 18 13 34 15 16 24 19 44 31 67 28 71 -23 43 52 35 26 57 49 126 45 59 -33 50 64 -36 -37 77 42 47 -41 -42 55 -44 -45 75 46 112 -49 -50 -51 113 85 53 94 97 -57 76 -59 122 91 104 62 73 -65 103 -67 -68 68 -70 118 -72 -73 -74 74 -76 -77 -78 -79 79 81 83 -83 -84 -85 96 -87 -88 -89 -90 -91 -92 -93 -94 -95 -96 -97 110 -99 99 -101 -102 102 -104 -105 105 -107 -108 -109 -110 -111 -112 -113 -114 117 115 116 -118 -119 -120 121 -122 -123 -124 -125 -126 -127 -128
leaf_value=0.70491973996418988 0.67383360231092726 0.68282127156943184 0.6794558879028294 0.68751444555576124 0.71547547711853665 0.69429612077605263 0.69068848292512852 0.69153364227098491 0.67608734723162822 0.71603868612268251 0.70234377247515833 0.68295808045208317 0.6883093418683538 0.69613030222708039 0.68401098755211642 0.69979955438288022 0.70143733592115542 0.7138609125668719 0.71591183562870186 0.69398900891008031 0.70088698816275918 0.71172330687359864 0.72056029174421865 0.68630778078874921 0.68897197950699929 0.6945392221116008 0.70381816991035651 0.68919987130835914 0.69198846608074283 0.68829044281327978 0.69804532025241783 0.69882398148825531 0.71343895735226071 0.70247742256249746 0.68536150593618161 0.6873405076723188 0.67491614001163913 0.68476188653844006 0.6965566310685718 0.67845292523205969 0.70614144303610782 0.69595604134021982 0.69273775528968706 0.72041760084185968 0.70137789482489943 0.69229373093961477 0.70093649840407235 0.7035526306919061 0.71878608093405416 0.68136662143216165 0.70805970998913137 0.69408602391621543 0.68045176473049773 0.69127155205214152 0.682759451571198 0.68704756932672839 0.69584382322120075 0.69870778713538584 0.67356020143005879 0.69493702629460352 0.69316360922740594 0.69089278599004167 0.69105031022104879 0.6778894356125863 0.6978285436104259 0.70266707442890974 0.69010813063840215 0.70394797230733908 0.71299436646653092 0.70809632514749432 0.71619888782306762 0.69708505078341831 0.71042842399754369 0.69898573057297564 0.69517406485909083 0.6965991018879516 0.7000750024174629 0.67926773881142732 0.70064412916541541 0.69761660754561461 0.70364593960340527 0.68870066557131415 0.70717548309263911 0.69646004262023931 0.71386857457869746 0.6981169320158237 0.70830666600170644 0.69296374273978034 0.73016041902966178 0.6788829510852582 0.69079224901309655 0.70675115996900939 0.70778688264506673 0.6905539178947443 0.6855955273893477 0.7263076228519012 0.72996311559323845 0.68372978058936162 0.69645125333192415 0.6871307887052911 0.68540613941326267 0.69678897900043357 0.6924991377781039 0.69267937321266848 0.68883471268085927 0.69469602291386823 0.69016482317863492 0.69721186117671974 0.68182448237215099 0.68146087453430737 0.71796842056787757 0.72455012684409859 0.71519117666545107 0.70022545573992689 0.70449007262566499 0.70138658201298409 0.68760959915227582 0.70947899002358705 0.7047928757870926 0.69673435492433333 0.69392618734351563 0.69930342393286793 0.67144215897085702 0.71079715934302412 0.69204219339111928 0.69352015278422008 0.69438711127815811
leaf_weight=1094 100545 84031 53576 14550 4250 125697 64780 6485 64932 34109 108350 55907 34839 215116 6308 29099 240718 7395 5747 159039 50506 34480 5760 209629 31733 47991 57905 110930 115244 28584 388846 157687 9117 34035 163812 41770 46582 22379 40107 97106 31773 27318 184329 21268 28764 20720 8362 31449 15275 12762 32304 172392 10398 87239 20180 4429 34164 17305 159443 101485 209491 56957 16669 21606 44341 115659 168786 10870 28429 45520 2428 117590 32131 13029 71923 73972 94319 47121 45600 20256 69827 10619 4815 9911 5542 31557 33820 5520 24527 46991 136360 3107 8663 8847 13553 13296 4880 39390 10319 108753 32799 44412 82394 19245 81591 24324 82253 1541 8467 26293 4613 4610 2040 34758 48504 13277 3005 4485 90671 239825 72589 130478 132740 17820 65417 234437 103002
leaf_count=1094 100545 84031 53576 14550 4250 125697 64780 6485 64932 34109 108350 55907 34839 215116 6308 29099 240718 7395 5747 159039 50506 34480 5760 209629 31733 47991 57905 110930 115244 28584 388846 157687 9117 34035 163812 41770 46582 22379 40107 97106 31773 27318 184329 21268 28764 20720 8362 31449 15275 12762 32304 172392 10398 87239 20180 4429 34164 17305 159443 101485 209491 56957 16669 21606 44341 115659 168786 10870 28429 45520 2428 117590 32131 13029 71923 73972 94319 47121 45600 20256 69827 10619 4815 9911 5542 31557 33820 5520 24527 46991 136360 3107 8663 8847 13553 13296 4880 39390 10319 108753 32799 44412 82394 19245 81591 24324 82253 1541 8467 26293 4613 4610 2040 34758 48504 13277 3005 4485 90671 239825 72589 130478 132740 17820 65417 234437 103002
internal_value=0.693565 0.685769 0.697389 0.696015 0.708238 0.692529 0.694747 0.69069 0.677304 0.712839 0.697631 0.680476 0.696319 0.699753 0.692522 0.696738 0.698096 0.698785 0.709478 0.697091 0.700076 0.702772 0.719999 0.686295 0.692943 0.698508 0.700471 0.68733 0.695739 0.688815 0.696615 0.700784 0.701965 0.697327 0.683716 0.692393 0.674037 0.69219 0.696083 0.676103 0.70837 0.698693 0.69108 0.715006 0.700501 0.69237 0.696117 0.699631 0.725149 0.689175 0.704346 0.69374 0.687438 0.689568 0.685272 0.699727 0.700503 0.704399 0.673232 0.697461 0.692647 0.693471 0.693826 0.681221 0.698141 0.703264 0.689482 0.707211 0.710492 0.706303 0.701585 0.698227 0.711969 0.695992 0.696872 0.697937 0.69895 0.677104 0.700025 0.698184 0.701283 0.69455 0.697637 0.702753 0.715612 0.69471 0.705473 0.70115 0.727459 0.681097 0.689531 0.695288 0.702501 0.697079 0.690508 0.723684 0.72035 0.686425 0.687188 0.687939 0.688334 0.695341 0.694002 0.69627 0.691749 0.690181 0.692318 0.71099 0.686036 0.683617 0.724134 0.720785 0.703732 0.703738 0.704731 0.703071 0.698844 0.701283 0.705897 0.697202 0.695607 0.69764 0.672598 0.71424 0.690745 0.693007 0.693121
internal_weight=7.56471e+06 2.48955e+06 5.07516e+06 4.50488e+06 570281 1.4266e+06 1.0522e+06 1.57437e+06 915179 364708 3.07828e+06 464361 1.90216e+06 1.17612e+06 1.01885e+06 1.80161e+06 759360 407979 248201 1.70136e+06 205573 416763 116507 374395 982289 830634 349796 555524 870723 100549 652477 282282 382283 109449 266710 872840 450818 644223 413478 197651 37477 240766 375494 59159 345882 59706 31122 71556 57348 292851 145450 268729 320819 111190 262673 192775 236833 109030 357115 493438 831070 433411 401678 36558 103141 124595 191165 181237 39299 141938 243146 168096 37891 110284 93615 102736 128483 93703 188346 76475 111871 30875 32133 79738 66964 203949 91725 39555 42073 102898 280089 104592 21692 480838 100792 17546 15035 178642 139252 119072 143729 341922 126806 63586 397659 105915 291744 8936 14952 40843 9493 5704 10402 136333 97090 64786 16282 39243 136191 471991 101688 370303 292183 51929 100256 291394 218246
internal_count=7564713 2489550 5075163 4504882 570281 1426597 1052202 1574371 915179 364708 3078285 464361 1902162 1176123 1018847 1801613 759360 407979 248201 1701357 205573 416763 116507 374395 982289 830634 349796 555524 870723 100549 652477 282282 382283 109449 266710 872840 450818 644223 413478 197651 37477 240766 375494 59159 345882 59706 31122 71556 57348 292851 145450 268729 320819 111190 262673 192775 236833 109030 357115 493438 831070 433411 401678 36558 103141 124595 191165 181237 39299 141938 243146 168096 37891 110284 93615 102736 128483 93703 188346 76475 111871 30875 32133 79738 66964 203949 91725 39555 42073 102898 280089 104592 21692 480838 100792 17546 15035 178642 139252 119072 143729 341922 126806 63586 397659 105915 291744 8936 14952 40843 9493 5704 10402 136333 97090 64786 16282 39243 136191 471991 101688 370303 292183 51929 100256 291394 218246
is_linear=0
shrinkage=1


Tree=1
num_leaves=128
num_cat=0
split_feature=0 3 0 3 1 1 0 0 3 1 4 0 1 1 1 1 2 1 4 0 3 0 0 2 1 2 1 1 4 1 0 2 0 0 1 2 2 3 2 3 1 0 4 3 4 2 1 2 1 1 3 1 0 3 0 1 2 1 3 2 2 0 1 1 1 3 1 4 2 4 3 1 2 1 0 4 1 2 1 1 3 4 0 2 0 1 4 1 1 1 3 2 1 2 1 1 4 0 0 0 2 2 4 2 1 1 1 1 4 1 1 3 4 2 1 2 1 2 1 1 3 1 3 3 2 1 0
split_gain=81528.6 36002 28008.3 9723.56 7379.54 7338.58 4342.73 3237.29 3235.57 3191.43 3137.73 2433.44 2268.75 2184.15 1616.63 1570.98 1422.65 1363.79 1212.52 1174.65 1136.3 1057.39 1036.5 903.814 803.358 788.634 726.439 1002.37 703.578 695.514 650.357 544.818 539.022 460.164 412.181 410.926 410.193 399.731 393.797 393.628 389.266 378.22 424.525 371.641 368.515 341.757 340.02 326.389 325.157 304.988 299.441 350.918 281.6 264.423 254.094 244.415 263.333 224.635 222.958 237.327 222.443 222.29 216.069 286.857 216.898 212.323 211.028 210.428 207.158 189.589 184.366 179.843 170.342 167.632 165.014 160.908 157.325 156.079 155.716 294.173 152.811 151.949 150.768 150.493 149.717 143.97 143.682 143.671 142.871 187.785 142.655 139.202 137.396 133.906 234.682 179.659 133.546 133.453 133.129 131.378 130.453 129.782 128.697 128.381 236.731 139.359 533.991 228.404 127.548 126.949 125.466 126.155 125.315 124.189 123.477 122.005 121.646 120.147 119.548 211.532 119.175 118.851 118.135 117.434 116.128 114.849 114.794
threshold=19.127929687500004 0.77634355425834667 7.8911943435668954 0.99921354651451122 56.944997787475593 48.724998474121101 12.361328125000002 30.004882812500004 0.99347469210624706 57.864999771118171 9.0169444084167498 14.032226562500002 58.88499832153321 19.914999961853031 22.48499965667725 76.145000457763686 0.69716772437095653 60.804998397827156 20.960486412048343 5.7817704677581796 0.78853973746299755 5.7817704677581796 6.5400390625000009 0.89238551259040844 31.244999885559086 0.8947526514530183 39.004999160766609 28.804999351501468 4.9813089370727548 60.224998474121101 10.158203125000002 0.90864667296409618 9.8134765625000018 15.165039062500002 35.93499946594239 0.66025137901306163 0.64526751637458812 0.36040779948234564 0.95929738879203807 0.95655804872512828 57.124998092651374 9.8134765625000018 10.081614494323732 0.372444897890091 1.0214021205902102 0.92157676815986644 17.425000190734867 0.87856251001358043 69.49499893188478 59.88499832153321 0.99533146619796764 19.914999961853031 30.004882812500004 0.91294407844543468 14.096225261688234 32.18499946594239 0.94653114676475536 54.254999160766609 0.99748638272285473 0.88548967242240917 0.83038440346717846 6.8609607219696054 44.404998779296882 53.224998474121101 56.564998626708991 0.3091153502464295 59.104997634887702 14.25757932662964 0.82658794522285473 13.44713878631592 0.36040779948234564 72.184997558593764 0.86581733822822582 60.944997787475593 6.7036132812500009 22.368992805480961 76.395000457763686 0.8471561372280122 34.704999923706062 37.784999847412116 0.94815507531166088 35.39479064941407 16.297851562500004 0.63329356908798229 39.545898437500007 56.744998931884773 20.960486412048343 62.024999618530281 77.724998474121108 79.734996795654311 0.97680786252021801 0.80085888504982006 29.154999732971195 0.88548967242240917 69.924999237060561 67.534999847412124 10.435649394989015 10.220703125000002 11.486071586608888 9.7436327934265154 0.77090781927108776 0.96245527267456066 14.25757932662964 0.76724284887313854 29.154999732971195 39.694999694824226 44.864999771118171 34.704999923706062 10.826743125915529 36.545000076293952 76.395000457763686 0.955263912677765 44.271789550781257 0.94049912691116344 44.404998779296882 0.60979238152503978 39.224998474121101 0.94909518957138073 25.005000114440922 32.18499946594239 0.39776450395584112 15.514999389648439 0.97994905710220348 0.33378966152668005 0.59918913245201122 59.714998245239265 11.673828125000002
decision_type=2 2 2 2 2 2 2 2 2 2 2 2 2 2 2 2 2 2 2 2 2 2 2 2 2 2 2 2 2 2 2 2 2 2 2 2 2 2 2 2 2 2 2 2 2 2 2 2 2 2 2 2 2 2 2 2 2 2 2 2 2 2 2 2 2 2 2 2 2 2 2 2 2 2 2 2 2 2 2 2 2 2 2 2 2 2 2 2 2 2 2 2 2 2 2 2 2 2 2 2 2 2 2 2 2 2 2 2 2 2 2 2 2 2 2 2 2 2 2 2 2 2 2 2 2 2 2
left_child=2 7 4 5 21 20 17 12 29 13 22 15 43 28 68 23 115 99 25 76 123 44 48 30 36 85 27 69 98 53 87 -13 65 49 54 40 -16 83 57 66 -9 42 117 -2 124 -30 -47 70 73 90 -22 -52 80 118 -29 -56 -57 58 -26 -60 92 -21 -28 -64 -65 102 -35 82 121 -27 -24 -32 -51 77 -23 126 -12 -6 -61 109 100 116 -33 -14 -37 103 -53 -11 -77 -90 -8 -55 -38 95 -95 -59 -62 -66 -5 -7 -31 -48 -19 104 -18 107 -107 -105 -108 -80 -63 -112 -68 -36 -106 -15 -20 -25 -3 -120 -42 -10 -78 -4 -1 -119 -17
right_child=1 8 3 9 10 6 33 35 14 11 19 31 37 16 24 75 18 32 81 61 50 74 47 41 38 26 62 34 45 52 71 67 -34 39 113 84 60 -39 -40 -41 120 -43 -44 -45 -46 46 101 -49 -50 72 51 86 -54 91 55 56 -58 93 59 78 96 110 63 64 97 -67 112 -69 -70 -71 -72 -73 -74 -75 -76 88 122 -79 79 -81 -82 -83 -84 -85 -86 -87 -88 -89 89 -91 -92 -93 -94 94 -96 -97 -98 -99 -100 -101 -102 -103 -104 105 114 106 108 -109 -110 -111 111 -113 -114 -115 -116 -117 -118 125 119 -121 -122 -123 -124 -125 -126 -127 -128
leaf_value=0.010684458318588353 -0.018793032657182671 -0.014139735841459174 -0.017719046192201729 -0.0057052441383522697 0.020650318548208962 0.0028574852641712056 -0.0057010194222910787 -0.019551782899116511 -0.0018384115253621187 0.0040809511442247625 0.020173760439289451 0.0013706934499042808 -0.01034643868381329 -0.0051252869192744696 -0.008259929294542636 0.015451567670707142 0.0060824253128293534 0.020934231001634218 0.0027028398920439143 0.015376780924575071 -0.0069199394725917678 0.006890409535467404 0.027203948565109867 0.014796430256389695 -0.0043137802580746898 0.0016315606347901289 0.001129014167361648 0.0085605421652864954 -0.0050853373869827719 -0.004247534167720504 0.0029423914859766911 0.0055010276576950064 0.0052142431042333038 -0.0085659219098706014 0.0098593527765447816 -0.018656776832853376 0.0087867682745181464 -0.0079051119851411972 -0.0061563414182272506 -0.00091646619519792521 -0.016089695413481788 0.0078978109065582364 0.0086575230024147406 -0.014401615561521372 0.011721380799093272 -0.0012970234301948385 0.0068454755451006176 0.025371933405725362 0.023808533536922669 0.00036350403798415267 -0.012345018733715241 -0.0021639870259545506 -0.011571838248230779 -0.0051682151033168805 0.0082436659597738531 0.004747751883509968 -0.0045842163888508451 -0.00048621101889423119 -0.00057249859213049595 -0.0024448173003963421 0.0042641067078363027 0.010925467724548589 0.0057680983104978021 -0.00089273873137824889 0.014875934948162079 0.0090167694548107941 -0.0030375147690699599 0.0085962717066600264 -0.015055100074848643 0.0086041819185169212 0.01626672495776843 0.006576058838932853 0.0041749754880389938 0.034818949751976101 0.0033888037120378281 0.015329054737583239 0.020161280198677342 0.031240608026579977 0.0052584263831545386 0.0014942610574838159 -0.0026702317680427326 -0.0028901008386198954 0.0019065696037767407 -0.014290406823574908 -0.021132350918793195 -0.0014341740013535378 -0.007584925913581635 0.0084415723694787701 0.028426866207789843 0.014967891245674256 -0.0010780520940589264 -0.0080538636712152514 -0.0004677377324620498 -0.004782061345860001 0.0010812933639345753 -0.0033529075856281627 -0.00079889039543494891 0.0033411360642297827 -0.011653379482875785 -0.00052156895002233188 -0.0079647672299263828 0.020614993311450679 0.0069155511327189424 0.003038765887206502 -0.0002604728145339386 -0.00099973424565946321 0.0040769555752489884 0.0055823882812937077 0.0018216852308467844 0.01354120150392351 0.0085423459269588012 0.017487070935266365 -0.0072117322048455739 0.013822258467500383 0.0028937280717562779 -0.0014917007212909383 -0.00043922437340936028 0.032797533216108406 -0.0033723765829852502 -0.01068357826960529 -0.012631180237111468 -0.011130906352692035 0.030251719594738671 -0.012254413720042743 0.028393813058292396 0.018269054852453972 0.0085438451770650028
leaf_weight=1135 98745 15941 12615 14505 4684 44837 26610 82932 6038 22178 42571 261912 59714 34192 6850 19828 26080 6236 42091 73464 219202 49836 4386 23466 29845 83945 84905 93363 29012 105192 194319 76986 177243 23496 54602 118903 30361 157231 38467 185860 89390 280518 40769 94082 30648 21619 9074 21550 15906 191176 10833 90880 12577 74673 23589 22526 11378 194262 275083 14666 37539 83912 102651 35401 3665 104566 155386 33671 20034 11030 31710 41287 34623 25084 103564 12627 4578 13525 11664 63139 127438 45080 46973 40655 125576 18555 14123 127374 6608 4264 44751 94913 4621 75383 22060 76051 19944 7940 26765 80252 30430 2109 2220 243051 86004 81162 253213 138572 83322 7667 5259 15740 20333 30990 48539 71226 114875 1899 12191 52489 34530 8000 7917 44553 5020 4795 8633
leaf_count=1135 98745 15941 12615 14505 4684 44837 26610 82932 6038 22178 42571 261912 59714 34192 6850 19828 26080 6236 42091 73464 219202 49836 4386 23466 29845 83945 84905 93363 29012 105192 194319 76986 177243 23496 54602 118903 30361 157231 38467 185860 89390 280518 40769 94082 30648 21619 9074 21550 15906 191176 10833 90880 12577 74673 23589 22526 11378 194262 275083 14666 37539 83912 102651 35401 3665 104566 155386 33671 20034 11030 31710 41287 34623 25084 103564 12627 4578 13525 11664 63139 127438 45080 46973 40655 125576 18555 14123 127374 6608 4264 44751 94913 4621 75383 22060 76051 19944 7940 26765 80252 30430 2109 2220 243051 86004 81162 253213 138572 83322 7667 5259 15740 20333 30990 48539 71226 114875 1899 12191 52489 34530 8000 7917 44553 5020 4795 8633
internal_value=1.03437e-06 -0.00768506 0.00350748 0.00225603 0.014281 -0.00107452 0.00102322 -0.0155478 -0.00285359 0.00382467 0.0185861 0.00584502 -0.0125489 0.00257619 -0.00109918 0.00748182 0.00297048 0.005054 0.00331095 0.0152381 -0.00694502 0.00635242 0.025275 0.0068891 -0.000697781 0.00378745 0.00527302 0.00677999 -0.0045074 -0.00599537 0.00521607 0.00276851 0.00693481 -0.00143078 0.00852271 -0.0185406 0.00354599 -0.00947877 -0.00121922 -0.00257151 -0.0169004 0.0087226 0.0119846 -0.0166504 0.0139636 -0.00113216 0.00236426 0.0205027 0.029922 4.74337e-05 -0.00583332 -0.00377705 -0.00426286 -0.00790396 0.00695025 0.00433528 0.00161599 -0.000972515 -0.000155657 0.000177746 0.0044206 0.0132675 0.00314375 0.00428678 0.00105189 0.00963304 -0.0041156 0.00509106 -0.0117915 0.00244133 0.0175957 0.00357915 0.000947938 0.0321681 0.00452639 0.0158845 0.0216217 0.0285164 0.00230239 0.00314661 -0.00391342 -0.000331491 0.00413894 -0.011944 -0.0199283 0.00292816 -0.00289311 0.00779491 0.0189467 0.0231483 -0.00280192 -0.00678324 0.00756428 -0.00186558 -0.00345466 -0.00129274 0.00250748 0.00698397 -0.00956281 0.000689622 -0.00508158 0.00944227 0.0172538 0.00301248 0.00172258 0.00327168 0.00264063 0.00396239 0.00351858 0.00854351 0.0117905 0.0152469 -0.00352053 0.0112942 0.000877466 -0.00267024 0.000403332 0.016482 -0.0102614 -0.00930555 -0.015126 -0.00713403 0.0265547 -0.0134603 0.0251282 0.0223906 0.0133563
internal_weight=7.5627e+06 2.36928e+06 5.19342e+06 4.65293e+06 540489 1.4898e+06 1.09759e+06 901758 1.46752e+06 3.16314e+06 350286 1.20811e+06 450427 1.95503e+06 941674 788565 1.85195e+06 415354 1.74653e+06 233441 392206 190203 116845 736605 907602 1.54448e+06 565985 331423 103084 525844 385158 419542 290265 682235 236448 451331 99315 257600 808287 385075 206852 351447 70929 192827 36803 61814 32802 57646 59199 297160 335038 115836 275637 250207 150856 57493 33904 769820 402064 372219 92465 178375 234562 149657 47006 113022 199215 157630 34072 94975 36096 235606 225799 43293 153400 51960 55066 18209 97136 82470 263060 202046 123959 100369 244479 978498 105003 149552 23499 10872 71361 169586 34982 367756 97443 270313 57483 11605 41270 125089 135622 11183 8456 959943 160623 799320 417697 381623 336535 19331 104911 20999 175719 85592 134543 105418 156966 30160 80621 64680 123920 14038 12495 57168 6155 6694 28461
internal_count=7562698 2369276 5193422 4652933 540489 1489795 1097589 901758 1467518 3163138 350286 1208107 450427 1955031 941674 788565 1851947 415354 1746529 233441 392206 190203 116845 736605 907602 1544483 565985 331423 103084 525844 385158 419542 290265 682235 236448 451331 99315 257600 808287 385075 206852 351447 70929 192827 36803 61814 32802 57646 59199 297160 335038 115836 275637 250207 150856 57493 33904 769820 402064 372219 92465 178375 234562 149657 47006 113022 199215 157630 34072 94975 36096 235606 225799 43293 153400 51960 55066 18209 97136 82470 263060 202046 123959 100369 244479 978498 105003 149552 23499 10872 71361 169586 34982 367756 97443 270313 57483 11605 41270 125089 135622 11183 8456 959943 160623 799320 417697 381623 336535 19331 104911 20999 175719 85592 134543 105418 156966 30160 80621 64680 123920 14038 12495 57168 6155 6694 28461
is_linear=0
shrinkage=0.05


Tree=2
num_leaves=128
num_cat=0
split_feature=0 3 0 3 1 1 0 3 1 0 4 1 0 1 1 3 2 2 4 1 0 0 0 1 2 1 1 1 1 4 0 1 0 2 3 3 2 2 4 4 3 1 1 2 1 4 3 1 3 0 4 0 3 1 2 3 0 0 2 3 2 1 2 4 1 1 1 0 1 4 1 1 4 4 0 2 2 3 4 1 1 1 1 3 3 1 3 1 3 2 0 0 1 1 1 1 0 1 4 2 1 4 2 2 1 0 1 1 2 2 1 1 1 4 0 1 2 1 1 2 0 2 1 3 4 3 1
split_gain=73763.4 35201.2 23942.5 7463.11 6382.17 6005.89 3714 3412.98 3287.51 3251.08 2656.8 2271.28 2219.29 1791.43 1710.92 1265.13 1260.92 1180.53 1074.53 899.583 891.897 864.047 794.546 776.631 752.664 735.806 673.975 647.558 888.686 576.41 505.897 466.427 456.269 420.456 385.964 382.37 379.266 377.715 376.668 351.527 349.403 341.743 334.089 352.266 310.611 300.334 299.305 298.615 295.587 295.012 287.625 283.857 273.644 270.605 261.706 257.883 233.236 232.69 222.778 213.521 213.462 207.103 229.195 239.178 200.38 237.57 197.294 181.829 193.152 180.779 229.796 259.578 175.104 174.362 173.087 171.95 171.741 171.234 168.853 197.442 304.777 166.604 162.763 161.474 158.443 151.672 150.364 149.197 143.351 142.968 142.837 141.947 141.471 139.648 138.948 137.832 136.485 131.528 129.334 129.212 128.34 126.01 124.527 123.371 123.073 121.133 207.501 120.158 120.524 118.037 145.122 310.588 130.543 116.945 114.706 114.51 114.15 200.413 141.991 114.02 113.63 112.371 112.224 139.449 112.196 165.353 112.165
threshold=18.191406250000004 0.77634355425834667 7.6566710472106942 0.99974423646926891 59.314998626708991 57.124998092651374 11.861328125000002 0.99533146619796764 57.864999771118171 30.004882812500004 9.5577278137207049 58.88499832153321 10.930830955505373 19.914999961853031 22.48499965667725 0.92051592469215404 0.90180790424346935 0.70561969280242931 20.960486412048343 76.145000457763686 5.7817704677581796 5.5278000831604013 6.3681640625000009 31.244999885559086 0.89590048789978038 60.054998397827156 48.334999084472663 39.004999160766609 28.804999351501468 4.9813089370727548 9.2207031250000018 72.664997100830092 14.344726562500002 0.64526751637458812 0.36040779948234564 0.36040779948234564 0.95929738879203807 0.89707475900650036 9.2955145835876483 13.707841396331789 0.372444897890091 51.164999008178718 13.784999847412111 0.93603965640068065 35.93499946594239 11.129593372344972 0.91294407844543468 69.49499893188478 0.7420768439769746 8.7978515625000018 0.85563099384307872 30.952148437500004 0.99639636278152477 19.244999885559086 0.87856251001358043 0.96512547135353099 15.165039062500002 9.1408829689025897 0.63754624128341686 0.29678028821945196 0.82785588502883922 54.254999160766609 0.72087925672531139 35.39479064941407 44.404998779296882 49.114999771118171 58.13499832153321 14.032226562500002 32.18499946594239 1.3429820537567141 19.914999961853031 16.364998817443851 13.44713878631592 3.4573607444763188 11.6093807220459 0.94653114676475536 0.8645627796649934 0.53312510251998912 16.078120231628422 24.175000190734867 29.804999351501468 29.154999732971195 76.395000457763686 0.99914348125457775 0.94815507531166088 58.88499832153321 0.955263912677765 16.364998817443851 0.50366967916488659 0.5936851203441621 10.930830955505373 10.539501190185549 59.514999389648445 62.974998474121101 76.395000457763686 79.734996795654311 21.714843750000004 61.54499816894532 12.211873054504396 0.93708014488220226 57.364999771118171 33.016242980957038 0.82525262236595165 0.62870869040489208 43.334999084472663 13.219906806945803 66.874996185302749 74.724998474121108 0.77814000844955455 0.88320690393447887 34.704999923706062 37.784999847412116 36.545000076293952 47.374691009521491 10.609863281250002 27.134999275207523 0.88433700799942028 69.924999237060561 67.534999847412124 0.7690539062023164 32.014160156250007 0.68807518482208263 46.864999771118171 0.99585491418838512 40.295936584472663 0.29678028821945196 56.744998931884773
decision_type=2 2 2 2 2 2 2 2 2 2 2 2 2 2 2 2 2 2 2 2 2 2 2 2 2 2 2 2 2 2 2 2 2 2 2 2 2 2 2 2 2 2 2 2 2 2 2 2 2 2 2 2 2 2 2 2 2 2 2 2 2 2 2 2 2 2 2 2 2 2 2 2 2 2 2 2 2 2 2 2 2 2 2 2 2 2 2 2 2 2 2 2 2 2 2 2 2 2 2 2 2 2 2 2 2 2 2 2 2 2 2 2 2 2 2 2 2 2 2 2 2 2 2 2 2 2 2
left_child=2 9 5 4 15 21 30 25 13 11 22 40 19 29 73 41 31 103 24 37 94 50 47 33 126 46 52 28 72 114 59 105 76 -16 89 58 61 57 49 -33 -2 48 -31 90 67 56 120 85 -4 -39 -1 84 -17 -54 77 113 95 -10 66 -6 81 62 104 83 -29 -66 -11 -30 -69 -23 71 -71 -26 -9 -43 -70 -8 -24 79 87 102 -35 88 -64 119 -7 -84 -48 -22 -13 -44 -28 -37 -59 -12 -18 -63 -32 -62 -47 -67 -20 -81 -15 -25 -14 -107 108 -86 -85 -111 112 -112 -34 -5 -105 118 -118 -98 -27 -3 -36 123 -72 125 -99 -19
right_child=1 7 3 8 6 10 32 14 12 35 20 34 16 17 23 26 45 18 101 -21 82 69 54 36 27 51 91 64 44 42 97 39 55 60 121 92 -38 38 -40 -41 -42 74 43 -45 -46 99 78 -49 -50 -51 -52 -53 53 -55 -56 -57 -58 93 -60 -61 98 96 63 -65 65 100 -68 68 75 70 122 -73 -74 -75 -76 -77 -78 -79 -80 80 -82 -83 86 109 107 -87 -88 -89 -90 -91 -92 -93 -94 -95 -96 -97 116 124 -100 -101 -102 -103 -104 115 -106 106 -108 -109 -110 110 111 -113 -114 -115 -116 -117 117 -119 -120 -121 -122 -123 -124 -125 -126 -127 -128
leaf_value=0.026246287110495578 -0.01778791784136554 -0.009079787375618412 -0.013255056153029569 -0.004438598703356624 0.018144183692084256 0.02617777009950762 0.00098291248487969787 -0.014485009946857034 0.0089305174395561768 -0.018869322204548979 0.019057460367180635 -0.0094293879466947565 0.0030451640014078933 -0.0043981127597131258 -0.0077296423289506221 -0.0060290430195408945 0.0062991844362268404 0.0029371653744811052 0.00057148404322326604 0.016644778453540943 0.020199657132785116 0.010974889214251243 0.025659228074316604 -0.0030220254501840786 0.0016218354311799375 -0.0039036858190930426 0.0016212831065311282 0.0011959986486880017 0.0082790477203126094 -0.0041701360688848142 0.0020994378912011966 0.0032344683122398875 -0.0021488357681530186 0.0083678477930581013 -0.0065374414089259224 -0.016672149584945648 -0.0053878386264716088 0.020536599773988806 0.0083576508569161972 0.010075617646182566 -0.013635119680466545 -0.00059689104330441182 0.0024076313488099353 0.010893311992323464 0.010822088972549734 0.0063892598381478597 -0.005355738629014381 0.022876542985865389 -0.0078034248929560908 0.011614068617438945 0.012412691920435349 -0.011382816250566512 -0.010278575313779488 -0.0019153715609149702 0.024865876985748433 0.00035943020299383267 0.0027669588802683664 0.0026529511882929461 -0.019367756193297832 0.0091641243432176878 0.0038219517142094486 -0.00052743398553859659 -0.0017752926951902133 -0.0073630222952242655 0.0069014833827590119 0.0022441145878877421 -0.015102251271672782 0.0082502720763275826 0.004582373738843442 -0.0033696397178866718 -0.0054931055715162031 0.011097128834398513 0.0085799569191963281 -0.0075774246485621928 -0.0070923130731904557 -0.0036398857421834118 0.0048737249959829778 0.016290942821154456 -0.0090550947554129124 0.0032864619622282793 -0.0056964869345623136 -0.0015096219669145682 0.010601321613880926 0.0005984594644574782 -0.0019806985085323455 0.033209923941479175 0.018333945743421759 -0.013263521049806765 0.011682852545775921 -0.013126535485391484 -0.0070884488330012546 -0.0015999475012260706 -0.012790995175639745 0.00657508372543196 0.025098214671022363 0.028318001733504562 -0.0007021447462015807 0.012910973700617237 -0.00097703824163551363 0.0093786925677736346 0.011293134637688378 -0.0022476137372733815 -0.0060379884515983275 0.0052159264577282434 0.00077013552028274432 0.0022652009750635158 -0.00089592749193590556 0.00070766925831196672 -0.0051345803098187016 -0.0016422457545993393 0.0053674169616801139 0.001770985979195907 0.013171343447637105 -0.0061412763773209273 -0.01045656947095522 -0.0015691019825767383 -0.0057476332466101813 0.0014571480279562349 -0.0040775281786362078 -0.0071251691184919313 -0.015203150541562533 -0.0094556740315862794 0.0049997980865210982 0.0027045538841742349 0.0033119969530236897 0.0060689032094469247 -0.0010890978655590377
leaf_weight=4458 102100 78548 42252 11105 7155 10540 169898 20150 94437 63625 41443 56368 126702 39253 7943 161844 154907 910305 141593 35629 5171 11674 5847 76663 77211 119717 45079 81800 89954 34832 26086 44753 164806 34446 126821 48186 44535 12775 76374 32352 100515 15745 10868 9657 82411 57921 10880 14483 60419 33709 23912 11837 10763 95449 21274 123005 61679 29757 217288 88438 53952 198258 48670 9000 54236 81978 76606 20064 19168 3659 5900 20323 10241 16713 29421 9515 34045 29421 41345 14735 127517 4873 8773 192193 93641 28138 22184 13203 110921 48774 6230 141707 45792 95629 12358 714 112013 9478 18978 96151 4115 55051 4730 6927 29679 142129 81785 25933 44776 16295 12800 65559 9218 20639 27592 60791 46032 12213 43163 35645 8385 44585 55558 42970 33492 129218 17633
leaf_count=4458 102100 78548 42252 11105 7155 10540 169898 20150 94437 63625 41443 56368 126702 39253 7943 161844 154907 910305 141593 35629 5171 11674 5847 76663 77211 119717 45079 81800 89954 34832 26086 44753 164806 34446 126821 48186 44535 12775 76374 32352 100515 15745 10868 9657 82411 57921 10880 14483 60419 33709 23912 11837 10763 95449 21274 123005 61679 29757 217288 88438 53952 198258 48670 9000 54236 81978 76606 20064 19168 3659 5900 20323 10241 16713 29421 9515 34045 29421 41345 14735 127517 4873 8773 192193 93641 28138 22184 13203 110921 48774 6230 141707 45792 95629 12358 714 112013 9478 18978 96151 4115 55051 4730 6927 29679 142129 81785 25933 44776 16295 12800 65559 9218 20639 27592 60791 46032 12213 43163 35645 8385 44585 55558 42970 33492 129218 17633
internal_value=-1.10688e-06 -0.00675413 0.00360968 0.00246609 -0.000542001 0.014231 0.00236747 -0.00248345 0.00386027 -0.0145747 0.0183545 -0.011706 0.00592832 0.00255295 -0.000767993 -0.00443427 0.0044347 0.00292286 0.00325184 0.00908324 0.0149366 0.00662923 0.0246121 -0.000391524 0.00371959 -0.00540198 -0.00312823 0.00522147 0.00670337 -0.0039474 0.00684851 0.00258398 -0.000202497 0.00338746 -0.00875948 -0.0176191 -0.000887222 0.00829706 0.0105175 0.0061049 -0.0157278 -0.00845248 -0.000942607 0.00325927 0.00839089 0.00656623 -0.00719904 0.0290005 -0.0100469 0.0140662 0.0145865 -0.00377948 -0.00473488 -0.00276286 0.020486 -0.00141572 0.00536894 0.00705606 -0.0183651 0.00983627 0.00417413 -0.000657301 7.17019e-05 0.000683588 0.00316294 0.0043095 -0.0168114 0.00694637 0.00448715 0.00501772 0.00447614 0.00888989 0.00243666 -0.0113532 -0.00482799 0.00185481 0.00163242 0.0178441 -0.00618758 -0.00549453 -0.00480693 0.00714368 0.0129212 0.000893661 -0.00349797 0.0312936 0.0161426 -0.00969101 0.0120622 -0.0111444 -0.00105246 -0.000822535 -0.014781 0.00564427 0.020445 0.00640021 -0.00147201 0.00540804 0.00257315 0.00825486 0.00267663 -0.00021773 0.00102062 -0.00216784 -0.00196367 0.00180969 0.00111059 -0.00241575 -0.00300094 0.00133241 0.00269043 0.00349659 0.00863459 -0.00259317 -0.00872957 -0.000875049 -0.00234947 -0.00423691 -0.00164102 -0.0046428 -0.00967041 -0.00729651 0.00346252 0.00171486 0.00590928 0.00653647 0.00286066
internal_weight=7.56278e+06 2.6349e+06 4.92788e+06 4.44887e+06 1.40894e+06 479007 806260 1.70424e+06 3.03993e+06 930660 310553 479163 1.1774e+06 1.86253e+06 1.07335e+06 602679 799093 1.76225e+06 1.65528e+06 378310 200850 168454 109703 1.03648e+06 1.45863e+06 630892 454842 530693 308564 100284 293867 427721 512393 120192 276548 451497 916291 342681 122858 77105 202615 147837 61587 26755 221112 371372 299343 53161 102671 46484 28370 331549 268056 106212 56542 308450 217300 219823 357519 95593 112249 871756 460077 353735 222129 140329 140231 138701 48747 140084 128410 23982 87452 36863 45166 28683 203943 35268 212410 171065 146982 39319 147049 344735 319712 38678 30957 24083 116092 105142 17098 186786 93978 125386 53801 155621 411679 198274 72930 154072 86093 196644 19465 106971 106342 350616 223914 164350 138417 296065 103872 87577 22018 185445 38697 67718 213421 58245 155176 155362 86933 171406 104428 48870 172188 138696 927938
internal_count=7562777 2634898 4927879 4448872 1408939 479007 806260 1704238 3039933 930660 310553 479163 1177403 1862530 1073346 602679 799093 1762246 1655275 378310 200850 168454 109703 1036483 1458631 630892 454842 530693 308564 100284 293867 427721 512393 120192 276548 451497 916291 342681 122858 77105 202615 147837 61587 26755 221112 371372 299343 53161 102671 46484 28370 331549 268056 106212 56542 308450 217300 219823 357519 95593 112249 871756 460077 353735 222129 140329 140231 138701 48747 140084 128410 23982 87452 36863 45166 28683 203943 35268 212410 171065 146982 39319 147049 344735 319712 38678 30957 24083 116092 105142 17098 186786 93978 125386 53801 155621 411679 198274 72930 154072 86093 196644 19465 106971 106342 350616 223914 164350 138417 296065 103872 87577 22018 185445 38697 67718 213421 58245 155176 155362 86933 171406 104428 48870 172188 138696 927938
is_linear=0
shrinkage=0.05


Tree=3
num_leaves=128
num_cat=0
split_feature=0 3 0 3 1 1 0 3 1 0 4 1 0 1 1 2 3 2 4 0 1 1 0 2 0 1 1 1 1 1 4 0 2 0 4 3 4 2 3 1 3 2 1 4 2 1 1 1 0 2 1 3 3 1 0 3 1 0 3 3 1 2 1 1 2 1 2 4 1 3 1 3 4 2 0 0 1 4 0 1 2 0 2 3 1 1 1 1 4 1 0 0 0 1 1 4 4 3 2 0 1 0 1 1 1 1 0 2 1 1 0 2 4 2 4 1 4 1 0 1 4 1 2 1 1 1 1
split_gain=66401 32775.3 21244.3 6262.15 5827.23 5042.51 3349.33 3295.16 3128.77 3059.63 2304.91 2120.11 2061.3 1633.96 1539.36 1158.45 1066.27 1023.08 958.325 756.31 735.852 733.456 723.35 675.882 631.46 624.418 621.758 552.546 803.263 517.407 515.118 483.532 416.014 390.184 379.591 351.786 345.77 417.366 342.307 340.238 334.349 328.203 317.743 317.333 292.45 285.771 422.089 273.499 255.503 246.493 243.771 242.964 238.351 234.657 228.99 219.773 212.352 208.181 206.778 205.416 205.17 226.64 186.595 197.872 184.41 182.363 226.824 233.176 180.214 171.103 167.358 166.973 166.827 166.815 163.031 162.128 160.588 160.223 158.775 155.933 154.425 153.011 151.262 149.907 135.515 136.044 134.532 200.414 187.092 134.023 133.941 132.675 128.776 125.628 125.599 197.024 153.157 138.142 125.501 124.539 122.502 122.427 163.709 163.016 130.96 120.706 118.844 117.054 188.727 140.688 116.412 115.7 115.558 113.927 113.844 131.963 113.096 112.117 111.925 111.711 111.061 110.472 110.331 146.681 281.93 135.79 109.183
threshold=17.815072059631351 0.77634355425834667 7.5314345359802255 0.99974423646926891 59.314998626708991 56.944997787475593 11.423828125000002 0.99533146619796764 57.864999771118171 30.004882812500004 9.6421723365783709 59.104997634887702 10.281636238098146 22.48499965667725 19.914999961853031 0.90298539400100719 0.92051592469215404 0.70830714702606212 20.960486412048343 5.5278000831604013 31.244999885559086 60.224998474121101 5.7817704677581796 0.89826121926307689 6.1860246658325204 47.264999389648445 76.145000457763686 39.224998474121101 28.804999351501468 72.664997100830092 5.3421318531036386 13.844665527343752 0.63329356908798229 9.2207031250000018 16.256112098693851 0.20350150763988498 13.44713878631592 0.89707475900650036 0.36040779948234564 13.784999847412111 0.36040779948234564 0.96085470914840709 51.164999008178718 1.0214021205902102 0.93708014488220226 24.175000190734867 30.194998741149906 78.05499649047853 30.004882812500004 0.87504875659942638 69.49499893188478 0.7420768439769746 0.99921354651451122 35.674999237060554 14.829231739044191 0.29678028821945196 58.88499832153321 8.5239949226379412 0.96512547135353099 0.97754210233688366 34.43499946594239 0.95041599869728099 44.404998779296882 49.114999771118171 0.8291214406490327 54.254999160766609 0.71353399753570568 35.39479064941407 16.364998817443851 0.5432456135749818 29.154999732971195 0.99914348125457775 3.2897832393646245 0.8645627796649934 12.721679687500002 11.235003471374513 66.874996185302749 13.44713878631592 6.5400390625000009 62.354997634887702 0.6568560302257539 20.941406250000004 0.80810663104057323 0.95655804872512828 56.744998931884773 53.224998474121101 19.914999961853031 16.364998817443851 1.566042482852936 61.084999084472663 10.220703125000002 13.219906806945803 8.6180982589721697 61.54499816894532 21.314999580383304 17.499655723571781 10.435649394989015 0.99533146619796764 0.63754624128341686 10.220703125000002 76.395000457763686 15.165039062500002 77.724998474121108 74.30499649047853 79.734996795654311 59.314998626708991 9.5957031250000018 0.88548967242240917 69.924999237060561 67.534999847412124 9.8134765625000018 0.77994337677955639 47.374691009521491 0.62870869040489208 69.002761840820327 66.564998626708999 11.822977066040041 43.334999084472663 22.953613281250004 43.334999084472663 31.933726310729984 78.694995880126967 0.88320690393447887 34.704999923706062 37.784999847412116 36.545000076293952 74.724998474121108
decision_type=2 2 2 2 2 2 2 2 2 2 2 2 2 2 2 2 2 2 2 2 2 2 2 2 2 2 2 2 2 2 2 2 2 2 2 2 2 2 2 2 2 2 2 2 2 2 2 2 2 2 2 2 2 2 2 2 2 2 2 2 2 2 2 2 2 2 2 2 2 2 2 2 2 2 2 2 2 2 2 2 2 2 2 2 2 2 2 2 2 2 2 2 2 2 2 2 2 2 2 2 2 2 2 2 2 2 2 2 2 2 2 2 2 2 2 2 2 2 2 2 2 2 2 2 2 2 2
left_child=2 9 5 4 16 22 33 21 14 11 24 40 26 72 30 29 42 113 23 100 32 45 43 -19 50 52 36 28 77 74 99 73 -15 55 -31 80 37 92 98 -32 -2 65 51 -1 106 68 82 54 83 69 89 -4 94 60 114 -6 -37 -39 112 -48 -30 -62 -29 -64 70 66 119 71 -3 -26 -34 117 -9 93 -14 -44 -76 -25 -21 -56 -11 -67 -47 111 85 -65 87 -24 -88 -7 -27 -49 -10 -8 96 97 -18 -96 -13 -5 -12 102 103 -36 -104 -59 -41 109 -109 -83 -63 -23 -33 -16 115 -17 -66 -68 -40 -22 -20 -102 -73 -124 125 -125 -85
right_child=1 7 3 8 6 10 31 13 12 35 19 38 15 20 17 47 25 18 120 78 41 48 86 27 49 90 -28 62 53 34 39 58 64 -35 101 56 -38 57 118 44 -42 -43 75 -45 -46 46 59 91 -50 -51 -52 -53 -54 -55 79 -57 -58 105 -60 -61 61 110 63 84 116 81 67 -69 -70 -71 -72 122 -74 -75 76 -77 -78 -79 -80 -81 -82 107 -84 126 -86 -87 88 -89 -90 -91 -92 -93 -94 -95 95 -97 -98 -99 -100 -101 121 -103 104 -105 -106 -107 -108 108 -110 -111 -112 -113 -114 -115 -116 -117 -118 -119 -120 -121 -122 -123 123 124 -126 -127 -128
leaf_value=0.023066999277072002 -0.016916829213888099 -0.006928918564062506 -0.012449611124881058 -0.0032471564177135371 0.017579539215643897 0.026661639566826052 -0.0025336876258330449 -0.013916782948292145 0.010914110477275843 -0.016343548328027771 0.018870407185602029 -0.0090639852896244027 0.0033955133611624898 -0.0083093504911455323 -0.004122590965538778 0.0081330226249351593 -0.0097002883348913434 0.0027709422515326001 0.0006378086953566991 0.014755732528089999 -0.0030516464618314172 -0.0035390883269617412 -0.0035229226658819593 0.0014440124224696727 0.025153567476878108 0.001742584883431428 0.01583935863685176 0.0010643221658460061 0.0077605775530561185 0.0038064391357113766 -0.0039098795558120776 -0.0016355808186137655 0.0077174327575404295 0.0055344633189501925 0.01655605879086388 -0.016567605107084882 0.0066382364744137492 0.018695331637812975 -0.0055868473689583403 0.0040768896406073165 -0.012905352441087021 -0.0049723323588231946 -4.2440132754764274e-05 0.01061171045367644 0.010802865039544775 0.0018653908842686294 -0.0081125878415654485 0.02660720816964518 -0.010437752378188175 0.024243605498489199 0.022077850761024507 -0.007390413086989559 0.001925259501223967 0.0099494546981812974 0.0074073095054691179 0.0088083521833999326 -0.012842067814664624 0.01876256915829605 0.00050944531664428661 -0.0051273203579873423 0.0049574805349443321 0.012157670250797475 0.0066024317589787745 0.0038708369850193082 0.0036781464713409266 -0.00024587466381590343 -0.0043787043255103641 -0.0069737822822329709 -0.013257674825660615 0.016050027705716945 -0.00141416877883752 0.00059618705286055467 -0.0073796080227638994 0.0053349052916473912 0.0022373484357876183 -0.006481881415773591 -0.00043745342361069771 0.0083449977302868655 0.011392987517324456 0.0030276380577033192 -0.01866760170453589 -0.00058646314906714487 -0.0058237236573470417 -0.0026586148582181182 0.008391526095839626 -0.00053160207104812035 0.009792739360286672 0.010355789985616124 0.0030451543576783765 0.033016347249120642 -0.0014519477446323652 0.010127666341327626 0.0068547641007685916 0.0019331063264500009 -0.0049154083658524235 -0.0073626679519233247 -0.0020531813748582975 -0.001924916271271118 -0.012577978957714859 -0.0093829909419008272 0.030082974277891951 0.0033192570234664288 0.02418362504600774 0.0064861077939736504 0.011091159081145054 0.010700871433719622 -0.0044509259891982829 -0.0052804367696071396 0.0011788466750816649 -0.0036913313706924016 -0.0097743087421392743 -0.0066298681714291284 -0.0054714578564567136 -0.00071167801700477474 0.017934146094519883 0.005974629899847126 -0.00051333416733383261 0.00028309107473030025 -0.0081083996897938458 0.00061487208837925739 -0.0019424724256180714 0.019337997120932864 -0.0016187167352541337 0.0048652183296030143 0.0017205167933488569 0.012474850057117621 0.00098666971882984712
leaf_weight=6132 101459 20042 40131 11273 7725 14661 17661 19803 28155 119108 32479 64458 139066 7358 38019 134451 25298 924154 134423 58558 72493 138540 3051 73366 6256 42021 32217 74899 94343 54841 32372 171643 38299 163708 5755 80186 131445 14669 87370 8042 106434 44126 14610 30799 9427 20213 141905 2416 12733 23396 12470 58071 13458 91428 28609 94573 73134 5340 128952 97024 25123 704 51659 39149 56503 194561 23106 9775 25637 29503 5774 214014 19243 33244 151204 29534 89227 9500 87633 70173 178736 130203 9357 131130 9059 31804 11695 17643 84490 19115 149734 2470 63829 144797 88182 44882 8834 68705 41942 31043 5351 4780 4155 13323 3535 35582 8304 52890 14384 50688 4304 38747 22170 68749 2399 149623 22503 29192 88672 29119 60460 4326 18012 14460 71703 9860 24357
leaf_count=6132 101459 20042 40131 11273 7725 14661 17661 19803 28155 119108 32479 64458 139066 7358 38019 134451 25298 924154 134423 58558 72493 138540 3051 73366 6256 42021 32217 74899 94343 54841 32372 171643 38299 163708 5755 80186 131445 14669 87370 8042 106434 44126 14610 30799 9427 20213 141905 2416 12733 23396 12470 58071 13458 91428 28609 94573 73134 5340 128952 97024 25123 704 51659 39149 56503 194561 23106 9775 25637 29503 5774 214014 19243 33244 151204 29534 89227 9500 87633 70173 178736 130203 9357 131130 9059 31804 11695 17643 84490 19115 149734 2470 63829 144797 88182 44882 8834 68705 41942 31043 5351 4780 4155 13323 3535 35582 8304 52890 14384 50688 4304 38747 22170 68749 2399 149623 22503 29192 88672 29119 60460 4326 18012 14460 71703 9860 24357
internal_value=-7.5756e-07 -0.00620023 0.00353947 0.00247615 -0.000327326 0.0139142 0.00248707 -0.00226041 0.00375495 -0.013765 0.0177546 -0.0110309 0.00577801 -0.000642245 0.00246567 0.00451107 -0.00411133 0.00281486 0.00312649 0.0144414 -0.000288309 -0.00507655 0.00657985 0.0035749 0.0236752 -0.00289712 0.00926262 0.00504517 0.00641993 0.00282787 -0.0035515 0.000146914 0.00323941 0.00704823 0.00632025 -0.0167365 0.00850324 0.0101644 -0.00821019 -0.000497139 -0.0148631 -0.000758523 -0.00787405 0.0126798 0.00378941 -0.0068249 -0.00620292 0.00652106 -0.00348673 0.0202534 0.0280523 -0.00945789 -0.00454677 0.0080261 0.00637197 0.00947071 -0.0147905 0.0135848 -0.00104207 -0.00690033 0.00661338 0.00302138 0.0030568 0.00419019 0.00392983 -0.000559544 0.000103222 0.000651274 -0.0104809 0.0176427 0.0065211 0.000847239 -0.0106951 0.00210787 0.00203286 -0.00435067 0.0012447 0.00223516 0.01274 0.00429607 -0.0177382 -0.00129567 -0.000567719 -0.00322076 0.00263274 0.00189749 0.00465242 0.0083096 0.00386558 0.030258 -0.000751901 0.0182764 0.00809727 0.00144752 -0.004916 -0.00444148 -0.00772107 -0.00360579 -0.0104492 -0.0077484 0.0203416 0.0106901 0.0120063 0.00952377 0.0181652 0.0117529 -0.000255362 -0.00211872 -0.00389936 -0.00145649 -0.00669122 -0.00421459 -0.00207436 -0.00192627 0.00708779 0.00699619 0.0024843 -0.00177656 -0.00685695 -0.00200093 -0.000162691 0.0252795 0.00126553 0.00252171 0.00329837 0.00795037 -0.00208758
internal_weight=7.56361e+06 2.74925e+06 4.81436e+06 4.3668e+06 1.36793e+06 447558 784473 1.80775e+06 2.99887e+06 941499 293748 490335 1.16726e+06 1.14807e+06 1.8316e+06 856027 583460 1.73114e+06 1.62438e+06 188347 1.10902e+06 659685 153810 1.42949e+06 105401 441114 311237 505338 298768 465886 100461 518467 130437 266006 86389 451164 279020 147575 282442 58145 207893 978586 142346 36931 25773 314178 268499 390141 345507 59155 46246 98202 249359 215902 385255 102298 153320 55591 322765 238929 124474 30131 206570 131671 123079 934460 491734 390122 45679 35759 44073 380347 39046 195702 379497 44144 240431 82866 146191 98782 297844 442726 29570 332774 80012 70953 116879 20694 96185 33776 191755 4886 91984 162458 235901 201769 34132 156887 106400 42316 42156 31548 26768 19078 7690 40922 16346 248165 67274 180891 5008 177287 193813 106768 286473 284074 79006 52298 176042 101612 194883 9677 328049 114035 96023 24320 155487
internal_count=7563612 2749253 4814359 4366801 1367933 447558 784473 1807754 2998868 941499 293748 490335 1167264 1148069 1831604 856027 583460 1731143 1624375 188347 1109023 659685 153810 1429492 105401 441114 311237 505338 298768 465886 100461 518467 130437 266006 86389 451164 279020 147575 282442 58145 207893 978586 142346 36931 25773 314178 268499 390141 345507 59155 46246 98202 249359 215902 385255 102298 153320 55591 322765 238929 124474 30131 206570 131671 123079 934460 491734 390122 45679 35759 44073 380347 39046 195702 379497 44144 240431 82866 146191 98782 297844 442726 29570 332774 80012 70953 116879 20694 96185 33776 191755 4886 91984 162458 235901 201769 34132 156887 106400 42316 42156 31548 26768 19078 7690 40922 16346 248165 67274 180891 5008 177287 193813 106768 286473 284074 79006 52298 176042 101612 194883 9677 328049 114035 96023 24320 155487
is_linear=0
shrinkage=0.05


Tree=4
num_leaves=128
num_cat=0
split_feature=0 3 0 3 1 1 0 4 3 1 2 0 1 1 0 1 0 1 0 0 3 1 1 1 1 1 4 0 1 1 2 4 0 3 1 4 4 2 1 2 2 2 1 3 2 0 1 2 1 1 3 0 4 1 4 0 1 1 4 1 1 0 3 0 1 1 3 0 4 0 1 1 1 3 2 2 3 0 3 2 0 3 1 1 4 1 3 0 1 1 1 2 0 4 1 1 4 4 2 2 1 1 1 2 2 1 1 0 3 1 1 1 2 1 1 1 1 1 2 2 2 1 1 1 2 0 1
split_gain=60156.3 25390.7 21131.7 7779.43 6253.64 5267.5 3012.69 2530.08 2474.94 2325.9 2226.98 2031.16 1553.79 1187.36 1124.36 1056.35 1039.36 1003.38 982.61 929.168 906.052 704.692 831.615 666.392 580.783 525.75 487.698 469.61 546.759 452.347 441.069 437.147 403.574 352.906 341.65 320.39 315.022 301.211 302.811 293.977 293.647 288.855 274.786 268.138 267.45 266.948 263.122 259.076 249.918 436.479 264.856 247.731 253.882 245.456 233.71 214.186 212.818 307.818 211.546 208.786 207.27 206.019 204.106 188.453 225.381 186.108 218.141 185.862 180.646 172.703 164.767 275.386 164.583 188.09 164.03 158.912 154.421 149.785 149.421 149.216 145.977 144.663 138.836 138.724 131.311 130.985 129.869 129.334 128.345 258.953 136.806 126.311 124.758 122.205 120.169 141.189 140.902 118.536 115.013 114.47 114.291 123.898 112.227 110.815 110.445 151.158 109.978 109.426 108.866 124.824 108.276 108.199 105.508 190.167 125.57 110.04 104.439 103.351 180.543 101.288 100.147 99.7538 203.196 114.851 99.6227 99.1172 96.2418
threshold=19.597656250000004 0.74981030821800243 8.2198433876037615 0.99921354651451122 56.944997787475593 48.334999084472663 12.721679687500002 8.7550873756408709 0.99041980504989635 20.524999618530277 0.89590048789978038 30.004882812500004 58.88499832153321 22.48499965667725 14.759765625000002 72.33499908447267 6.1860246658325204 60.944997787475593 6.7036132812500009 5.995589256286622 0.74981030821800243 56.744998931884773 39.004999160766609 29.474999427795414 31.244999885559086 75.914997100830092 4.4738800525665292 12.721679687500002 62.974998474121101 60.054998397827156 0.69716772437095653 17.499655723571781 10.539501190185549 0.955263912677765 59.104997634887702 0.93917423486709606 18.635608673095707 0.66743257641792308 57.124998092651374 0.95767700672149669 0.63329356908798229 0.88320690393447887 37.304998397827156 0.36040779948234564 0.92157676815986644 15.751953125000002 66.874996185302749 0.75552213191986095 24.175000190734867 32.464998245239265 0.99639636278152477 9.8134765625000018 10.728263854980471 72.49499893188478 24.664251327514652 30.952148437500004 53.224998474121101 44.864999771118171 13.182479381561281 17.425000190734867 74.514999389648452 30.004882812500004 0.36040779948234564 15.165039062500002 77.724998474121108 76.145000457763686 0.95761215686798107 5.2340645790100107 11.43031167984009 9.8134765625000018 24.175000190734867 35.424999237060554 54.614999771118171 0.99748638272285473 0.83782905340194713 0.88773733377456676 0.29678028821945196 5.7817704677581796 0.36040779948234564 0.8291214406490327 11.673828125000002 0.48364135622978216 74.094997406005874 79.734996795654311 22.748276710510257 43.644998550415046 0.85575345158576976 16.800781250000004 38.524999618530281 44.864999771118171 40.814998626708991 0.83153381943702709 40.922851562500007 10.826743125915529 13.784999847412111 19.914999961853031 6.2728266716003427 1.566042482852936 0.60979238152503978 0.59918913245201122 11.674999713897707 18.675000190734867 16.364998817443851 0.63329356908798229 0.79159027338027965 72.33499908447267 59.88499832153321 39.545898437500007 0.99347469210624706 31.884999275207523 56.194997787475593 15.514999389648439 0.88548967242240917 70.05499649047853 67.534999847412124 58.374998092651374 61.54499816894532 66.564998626708999 0.92564207315444957 0.85877734422683727 0.93603965640068065 41.084999084472663 34.704999923706062 43.334999084472663 0.94909518957138073 12.111328125000002 29.474999427795414
decision_type=2 2 2 2 2 2 2 2 2 2 2 2 2 2 2 2 2 2 2 2 2 2 2 2 2 2 2 2 2 2 2 2 2 2 2 2 2 2 2 2 2 2 2 2 2 2 2 2 2 2 2 2 2 2 2 2 2 2 2 2 2 2 2 2 2 2 2 2 2 2 2 2 2 2 2 2 2 2 2 2 2 2 2 2 2 2 2 2 2 2 2 2 2 2 2 2 2 2 2 2 2 2 2 2 2 2 2 2 2 2 2 2 2 2 2 2 2 2 2 2 2 2 2 2 2 2 2
left_child=2 11 4 5 19 20 17 18 29 26 15 12 62 79 21 27 67 -7 53 35 -4 22 23 58 40 51 125 28 36 61 85 80 76 34 -8 99 47 38 -13 72 -15 78 84 103 -28 -36 54 -11 -22 91 -51 52 -23 77 88 86 57 -24 -12 -46 106 68 -2 64 -33 81 -67 -9 70 -30 102 -72 73 -26 126 -75 82 -6 -20 111 -17 -18 -19 -66 -25 -29 -31 -16 -32 90 -90 98 -39 94 -21 96 -96 -97 -50 -1 -37 -102 -3 -14 -88 -106 110 -40 109 -93 -35 -10 114 -114 115 -74 -56 118 -53 -34 -44 122 -77 -123 -43 -5 -42
right_child=1 8 3 9 7 6 33 16 13 10 14 37 43 24 87 31 65 32 41 93 48 25 56 42 39 -27 44 30 69 55 46 63 119 60 45 100 -38 92 107 -41 74 124 120 -45 59 -47 -48 -49 49 50 -52 117 -54 -55 116 -57 -58 -59 -60 -61 -62 -63 -64 -65 83 66 -68 -69 -70 -71 71 -73 112 75 -76 121 -78 -79 -80 -81 -82 -83 -84 -85 -86 -87 104 -89 89 -91 -92 108 -94 -95 95 97 -98 -99 -100 -101 101 -103 -104 -105 105 -107 -108 -109 -110 -111 -112 -113 113 -115 -116 -117 -118 -119 -120 -121 -122 123 -124 -125 -126 -127 -128
leaf_value=0.0076195219643199379 -0.016161290304299317 -0.0061304168251235542 -0.012311929851335352 -0.0054423090332792667 0.029595139842815327 0.00025470413117687564 -0.0068942728239446477 0.020431547454104901 -0.0014657786531924472 0.00014577082924531272 0.0016162512783076594 -0.016863726594972497 -0.0089934216993796286 -0.0081113806961229124 0.0035510875690069835 0.006931673525675937 0.017541282355175349 0.015961629165476776 0.022430389278422228 -0.0042936980783352657 -0.0077844845363944874 0.01363486193016218 0.00095363688325899589 0.0076883373309840535 -0.0036110726037181014 0.01673268555107189 -0.0047791766642373348 -0.0034310491757871121 0.0073909046520679077 -0.00585867960968683 0.0030645916317047842 0.00930102840267155 0.0030959965964878662 -0.0010589409000385684 -0.00043751720341480606 -0.0060418057328359663 -0.00055056489615958515 -0.016126759317400974 -0.01157616494158583 -0.0054192468969029997 0.0071490807562743924 0.01939875368394205 0.0098140798400245307 -0.0069501048554352785 -0.001305482764568365 -0.003394682869118067 -0.0010688459562196565 0.0031635983646461831 -0.0080452341155224701 -0.0070288730074034274 -0.0028905871322309333 0.0052038111338991375 0.0071780812263394292 0.018415641971491186 -0.0025220116448787431 -0.010237512274990694 -0.00098496934977919479 0.0052991918792318383 0.0086961924508608731 0.0068139906793746215 0.0031797549145624578 -0.012548066362788391 -0.012784805017773959 0.0015166216268924582 0.022968258078629802 0.0075814504107992123 0.015739840098152418 0.015436566417585427 -0.0088363233722265917 0.0041384385816945878 -0.0013177977333126087 -0.0065911463682173273 -0.0026254225319462358 -0.00051915430164327229 0.0018066743771020036 -0.0020376824144319071 0.0069169666088911928 0.024314901728006783 0.013038711398159045 -0.013003109346754234 0.002815012665724129 0.0094612177371426048 0.00054652162574318373 0.011683344954811029 -0.0013740534593168312 -4.2068191209594712e-05 -0.0024475550297677357 0.0015935130039886483 0.0011032081696848491 0.0022915788906051077 -0.0027008270149001482 -0.0093000005902523063 -0.018433069350742546 0.0015844341998760168 0.0021759783449547959 0.0076923931696630662 0.010564102508791104 0.0028331556644410343 0.00065662080349304978 0.024742887006332093 0.016506117730897069 0.0087722129831882042 -0.013264809094504252 -0.012417639548815342 -0.0066215231136220846 0.0003852269269025718 -5.8911147490278737e-05 -0.01454506302152005 -0.0013106357605050098 0.001576415707439018 -0.0045629460278352558 -0.010060299479116385 -0.0044598943077717437 0.0011151680940675462 -0.0029864312855099806 0.00015345566314400611 0.0026736448978171884 0.0057874260362241478 0.0087333976550409472 0.0065022435122192041 0.014986976604596672 -0.0055109262822524976 0.0053204688097975017 0.0014196009884082398 0.027435142793985047 -0.010714304268000213 -0.00057850962991657197
leaf_weight=1198 95582 11061 51383 14524 24517 134268 41036 30413 6380 84999 62251 85579 58099 5602 192692 35368 5754 8448 4789 3960 73922 28353 80968 120794 38056 15202 33962 54671 66360 58413 258337 33776 127009 78190 141097 1140 88851 128777 64745 39428 32771 17669 19727 135168 23501 166221 80546 435477 4121 135927 54034 53886 32879 10699 40116 13634 38672 82045 12704 11940 37181 16664 84172 5507 5689 11231 30295 48043 70224 106024 35730 80620 48041 261786 49303 12623 133115 29702 36618 19942 55057 148564 1766 5224 4134 59587 139728 150102 51288 350680 43836 12397 107658 66711 7204 15113 16412 74012 48325 5267 6179 31983 10988 39822 38576 9616 192622 59612 18238 3351 30704 8596 70371 19544 75180 137837 12745 158387 110577 26353 17798 7555 36548 28635 4933 23087 4594
leaf_count=1198 95582 11061 51383 14524 24517 134268 41036 30413 6380 84999 62251 85579 58099 5602 192692 35368 5754 8448 4789 3960 73922 28353 80968 120794 38056 15202 33962 54671 66360 58413 258337 33776 127009 78190 141097 1140 88851 128777 64745 39428 32771 17669 19727 135168 23501 166221 80546 435477 4121 135927 54034 53886 32879 10699 40116 13634 38672 82045 12704 11940 37181 16664 84172 5507 5689 11231 30295 48043 70224 106024 35730 80620 48041 261786 49303 12623 133115 29702 36618 19942 55057 148564 1766 5224 4134 59587 139728 150102 51288 350680 43836 12397 107658 66711 7204 15113 16412 74012 48325 5267 6179 31983 10988 39822 38576 9616 192622 59612 18238 3351 30704 8596 70371 19544 75180 137837 12745 158387 110577 26353 17798 7555 36548 28635 4933 23087 4594
internal_value=-1.86969e-06 -0.00685995 0.00289814 0.00173939 0.011477 -0.00120063 0.000563858 0.0152254 -0.00267848 0.00315226 0.00340604 -0.0136151 -0.0110872 -0.00113058 0.00510642 0.00233438 0.0125101 0.00384104 0.0210024 0.0048818 -0.00611158 0.00609284 0.00471051 0.0067161 -0.000766866 0.00761299 -0.00409327 0.00199629 0.00290437 -0.00555826 0.00125049 0.00650222 0.00546405 -0.00149179 -0.00260917 0.0112551 0.00220103 -0.015953 -0.0145746 -0.00121299 0.00298319 0.0166065 0.00851548 -0.00839351 -0.00160845 -0.00203698 0.00164803 0.00267076 -0.00520213 -0.00451147 -0.00585175 0.00725203 0.0101678 0.0253368 0.00193711 -0.00413714 0.00234968 0.00314077 0.00281622 0.00142995 -0.000342549 -0.00719814 -0.0145802 0.0102439 0.0113194 0.0105621 0.0135333 0.0173728 -0.00677081 0.00539049 -0.00572277 -0.00497175 -0.000987716 -0.0002741 0.00370032 9.17154e-05 0.00737158 0.0267025 0.0141249 -0.0101706 0.00442517 0.0097625 0.0132964 0.0175662 0.00738845 -0.00166365 -0.0037995 0.00269391 0.00217783 0.00166396 -0.000649806 -0.00156581 -0.0171769 0.00329146 0.00426726 0.00456796 0.00800533 0.00365714 -2.71367e-05 0.0215698 0.00955843 0.0100244 -0.0096858 -0.010386 -0.00315943 -0.00522343 -0.000776897 -0.0129993 -0.00394024 -0.00698562 -0.00204694 -0.00639891 -0.00177093 -0.00324809 -0.00126216 -0.000564758 -0.00126932 0.00669902 0.00757694 0.00368131 0.0122676 0.00196514 0.00343151 -2.72112e-05 0.0211527 -0.00867845 0.00619898
internal_weight=7.5617e+06 2.24726e+06 5.31444e+06 4.68203e+06 632406 1.51971e+06 1.11801e+06 403227 1.38805e+06 3.16232e+06 3.05531e+06 859214 412843 902792 1.18117e+06 1.87414e+06 274300 430959 128927 229179 401698 838377 439093 237408 867874 399284 107014 1.73352e+06 781711 485254 951806 140621 296691 687051 348354 45767 609327 446371 209936 775604 92270 64009 162453 233089 69403 307318 837548 520476 350315 276393 189961 384082 61232 64918 757002 259967 201685 163013 74955 35441 338697 225287 179754 50196 44689 195844 41526 78456 208623 172384 138399 116350 736176 385203 86668 347147 143329 54219 41407 34918 90425 154318 10214 10913 124928 114258 246333 342794 704141 445804 95124 86432 236435 183412 116701 112741 23616 89125 52446 6465 39302 38162 22049 97921 187920 48192 301516 124357 33986 15748 108894 14976 350973 89915 261058 185878 52861 322850 164463 153362 37525 85361 49171 36190 22602 37611 37365
internal_count=7561697 2247260 5314437 4682031 632406 1519708 1118010 403227 1388046 3162323 3055309 859214 412843 902792 1181171 1874138 274300 430959 128927 229179 401698 838377 439093 237408 867874 399284 107014 1733517 781711 485254 951806 140621 296691 687051 348354 45767 609327 446371 209936 775604 92270 64009 162453 233089 69403 307318 837548 520476 350315 276393 189961 384082 61232 64918 757002 259967 201685 163013 74955 35441 338697 225287 179754 50196 44689 195844 41526 78456 208623 172384 138399 116350 736176 385203 86668 347147 143329 54219 41407 34918 90425 154318 10214 10913 124928 114258 246333 342794 704141 445804 95124 86432 236435 183412 116701 112741 23616 89125 52446 6465 39302 38162 22049 97921 187920 48192 301516 124357 33986 15748 108894 14976 350973 89915 261058 185878 52861 322850 164463 153362 37525 85361 49171 36190 22602 37611 37365
is_linear=0
shrinkage=0.05


Tree=5
num_leaves=128
num_cat=0
split_feature=0 3 0 3 1 1 3 0 1 4 0 0 1 1 1 2 3 2 1 1 1 0 0 2 1 1 0 1 1 1 1 4 4 0 3 2 4 0 0 4 2 2 1 1 2 2 1 1 2 0 0 1 1 4 3 3 3 0 2 4 3 3 2 3 0 0 1 3 3 1 2 1 3 1 2 1 1 1 1 0 1 1 1 1 1 2 2 3 0 3 0 2 4 1 1 1 1 1 1 1 0 4 1 4 3 4 1 1 1 2 0 2 1 4 4 1 1 2 1 2 1 1 1 1 4 4 1
split_gain=54372.9 26947.1 17336 4993.02 4779.14 4151.63 3606.02 2675.6 2579.05 1886.02 1770.51 1685.02 1413.37 1376.71 1249.23 949.904 868.152 843.692 814.026 745.452 638.28 626.07 622.393 593.31 609.406 562.768 522.219 504.51 451.358 444.807 429.477 428.471 396.615 388.774 380.363 353.643 338.409 318.853 318.336 310.93 359.905 289.371 297.519 278.858 272.065 267.162 248.86 214.392 208.492 204.873 194.136 192.228 232.549 214.714 190.523 190.244 188.559 173.527 173.437 169.97 169.369 167.129 165.652 161.393 157.139 156.109 198.485 154.9 153.817 200.568 151.648 164.846 150.598 149.706 197.026 236.566 148.331 147.403 147.286 140.957 140.496 140.364 143.488 138.647 281.155 136.481 132.38 131.938 131.024 127.883 127.491 126.864 126.79 141.696 257.954 126.071 122.607 122.022 116.707 183.977 124.142 115.795 115.563 206.648 114.342 113.506 113.146 112.907 111.98 111.876 111.084 109.724 109.46 106.831 106.573 106.495 105.085 110.645 104.973 104.485 104.394 104.365 104.098 102.804 101.57 101.159 125.363
threshold=17.722656250000004 0.68004238605499279 7.5314345359802255 0.99974423646926891 59.314998626708991 57.124998092651374 0.99347469210624706 11.423828125000002 57.864999771118171 9.7317748069763201 29.743265151977543 10.016629695892336 58.88499832153321 22.48499965667725 19.914999961853031 0.89707475900650036 0.92051592469215404 0.69716772437095653 39.454999923706062 60.054998397827156 31.244999885559086 5.5278000831604013 5.2340645790100107 0.89590048789978038 29.474999427795414 44.864999771118171 6.1860246658325204 47.264999389648445 72.864997863769545 76.145000457763686 53.224998474121101 4.3510704040527353 9.2015466690063494 13.719726562500002 0.91294407844543468 0.64526751637458812 15.897483825683596 30.004882812500004 9.0566406250000018 12.112790584564211 0.90864667296409618 0.92361068725585949 16.364998817443851 78.05499649047853 0.96245527267456066 0.43734198808670049 51.164999008178718 72.49499893188478 0.87504875659942638 23.094726562500004 14.687528610229494 36.545000076293952 38.774999618530281 23.130158424377445 0.99921354651451122 0.7420768439769746 0.85575345158576976 6.3681640625000009 0.82785588502883922 0.85563099384307872 0.96512547135353099 0.3091153502464295 0.83038440346717846 0.36040779948234564 12.361328125000002 13.657669067382814 32.18499946594239 0.61024343967437755 0.99890229105949413 64.654998779296889 0.71353399753570568 40.814998626708991 0.36040779948234564 34.93499946594239 0.8645627796649934 36.224998474121101 35.18499946594239 62.18499946594239 44.004999160766609 13.094726562500002 76.395000457763686 37.545000076293952 36.545000076293952 24.175000190734867 32.18499946594239 0.86816072463989269 0.85283330082893383 0.81042051315307628 10.415672302246096 0.50366967916488659 8.5239949226379412 0.96245527267456066 15.554835319519045 24.175000190734867 27.134999275207523 31.884999275207523 29.154999732971195 27.134999275207523 74.30499649047853 77.724998474121108 13.908203125000002 17.118868827819828 47.624998092651374 21.985563278198246 0.29678028821945196 60.783460617065437 15.514999389648439 73.874996185302749 48.334999084472663 0.93935120105743419 10.016629695892336 0.95929738879203807 76.395000457763686 47.374691009521491 1.1041751503944399 10.654999732971193 66.564998626708999 0.93820637464523327 61.54499816894532 0.94049912691116344 56.38499832153321 66.874996185302749 79.734996795654311 78.694995880126967 12.211873054504396 29.378257751464847 34.93499946594239
decision_type=2 2 2 2 2 2 2 2 2 2 2 2 2 2 2 2 2 2 2 2 2 2 2 2 2 2 2 2 2 2 2 2 2 2 2 2 2 2 2 2 2 2 2 2 2 2 2 2 2 2 2 2 2 2 2 2 2 2 2 2 2 2 2 2 2 2 2 2 2 2 2 2 2 2 2 2 2 2 2 2 2 2 2 2 2 2 2 2 2 2 2 2 2 2 2 2 2 2 2 2 2 2 2 2 2 2 2 2 2 2 2 2 2 2 2 2 2 2 2 2 2 2 2 2 2 2 2
left_child=2 10 5 4 16 22 19 38 14 26 12 29 72 62 31 28 46 -16 23 34 35 112 59 125 97 101 47 54 64 39 86 -5 -32 85 83 -15 -30 56 61 40 -10 -33 115 50 68 -12 55 -7 67 -14 105 53 119 65 -18 -4 -21 114 96 -1 113 -6 106 -47 -13 -26 -67 -28 95 70 -70 73 -2 -72 75 -75 -68 -52 -73 -45 89 82 -76 -3 -85 118 -27 -82 -48 -23 -42 -44 93 -36 -95 -22 -37 -25 -38 -100 122 -20 103 -80 107 116 -8 -40 -46 -99 -29 -34 -11 -35 -24 -43 117 -17 -9 -53 -113 -66 -101 -114 -60 126 -19
right_child=1 6 3 8 7 9 13 33 11 21 45 15 49 20 17 43 27 18 25 37 44 80 57 24 51 30 48 110 36 -31 32 41 111 60 92 58 98 -39 104 -41 90 42 91 79 108 63 88 -49 -50 -51 77 52 -54 -55 -56 -57 -58 -59 124 -61 -62 -63 -64 -65 121 66 76 -69 69 -71 71 78 -74 74 81 -77 -78 -79 102 -81 87 -83 -84 84 -86 -87 -88 -89 -90 -91 -92 -93 -94 94 -96 -97 -98 109 99 100 -102 -103 -104 -105 -106 -107 -108 -109 -110 -111 -112 120 123 -115 -116 -117 -118 -119 -120 -121 -122 -123 -124 -125 -126 -127 -128
leaf_value=0.024172586412304752 -0.015299492602235162 -0.012215920340461177 -0.011195628463678817 -0.0082139908032051179 0.016105396491241035 0.027006289943518252 -0.00093785910188296504 -0.0022642929848627701 0.007947201554105084 0.017065987803873164 -0.012431004453195975 0.0032836924863259963 -0.0062954317448865168 -0.0067866814595138811 -0.0021261341878429057 0.0057822184966849341 -0.0044198359793387659 0.0023407289981616712 0.00037617062861295341 -0.0050280332133652095 -0.015906407120331596 0.018175623293586813 0.014252425427705651 0.00012713872267539056 0.0076784398352127622 0.0025623166219790761 0.022688581325773415 0.0017686357947351745 0.0033837968841013023 0.01438772654549887 0.0030515555359254187 -0.0043640985317259439 -0.0010773307201102206 -0.001358172741335041 -0.0084873077529688985 0.0071534018151272402 0.016174964721230731 -0.009518036220269973 0.011999461015418661 0.006275218833734832 0.018353982135747057 0.0011134350614651508 0.0054999415655563781 0.024968079972250992 -0.0070241785148685417 -0.016218760937378122 0.00070732251519198079 0.017934274814530485 0.022041618818769718 -0.0093440271988173441 0.006905905714086601 0.0090579072125874134 0.0039242806727628745 -0.0041099941191641096 0.001732850154706372 -0.006686153724190522 -0.0025904829889679274 0.0035209236137447178 0.003290250103007303 0.012122005628678323 0.00054668741201896562 0.0081457352985386186 -0.0121270956240042 -0.013419555476515535 0.0019507751489586879 0.0090408496572598942 -0.00082523089318954634 0.014372989755831695 -0.0014877982553550021 -0.0017906618313380798 -0.00056103853874168725 -0.0030808695955315715 -0.012322984420415328 0.0066992378651877368 0.0044531575429962991 -0.00021766527607004391 0.0057012891797519963 0.0028221376783743412 0.0052201729932122055 0.0090543401606271272 0.006807103271094155 0.002585656670816892 0.012227390256247136 -0.0025943275183386138 -0.0093794461178961647 0.0051007709687251549 0.0044943620821921637 0.015927666930152927 -0.005583896920396101 0.010355664963076721 0.011962020345905412 0.018495948296276682 -0.0079539864646635886 0.0028063596457447077 -0.0049078065268660757 -0.0018216762036628302 -0.00072230442925482949 0.0024936529549883339 0.0052690051113604064 0.02375352565420346 0.0060078651139623424 -0.0020549972634985119 -0.00015876293625264256 -0.0067773237680466974 0.0047801812911802081 0.015811239950261593 -0.009162567789466813 -0.0010070460239844793 -0.0018566332906355028 0.006960193075851287 -0.0012633382726237269 -0.0044092197912704804 0.02775011493400021 -0.0050113391884424926 0.0064618044382935245 -0.0061733931664679567 0.0053888486794243483 0.0085290985121984318 0.0018804356313511579 0.013454416043011919 0.014849886947739786 -0.00015971427279319692 0.011147319604907304 0.017458210249506202 -0.00070191857652601968 -0.001885433338870931 0.0041253238877635399
leaf_weight=3571 97714 26340 39590 29860 7158 38149 7144 17180 80464 32080 72285 131156 99647 8781 91345 68404 233758 297214 158639 112956 1604 5492 4907 35746 88589 158501 6936 37667 50092 30033 122056 34118 134756 172714 22798 38109 6088 21920 10018 131344 11254 12448 13031 2784 23071 309702 11103 7853 23334 123299 30543 37246 16455 5018 13298 57151 266571 89736 60192 16204 130173 83822 24942 61763 153200 14791 19187 29079 120728 176807 58361 39759 75200 14853 14964 73691 15937 79903 22426 2782 4677 33859 9837 18644 84305 30092 201211 26055 32504 108798 25425 2194 41403 11892 122139 167219 5678 51405 16537 3506 3322 70853 252865 4273 163254 3169 10084 2002 19215 19277 152579 1061 5375 22635 41647 8396 154733 78997 137880 21209 2089 94840 3073 4423 21668 11173 147120
leaf_count=3571 97714 26340 39590 29860 7158 38149 7144 17180 80464 32080 72285 131156 99647 8781 91345 68404 233758 297214 158639 112956 1604 5492 4907 35746 88589 158501 6936 37667 50092 30033 122056 34118 134756 172714 22798 38109 6088 21920 10018 131344 11254 12448 13031 2784 23071 309702 11103 7853 23334 123299 30543 37246 16455 5018 13298 57151 266571 89736 60192 16204 130173 83822 24942 61763 153200 14791 19187 29079 120728 176807 58361 39759 75200 14853 14964 73691 15937 79903 22426 2782 4677 33859 9837 18644 84305 30092 201211 26055 32504 108798 25425 2194 41403 11892 122139 167219 5678 51405 16537 3506 3322 70853 252865 4273 163254 3169 10084 2002 19215 19277 152579 1061 5375 22635 41647 8396 154733 78997 137880 21209 2089 94840 3073 4423 21668 11173 147120
internal_value=2.43927e-06 -0.00556071 0.00323271 0.00226517 -0.000252177 0.0125931 -0.00232073 0.00230868 0.00340846 0.0161092 -0.0130435 0.00524928 -0.0106126 -0.00064724 0.00223411 0.00417986 -0.00369648 0.00254988 0.002812 -0.00509882 -0.000326788 0.0130935 0.00600872 0.00397775 0.00561028 0.0017407 0.0214591 -0.00259836 0.00261358 0.00864021 0.00252402 -0.00319736 0.000975631 0.00018999 -0.00686901 0.00291421 0.0059624 -0.0036546 0.00637231 0.00794555 0.00981837 -0.00106311 0.00205933 0.00589669 -0.000748333 -0.0152121 -0.00711803 0.0254576 0.0183599 -0.00798144 0.00574785 0.0071219 0.009175 0.00605031 -0.00408866 -0.0085316 -0.00331595 0.00480597 0.00359217 0.0142981 -0.000850459 0.00877197 -0.00952263 -0.0157533 0.00188395 0.00641842 0.00418213 0.0159745 -0.00058078 -0.000298585 0.000110031 0.000477544 -0.014005 0.00158192 0.00243152 0.000942625 0.00213608 0.00395147 -0.000233399 0.0170141 0.0115384 0.00467892 0.00753671 -0.00897888 -0.00815067 0.00201924 0.00364304 0.0145396 -0.00398206 0.0107314 0.0139232 0.00737273 -0.00549293 -0.0048432 -0.00422336 -0.0019555 0.00613213 0.00250782 0.0099336 0.00849638 0.0138869 -0.000374424 0.000171562 0.00330005 0.00512671 0.00639771 -0.005752 0.00983315 -0.00467602 0.00371181 -0.000663035 -0.0008617 0.0184787 -0.00178146 0.00728297 -0.00182171 0.00629897 0.00725436 0.00142122 0.0106531 0.00836293 0.00114381 0.0178653 0.0231042 0.00223354 0.00281346 0.00293161
internal_weight=7.56418e+06 2.77871e+06 4.78547e+06 4.33715e+06 1.35458e+06 448316 1.9391e+06 776928 2.98257e+06 292251 839610 1.16165e+06 395860 1.21013e+06 1.82092e+06 883129 577650 1.72088e+06 1.62953e+06 728968 1.16796e+06 186900 156065 780367 324860 849166 105351 437302 461814 278520 619674 100047 259962 510674 327521 134428 82618 401447 266254 248487 117143 70187 36069 421315 1.03353e+06 443750 140348 46002 59349 222946 415749 218432 74910 143522 247056 96741 379527 136290 125647 19775 325522 90980 42170 371465 379196 138504 49915 36015 991246 822423 645616 524888 172914 205565 147204 88544 35124 110446 319323 5566 145022 58660 24801 129289 102949 185152 359712 30732 43607 114290 36679 15225 198232 156829 134031 168823 43787 106428 32526 26438 9901 229492 279564 26699 175274 305303 17228 12020 42286 70682 190246 137906 41878 195349 46554 20844 302134 147401 155060 58455 3150 248040 6579 9798 81860 455507 444334
internal_count=7564176 2778708 4785468 4337152 1354578 448316 1939098 776928 2982574 292251 839610 1161649 395860 1210130 1820925 883129 577650 1720878 1629533 728968 1167960 186900 156065 780367 324860 849166 105351 437302 461814 278520 619674 100047 259962 510674 327521 134428 82618 401447 266254 248487 117143 70187 36069 421315 1033532 443750 140348 46002 59349 222946 415749 218432 74910 143522 247056 96741 379527 136290 125647 19775 325522 90980 42170 371465 379196 138504 49915 36015 991246 822423 645616 524888 172914 205565 147204 88544 35124 110446 319323 5566 145022 58660 24801 129289 102949 185152 359712 30732 43607 114290 36679 15225 198232 156829 134031 168823 43787 106428 32526 26438 9901 229492 279564 26699 175274 305303 17228 12020 42286 70682 190246 137906 41878 195349 46554 20844 302134 147401 155060 58455 3150 248040 6579 9798 81860 455507 444334
is_linear=0
shrinkage=0.05


Tree=6
num_leaves=128
num_cat=0
split_feature=0 3 0 3 1 1 0 4 1 3 2 3 0 1 0 0 1 1 0 3 1 1 1 0 1 4 0 1 1 1 4 0 4 1 2 2 3 1 0 2 2 4 1 2 0 2 2 0 1 1 4 1 1 0 4 1 0 1 0 1 1 0 4 3 1 3 1 2 1 3 1 1 3 2 3 4 0 1 1 2 1 1 3 2 0 0 1 4 1 4 1 4 4 2 2 1 4 1 1 4 1 1 4 2 3 1 1 1 2 1 1 1 2 2 0 1 1 1 1 1 4 4 2 1 4 1 1
split_gain=49163.9 20088.4 17641.8 6641.53 5301.8 4301.6 2451.68 2096.04 1953.08 1908.59 1808.58 1585.79 984.702 915.667 900.412 854.139 842.457 807.04 793.172 790.916 725.194 560.428 533.431 538.926 459.411 416.75 420.565 409.032 668.551 529.809 408.045 377.49 366.213 353.958 325.577 309.949 306.86 309.263 299.533 293.808 265.056 264 251.31 239.221 236.108 223.705 223.321 222.171 217.082 403.319 247.226 210.985 210.419 204.937 189.795 189.668 183.985 181.834 180.417 178.338 252.793 175.363 184.959 170.047 164.074 160.374 150.488 147.475 143.331 193.008 140.338 137.558 139.035 136.328 135.442 132.476 130.032 128.341 128.038 124.265 123.885 151.35 122.762 121.683 120.947 120.586 116.503 115.582 115.403 114.137 114.626 112.862 110.194 120.498 108.723 106.765 106.735 106.034 129.571 133.041 105.495 115.236 104.527 103.742 103.246 101.151 116.31 98.7883 97.1046 174.382 104.464 94.3485 157.487 93.7526 91.6656 90.5369 90.4818 90.2472 94.2477 90.1366 91.1634 89.6014 89.0662 88.2621 87.9736 87.9193 87.8982
threshold=19.949218750000004 0.74981030821800243 8.3218851089477557 0.99921354651451122 57.124998092651374 48.334999084472663 12.721679687500002 8.7550873756408709 20.524999618530277 0.99041980504989635 0.89590048789978038 0.36040779948234564 14.759765625000002 22.48499965667725 6.3681640625000009 6.7036132812500009 72.33499908447267 60.944997787475593 5.995589256286622 0.78853973746299755 58.88499832153321 75.914997100830092 59.104997634887702 34.047851562500007 31.244999885559086 24.664251327514652 13.657669067382814 56.744998931884773 39.224998474121101 29.804999351501468 4.6427361965179452 30.952148437500004 20.130672454833988 63.124998092651374 0.81492161750793468 0.69428277015686046 0.95761215686798107 60.054998397827156 10.539501190185549 0.7575235664844514 0.88773733377456676 1.1041751503944399 66.724998474121108 0.95767700672149669 15.751953125000002 0.64526751637458812 0.92157676815986644 33.061523437500007 24.175000190734867 27.784998893737797 17.499655723571781 72.49499893188478 60.374998092651374 10.807617187500002 13.052814960479738 75.715000152587905 5.2340645790100107 37.304998397827156 14.283203125000002 53.224998474121101 44.864999771118171 10.016629695892336 10.631465435028078 0.86307451128959667 16.364998817443851 0.99164491891860973 77.724998474121108 0.83536848425865184 76.145000457763686 0.95761215686798107 36.224998474121101 54.614999771118171 0.99748638272285473 0.61948692798614513 0.36040779948234564 3.1800333261489873 5.5278000831604013 38.774999618530281 72.49499893188478 0.5936851203441621 44.864999771118171 40.534999847412116 0.15396235138177874 0.88433700799942028 12.234776973724367 16.878906250000004 62.024999618530281 10.826743125915529 79.734996795654311 13.44713878631592 39.974998474121101 18.385225296020511 13.052814960479738 0.76131263375282299 0.77090781927108776 70.624996185302749 42.122600555419929 13.784999847412111 19.914999961853031 4.2350072860717782 35.424999237060554 32.744998931884773 1.7025373578071596 0.59918913245201122 0.33378966152668005 11.674999713897707 18.675000190734867 10.654999732971193 0.88548967242240917 70.05499649047853 67.534999847412124 13.784999847412111 0.85513859987258922 0.94909518957138073 12.298828125000002 43.644998550415046 58.374998092651374 59.714998245239265 56.194997787475593 76.145000457763686 4.5286433696746835 10.33853340148926 0.67811024188995372 24.175000190734867 50.83441352844239 41.084999084472663 72.664997100830092
decision_type=2 2 2 2 2 2 2 2 2 2 2 2 2 2 2 2 2 2 2 2 2 2 2 2 2 2 2 2 2 2 2 2 2 2 2 2 2 2 2 2 2 2 2 2 2 2 2 2 2 2 2 2 2 2 2 2 2 2 2 2 2 2 2 2 2 2 2 2 2 2 2 2 2 2 2 2 2 2 2 2 2 2 2 2 2 2 2 2 2 2 2 2 2 2 2 2 2 2 2 2 2 2 2 2 2 2 2 2 2 2 2 2 2 2 2 2 2 2 2 2 2 2 2 2 2 2 2
left_child=2 11 4 5 18 19 17 15 30 31 16 22 21 75 56 51 25 -7 41 104 -13 27 -2 79 45 26 33 28 29 54 114 34 84 39 63 115 37 -8 82 -10 74 103 70 71 124 -15 -32 122 111 -50 65 76 -27 -35 -12 117 -9 91 66 60 -30 62 -29 -3 107 -51 -34 -47 92 -70 100 72 -26 -25 -17 -11 -6 -59 123 -24 81 94 -19 -74 -18 -14 -65 97 -68 -41 -91 -31 -16 126 -72 -54 -46 -20 99 -99 101 -37 -100 -1 -4 -43 -107 -48 110 -110 116 112 -21 -42 -5 -28 -73 118 -38 120 -53 -86 -22 -36 -39 -52 -94
right_child=1 9 3 8 7 6 36 14 10 13 12 20 85 24 68 40 32 38 87 48 47 -23 23 73 43 52 35 61 59 57 46 -33 58 53 78 42 55 44 -40 89 113 105 -44 -45 96 67 64 -49 49 50 125 119 95 -55 -56 -57 -58 77 -60 -61 -62 -63 -64 86 -66 -67 88 -69 69 -71 80 108 83 -75 -76 -77 -78 -79 -80 -81 -82 -83 -84 -85 121 -87 -88 -89 -90 90 -92 -93 93 -95 -96 -97 -98 98 102 -101 -102 -103 -104 -105 -106 106 -108 -109 109 -111 -112 -113 -114 -115 -116 -117 -118 -119 -120 -121 -122 -123 -124 -125 -126 -127 -128
leaf_value=0.0060800262400912599 -0.01541683590035002 -0.0057068475533161821 -0.014481403247430339 -0.0049253638195801731 0.027854840984211274 0.00015853520037385305 -0.0058677475469901376 0.018500097771819986 -3.5529048160897638e-05 -0.012499739338056523 0.0016209445259594 -0.012336067743461703 0.0031641169354021345 -0.0065894811556327856 0.01131477188276969 0.020323934284404661 0.0060724557845656148 0.013763266531415417 -0.0037395454372008904 -0.0015554004389122479 -0.0057336154558692842 0.015205986848730821 -0.0084473284317203873 -0.012650933773312731 -0.0032150709973407608 -0.0022902425980147428 -0.0031882412263451267 0.011666858500607988 0.00076612388977224206 0.0072221496863030289 -0.0044292355443760548 -0.010572059120241584 0.0092547510358444041 0.0066671396981902832 -0.01171176744166625 0.0032463245988412059 -0.00093084305648048456 0.00021697905715907745 0.0033509551464568502 0.0030811399479192007 0.017549960507256376 -0.0060821416688011352 -0.0013992632788207447 -0.0050650656879908289 -0.0025516373159188473 0.005955380458526627 0.0010724920436000281 -0.010975254697354145 0.00074700342706270702 -0.005163433399879353 -0.0095443510229512498 0.018994474227008402 0.002430408062620609 0.0031022427369294362 0.0080012768624992091 0.0035741070228424324 0.013722733039935453 0.012245911034899701 0.0019313007025160815 -0.00097651525216733244 0.0047758858188272071 0.0060139086674648144 0.006410819506553026 -0.0044370713232146745 0.0054800493353206739 -0.0021102697208393996 0.022255549045561013 0.0015878759639645313 0.0062647170398839646 0.013971115441107807 -0.0013196905985587803 -0.0024521887821341952 -0.0005134392923720662 -0.015953052139661573 0.011711378681041275 -0.0061702052387055733 0.022553418277133225 0.0058869585618012117 -1.1957167586927064e-05 -0.011598225865932338 0.0019133454096139778 -0.0023844412443654976 0.006253197718881544 0.0017061351745619562 0.0010265144090320884 0.0013100303557680465 -0.0020506312768159354 0.0014009445683929233 0.01077633266120457 0.0037293054168102409 0.00025564558801876544 0.0020593512552718623 0.011154842411533914 0.0066078409117559175 0.0024874347570979392 -0.0033410636776482296 -0.0063414860127788929 -0.0010154074741004129 0.006772832550382646 0.0089724049900046614 0.0063577908022158644 -0.00015685199470849082 0.0025428294352601698 0.021460343007798699 -0.0096399653634913398 0.015258389072985545 0.0077789502556959537 -0.0063652104524466336 -0.0043563855711631983 0.001167888740208014 -0.0028084365037090581 -0.0081555792942796836 -0.011729232357791589 0.025168507458277003 -0.0098046308865509246 -4.9066802199614157e-05 0.00014334108704429317 -5.470928680728223e-05 -0.0042120697374630383 0.022682270436612802 0.0075405448723906828 0.0052534138190561061 -0.0085867793685681006 -0.0066580774143087029 -0.0036254909089688692 -0.0058219221306744888 0.006703497899019497
leaf_weight=1330 294026 80552 14247 16018 16896 132003 54637 30329 115449 16035 66741 126525 198384 6002 29811 5151 44585 5675 4384 14992 103515 14576 65335 53901 36265 89943 44937 30953 76044 107073 32334 29225 26028 79884 9276 125744 79815 122197 153369 457821 17583 1145 66557 37201 157479 33320 12448 34303 38483 95258 27548 3414 50990 81390 14122 28651 60067 30196 6239 38029 81363 314125 36446 85494 14182 78417 4627 46028 11108 30253 27691 45351 244057 74400 40118 17064 36670 10763 6879 60052 289578 42701 132239 82664 34610 157174 127278 73602 4156 34024 78642 11747 35645 72123 58098 9507 21063 3964 17991 20984 20863 31009 77588 6242 48496 6213 31811 6961 65758 18250 70696 53486 5097 5242 24121 46983 129340 204765 30152 3876 3537 19659 37176 125943 16964 37395 16099
leaf_count=1330 294026 80552 14247 16018 16896 132003 54637 30329 115449 16035 66741 126525 198384 6002 29811 5151 44585 5675 4384 14992 103515 14576 65335 53901 36265 89943 44937 30953 76044 107073 32334 29225 26028 79884 9276 125744 79815 122197 153369 457821 17583 1145 66557 37201 157479 33320 12448 34303 38483 95258 27548 3414 50990 81390 14122 28651 60067 30196 6239 38029 81363 314125 36446 85494 14182 78417 4627 46028 11108 30253 27691 45351 244057 74400 40118 17064 36670 10763 6879 60052 289578 42701 132239 82664 34610 157174 127278 73602 4156 34024 78642 11747 35645 72123 58098 9507 21063 3964 17991 20984 20863 31009 77588 6242 48496 6213 31811 6961 65758 18250 70696 53486 5097 5242 24121 46983 129340 204765 30152 3876 3537 19659 37176 125943 16964 37395 16099
internal_value=-1.98388e-07 -0.00637209 0.00255028 0.00148118 0.0101883 -0.00120042 0.000385247 0.013613 0.00278803 -0.00249542 0.00301779 -0.0123643 0.00454702 -0.00108417 0.0112006 0.0188105 0.00205765 0.00340168 0.00435242 -0.00556907 -0.00945228 0.00548806 -0.0139674 -0.0122876 -0.000753057 0.00175947 0.00199584 0.00531481 0.00426875 0.00603305 -0.003883 -0.00507109 0.0057914 0.00276034 -0.00470188 0.00113702 -0.0013987 -0.00239293 0.0048714 0.00226479 0.0149065 0.0102123 0.00151466 -0.0011591 -0.00179535 0.00271787 -0.0014631 -0.00736723 -0.00464401 -0.00400298 -0.00476904 0.0229389 -0.000756636 0.00486805 0.00273521 -0.000320628 0.0153256 0.00770206 0.00976114 0.00209636 0.00283875 0.00651045 0.00882466 -0.00375026 0.00139205 -0.00378488 0.0111644 0.00342189 0.00928877 0.0119015 0.00184024 -0.000949239 -0.000277881 -0.0145658 0.0126914 -0.00923658 0.0242256 0.0105749 -0.00666624 -0.0099564 0.00134001 4.78902e-05 0.00656223 4.81374e-05 0.00414293 0.00234452 -0.00300953 0.00297267 0.0168237 0.0027303 0.00130466 0.00671174 0.00858559 0.00792876 0.00125857 0.00152343 -0.00299873 0.00389878 0.00417662 0.00738544 0.00301766 0.00257311 0.00333905 0.0187588 -0.0107393 0.00856015 0.00900107 -0.00159503 -0.00168906 -0.00315629 -0.00118676 -0.00705826 -0.00413671 0.0192996 -0.00785749 -0.00158372 -0.000530477 -0.000675178 -0.00183053 0.0165729 0.0131662 0.00255771 -0.00648753 -0.00700476 -0.000251426 -0.00740093 0.00976991
internal_weight=7.56303e+06 2.16191e+06 5.40112e+06 4.73794e+06 663176 1.55243e+06 1.13901e+06 417922 3.18552e+06 1.31268e+06 3.07945e+06 849233 1.18774e+06 848031 285435 132487 1.89172e+06 423286 245254 413419 301519 832178 547714 253688 814932 1.75181e+06 1.60137e+06 817602 436078 240642 106064 464647 139904 847210 435422 754161 715723 372340 291283 685936 68094 46741 662241 729582 317703 85350 65925 174994 350676 277101 238618 64393 150440 161274 80863 343383 90396 159779 41050 195436 157407 381524 67399 293324 33591 173675 34811 79348 195039 41361 595684 692381 362986 128301 45269 33099 53566 40959 142098 125387 418068 128490 137914 326721 98854 355558 212772 198513 8783 570487 112666 118820 153678 123867 85789 60497 178542 124911 120527 24948 177616 156753 95579 7572 62743 39169 38024 19409 329395 84008 245387 73575 20089 22825 40139 91920 174691 314732 109967 10827 6951 54269 140691 135219 139161 64943 51744
internal_count=7563030 2161911 5401119 4737943 663176 1552428 1139009 417922 3185515 1312678 3079451 849233 1187736 848031 285435 132487 1891715 423286 245254 413419 301519 832178 547714 253688 814932 1751811 1601371 817602 436078 240642 106064 464647 139904 847210 435422 754161 715723 372340 291283 685936 68094 46741 662241 729582 317703 85350 65925 174994 350676 277101 238618 64393 150440 161274 80863 343383 90396 159779 41050 195436 157407 381524 67399 293324 33591 173675 34811 79348 195039 41361 595684 692381 362986 128301 45269 33099 53566 40959 142098 125387 418068 128490 137914 326721 98854 355558 212772 198513 8783 570487 112666 118820 153678 123867 85789 60497 178542 124911 120527 24948 177616 156753 95579 7572 62743 39169 38024 19409 329395 84008 245387 73575 20089 22825 40139 91920 174691 314732 109967 10827 6951 54269 140691 135219 139161 64943 51744
is_linear=0
shrinkage=0.05


Tree=7
num_leaves=128
num_cat=0
split_feature=0 3 0 3 1 3 1 1 0 0 4 0 1 1 1 2 1 2 4 1 1 2 0 0 3 1 1 1 0 0 4 1 3 2 4 4 2 0 1 1 3 2 2 1 0 3 0 3 1 1 2 0 1 3 1 4 4 2 4 2 4 1 1 1 0 2 1 1 1 1 0 1 0 1 4 3 1 1 0 1 2 1 1 4 4 1 1 3 1 1 1 3 2 1 2 1 2 4 3 1 2 1 2 2 1 0 0 1 1 1 2 1 4 3 2 1 2 1 1 0 3 1 2 1 2 1 4
split_gain=44357.9 22837.3 13866.1 3676.17 3935.16 3174.49 3164.75 2250.63 2063.03 1534.76 1526.92 1409.53 1220.36 1217.82 952.201 764.482 699.544 672.411 685.935 667.946 573.673 491.502 475.504 469.746 453.889 434.841 370.718 562.396 361.307 358.034 355.506 332.87 326.944 318.802 298.534 297.322 329.758 268.285 267.256 252.074 233.427 221.767 218.639 216.31 203.658 225.919 201.109 193.688 185.514 174.625 174.061 170.194 169.143 161.657 160.46 158.442 156.276 155.998 155.422 147.807 144.715 165.909 180.373 142.363 165.336 142.176 174.852 142.131 141.972 167.945 138.29 149.69 137.099 136.023 134.191 134.043 131.496 131.413 129.244 126.638 126.555 124.469 259.081 121.658 118.713 132.467 218.936 117.906 114.491 141.861 113.094 108.857 108.596 139.596 136.172 108.377 105.652 104.492 101.607 99.8244 128.988 99.7969 99.7016 99.5241 152.976 99.4413 99.3678 98.8303 98.6157 166.288 112.829 98.1497 98.1006 95.378 95.3454 94.9222 94.8065 94.7983 94.58 93.7021 93.3673 92.6798 92.2181 91.9965 91.6977 91.4977 96.2901
threshold=17.253906250000004 0.68004238605499279 7.4031746387481698 0.99974423646926891 59.514999389648445 0.99347469210624706 56.744998931884773 57.864999771118171 10.994140625000002 30.004882812500004 9.9065370559692401 9.8134765625000018 57.364999771118171 22.48499965667725 19.914999961853031 0.91197732090950023 47.624998092651374 0.69428277015686046 20.688755989074711 60.054998397827156 31.244999885559086 0.89238551259040844 5.2340645790100107 5.5278000831604013 0.78853973746299755 72.33499908447267 39.224998474121101 28.804999351501468 6.1860246658325204 13.283203125000002 6.0761685371398935 76.145000457763686 0.91294407844543468 0.63329356908798229 15.016380310058596 11.236742019653322 0.92256784439086925 30.952148437500004 13.784999847412111 78.05499649047853 0.29678028821945196 0.74755996465682995 0.96245527267456066 57.124998092651374 10.477539062500002 0.97754210233688366 23.238281250000004 0.99639636278152477 69.49499893188478 74.094997406005874 0.95621025562286388 8.7978515625000018 19.244999885559086 0.85575345158576976 37.304998397827156 10.928386688232424 35.39479064941407 0.8645627796649934 0.85563099384307872 0.82134798169136058 1.1839075088500979 19.914999961853031 16.364998817443851 66.564998626708999 12.234776973724367 0.80944785475730907 29.154999732971195 38.774999618530281 44.404998779296882 49.114999771118171 21.580078125000004 52.954998016357429 12.234776973724367 48.334999084472663 50.83441352844239 0.3477481752634049 78.05499649047853 79.734996795654311 10.016629695892336 61.084999084472663 0.85877734422683727 24.175000190734867 32.18499946594239 13.314405441284181 13.583533287048342 24.175000190734867 27.134999275207523 0.5432456135749818 74.30499649047853 73.395000457763686 76.395000457763686 0.81042051315307628 0.43734198808670049 72.33499908447267 0.8645627796649934 15.514999389648439 0.68487754464149486 11.822977066040041 0.51486366987228405 74.724998474121108 0.77446630597114574 76.395000457763686 0.64111569523811351 0.88320690393447887 70.05499649047853 9.5957031250000018 40.922851562500007 63.584999084472663 33.545000076293952 24.175000190734867 0.82525262236595165 57.124998092651374 12.014809131622316 0.99890229105949413 0.82525262236595165 43.334999084472663 0.95767700672149669 65.164997100830092 61.54499816894532 8.6180982589721697 0.99974423646926891 19.244999885559086 0.84131896495819103 52.414999008178718 0.94049912691116344 31.594999313354496 13.707841396331789
decision_type=2 2 2 2 2 2 2 2 2 2 2 2 2 2 2 2 2 2 2 2 2 2 2 2 2 2 2 2 2 2 2 2 2 2 2 2 2 2 2 2 2 2 2 2 2 2 2 2 2 2 2 2 2 2 2 2 2 2 2 2 2 2 2 2 2 2 2 2 2 2 2 2 2 2 2 2 2 2 2 2 2 2 2 2 2 2 2 2 2 2 2 2 2 2 2 2 2 2 2 2 2 2 2 2 2 2 2 2 2 2 2 2 2 2 2 2 2 2 2 2 2 2 2 2 2 2 2
left_child=2 9 6 4 16 19 22 14 40 12 28 31 75 59 30 25 24 -16 21 32 33 -19 58 101 -4 72 27 83 48 80 78 35 81 -15 -27 36 119 53 -32 55 49 43 56 -11 -18 -46 -14 108 79 -6 105 -42 -49 -21 -29 63 70 87 -1 95 123 62 -62 64 -17 66 -35 -56 -28 -70 96 -72 -13 -44 92 -2 88 -78 -5 122 118 -3 -83 -23 85 -34 114 -30 89 -36 98 -92 -31 94 -94 -7 -22 -67 -25 100 -55 -12 -48 -73 -105 -40 -45 -96 109 -26 -111 -71 -61 115 -87 -98 -64 -115 -10 -9 -118 -52 -8 -24 -57 -112 -127
right_child=1 5 3 7 8 13 10 11 29 41 23 15 46 20 17 39 44 18 -20 37 42 26 60 90 47 34 68 54 57 74 38 -33 84 65 76 -37 -38 -39 50 -41 51 -43 73 106 45 -47 102 52 -50 -51 121 -53 -54 99 67 124 -58 -59 -60 112 61 -63 116 -65 -66 97 -68 -69 69 111 71 103 -74 -75 -76 -77 77 -79 -80 -81 -82 82 -84 -85 -86 86 -88 -89 -90 -91 91 -93 93 -95 107 -97 113 -99 -100 -101 -102 -103 -104 104 -106 -107 -108 -109 -110 110 125 -113 -114 117 -116 -117 120 -119 -120 -121 -122 -123 -124 -125 -126 126 -128
leaf_value=0.022420216444437494 -0.014103765169452718 -0.011135734965988579 -0.0094384198227411027 -0.0016222057554536509 0.014017597999703525 -0.00043689496148254837 0.014729109433771077 0.010055862268995408 -0.0020302074957832309 -0.014465229086518006 0.015274454220888101 0.0031737577241564372 -0.0057737670501918064 -0.0068846358697804647 -0.002029639092660167 0.0088579362474089547 0.0013393272787886228 0.0022315578336541738 -0.00017683459987610062 -0.004480008433144481 -0.0016301824971500672 0.0011571219130181529 0.0082199077114207039 0.01659758250075451 -0.0058903270291921625 0.003388892945661057 0.00089286943711613183 0.005929834875460901 0.021248311869062789 -0.0028853994086304514 -0.0030766192966286401 0.013086567439717917 -0.0077250829408960948 0.0070579936497309958 0.0056103700435092899 0.0059285826632921659 0.014614797945050452 -0.0088303128980304416 0.0056328170991452806 0.017927683633827095 0.0077227894128910242 -0.015185327604974812 -0.0065265226965287738 -0.01046139361534203 -0.004499880597324828 -0.00068068489469207041 -0.0075562354541178203 -0.0081862278889552158 0.017771872928724838 0.00014534692138830642 0.019569853583286601 0.0047806583721945219 -0.0013804255228377061 -0.001913116861254038 0.010751873943331719 0.0051049664475710851 -0.0045208376825917008 0.020024612363243741 0.010798460406699614 -0.011596233687659016 -0.003432571752009843 0.0029389313597054942 0.0081059001559638157 0.0035048439370655147 0.0043157617226016942 0.0032686473664295546 -0.002917349911494923 0.0042665916622165101 0.0057909820731908085 0.0017566045594739896 -9.7530421761675317e-05 -0.0012487971258021884 0.0012726608632236298 -0.0011168442324760895 -0.0040251406735850046 -0.011267309597390751 0.019343288800750407 0.0081261197863490339 -0.0072806608155909745 0.027509288006751328 0.0051144167614103481 -0.0021162140357152037 -0.0085087521784495274 0.0068672807654902232 -0.0070100219241145097 0.004888956257678035 -0.0042992910766250286 0.013198367437073442 0.0050917902271787226 0.017140029443679126 0.0061293805190270161 0.014714311099846195 -0.0012108105266284497 0.0020201890136106594 0.0046276631008467161 -0.0084193713651354758 -0.0050979505072282242 -0.00032993413815613431 0.0094447976373809063 -0.00015363418114811066 -0.0044157529047479027 0.021041994449900937 -0.01037978627520106 -0.0047666895337275597 0.0012742245195644609 -0.0014863719962786015 -0.013122910963800733 -0.00037286790390132502 -0.0060293542546616874 0.00035918627340165543 -0.0076785540504409472 0.0081384811891644163 0.0015962078258721002 0.0010799501089213167 -0.0061163841262875593 -0.0003797027316407631 -0.0044189489250763868 -0.00076433004250593618 0.0021353362545079905 0.0064879226715294953 0.022038466446466096 -0.0012044217384297624 0.023695975481523811 0.021728970738372988 0.0076265359403035402 0.0022048178609472223 -0.011185862647539339
leaf_weight=3537 92621 27213 43649 14076 14394 7463 3861 30695 15201 117966 32594 149084 114580 8181 83600 34445 62346 867191 198780 119780 71242 75340 8359 5225 45309 63286 78264 173279 5531 32476 27180 29736 23471 34781 5275 134033 24172 20295 11161 4166 73878 172787 24414 83627 59108 112266 81867 10236 12742 2693 2496 146878 84433 163573 35893 55611 23100 23492 15412 25974 3134 87651 17133 117547 47888 72482 5028 11049 52453 82383 241065 179929 260615 22174 24222 75689 5174 5271 35650 19347 33389 19370 87219 10646 52479 9873 120677 25613 21198 5398 4375 23670 152710 74141 19406 9883 13428 27952 99741 45851 75137 9742 50581 51459 13160 8751 60397 20131 94363 28141 10696 6500 1490 339622 2458 51707 390 87661 131591 45946 2300 684 11141 1484 102523 6356 1702
leaf_count=3537 92621 27213 43649 14076 14394 7463 3861 30695 15201 117966 32594 149084 114580 8181 83600 34445 62346 867191 198780 119780 71242 75340 8359 5225 45309 63286 78264 173279 5531 32476 27180 29736 23471 34781 5275 134033 24172 20295 11161 4166 73878 172787 24414 83627 59108 112266 81867 10236 12742 2693 2496 146878 84433 163573 35893 55611 23100 23492 15412 25974 3134 87651 17133 117547 47888 72482 5028 11049 52453 82383 241065 179929 260615 22174 24222 75689 5174 5271 35650 19347 33389 19370 87219 10646 52479 9873 120677 25613 21198 5398 4375 23670 152710 74141 19406 9883 13428 27952 99741 45851 75137 9742 50581 51459 13160 8751 60397 20131 94363 28141 10696 6500 1490 339622 2458 51707 390 87661 131591 45946 2300 684 11141 1484 102523 6356 1702
